{"learner":{"attributes":{"scikit_learn":"{\"n_estimators\": 500, \"objective\": \"binary:logistic\", \"max_depth\": 3, \"learning_rate\": null, \"verbosity\": null, \"booster\": null, \"tree_method\": \"gpu_hist\", \"gamma\": null, \"min_child_weight\": null, \"max_delta_step\": null, \"subsample\": null, \"colsample_bytree\": null, \"colsample_bylevel\": null, \"colsample_bynode\": null, \"reg_alpha\": null, \"reg_lambda\": null, \"scale_pos_weight\": null, \"base_score\": null, \"missing\": NaN, \"num_parallel_tree\": null, \"kwargs\": {\"single_precision_histogram\": true}, \"random_state\": 33, \"n_jobs\": -1, \"monotone_constraints\": null, \"interaction_constraints\": null, \"importance_type\": \"gain\", \"gpu_id\": null, \"validate_parameters\": null, \"classes_\": [0, 1], \"n_classes_\": 2, \"_le\": {\"classes_\": [0, 1]}, \"_features_count\": 946, \"n_features_in_\": 946, \"type\": \"XGBClassifier\"}"},"gradient_booster":{"model":{"gbtree_model_param":{"num_trees":"500","size_leaf_vector":"0"},"tree_info":[0,0,0,0,0,0,0,0,0,0,0,0,0,0,0,0,0,0,0,0,0,0,0,0,0,0,0,0,0,0,0,0,0,0,0,0,0,0,0,0,0,0,0,0,0,0,0,0,0,0,0,0,0,0,0,0,0,0,0,0,0,0,0,0,0,0,0,0,0,0,0,0,0,0,0,0,0,0,0,0,0,0,0,0,0,0,0,0,0,0,0,0,0,0,0,0,0,0,0,0,0,0,0,0,0,0,0,0,0,0,0,0,0,0,0,0,0,0,0,0,0,0,0,0,0,0,0,0,0,0,0,0,0,0,0,0,0,0,0,0,0,0,0,0,0,0,0,0,0,0,0,0,0,0,0,0,0,0,0,0,0,0,0,0,0,0,0,0,0,0,0,0,0,0,0,0,0,0,0,0,0,0,0,0,0,0,0,0,0,0,0,0,0,0,0,0,0,0,0,0,0,0,0,0,0,0,0,0,0,0,0,0,0,0,0,0,0,0,0,0,0,0,0,0,0,0,0,0,0,0,0,0,0,0,0,0,0,0,0,0,0,0,0,0,0,0,0,0,0,0,0,0,0,0,0,0,0,0,0,0,0,0,0,0,0,0,0,0,0,0,0,0,0,0,0,0,0,0,0,0,0,0,0,0,0,0,0,0,0,0,0,0,0,0,0,0,0,0,0,0,0,0,0,0,0,0,0,0,0,0,0,0,0,0,0,0,0,0,0,0,0,0,0,0,0,0,0,0,0,0,0,0,0,0,0,0,0,0,0,0,0,0,0,0,0,0,0,0,0,0,0,0,0,0,0,0,0,0,0,0,0,0,0,0,0,0,0,0,0,0,0,0,0,0,0,0,0,0,0,0,0,0,0,0,0,0,0,0,0,0,0,0,0,0,0,0,0,0,0,0,0,0,0,0,0,0,0,0,0,0,0,0,0,0,0,0,0,0,0,0,0,0,0,0,0,0,0,0,0,0,0,0,0,0,0,0,0,0,0,0,0,0,0,0,0,0,0,0,0,0,0,0,0,0,0,0,0,0,0,0,0,0,0,0,0,0,0,0,0,0,0,0,0,0,0,0,0,0,0,0,0,0,0,0,0,0,0,0,0,0,0,0,0,0,0,0,0,0,0,0],"trees":[{"base_weights":[-9.642502E-1,6.5005285E-1,-1.7095622E0,-4.567588E-1,1.0036837E0,-1.8647232E0,-7.2541285E-1,-3.6150357E-1,2.0298192E-2,-5.6749076E-1,-2.0978595E-1,4.3838623E-1,1.5834543E-1,-9.7685315E-2,-4.451572E-1],"default_left":[true,true,true,true,true,true,true,false,false,false,false,false,false,false,false],"id":0,"leaf_child_counts":[0,0,0,0,0,0,0,0,0,0,0,0,0,0,0],"left_children":[1,3,5,7,11,9,13,-1,-1,-1,-1,-1,-1,-1,-1],"loss_changes":[8.8345484E4,9.078456E3,7.669547E3,2.2040857E3,3.8269238E3,1.3596719E3,2.0744683E3,0E0,0E0,0E0,0E0,0E0,0E0,0E0,0E0],"parents":[2147483647,0,0,1,1,2,2,3,3,5,5,4,4,6,6],"right_children":[2,4,6,8,12,10,14,-1,-1,-1,-1,-1,-1,-1,-1],"split_conditions":[-4.4726562E-1,-3.6083984E-1,8.532715E-2,-3.289795E-2,-1.1220703E0,-4.8858643E-2,1.7700195E-1,-3.6150357E-1,2.0298192E-2,-5.6749076E-1,-2.0978595E-1,4.3838623E-1,1.5834543E-1,-9.7685315E-2,-4.451572E-1],"split_indices":[4,14,14,54,4,40,4,0,0,0,0,0,0,0,0],"sum_hessian":[7.3426E4,2.31925E4,5.02335E4,5.61575E3,1.757675E4,4.33915E4,6.842E3,2.3135E3,3.30225E3,4.24115E4,9.8E2,8.95925E3,8.6175E3,4.48125E3,2.36075E3],"tree_param":{"num_deleted":"0","num_feature":"946","num_nodes":"15","size_leaf_vector":"0"}},{"base_weights":[-7.215116E-1,-7.070788E-1,-1.4827213E2,3.8231704E-1,-1.3281243E0,1.2138428E-3,3.34281E-1,-1.9349478E-1,-4.2781666E-1],"default_left":[false,true,false,false,false,false,false,false,false],"id":1,"leaf_child_counts":[0,0,0,0,0,0,0,0,0],"left_children":[1,3,-1,5,7,-1,-1,-1,-1],"loss_changes":[4.94747E5,4.70264E4,0E0,6.987831E3,2.9607734E3,0E0,0E0,0E0,0E0],"parents":[2147483647,0,0,1,1,3,3,4,4],"right_children":[2,4,-1,6,8,-1,-1,-1,-1],"split_conditions":[2.5219727E-1,-3.0810547E-1,-1.4827213E2,5.385742E-1,-1.1679688E0,1.2138428E-3,3.34281E-1,-1.9349478E-1,-4.2781666E-1],"split_indices":[795,4,0,24,19,0,0,0,0],"sum_hessian":[6.950694E4,6.950591E4,1.03125E0,2.5237094E4,4.4268812E4,1.6639078E4,8.598016E3,5.5513906E3,3.871742E4],"tree_param":{"num_deleted":"0","num_feature":"946","num_nodes":"9","size_leaf_vector":"0"}},{"base_weights":[-5.740242E-1,-5.4768217E-1,-2.2221504E2,-9.8335E-1,5.1320845E-1,2.9977135E-2,-3.3181745E-1,2.6079655E-1,2.5115037E-2],"default_left":[false,false,false,false,true,false,false,false,false],"id":2,"leaf_child_counts":[0,0,0,0,0,0,0,0,0],"left_children":[1,3,-1,5,7,-1,-1,-1,-1],"loss_changes":[1.2240592E6,2.902735E4,0E0,5.9179805E3,2.796294E3,0E0,0E0,0E0,0E0],"parents":[2147483647,0,0,1,1,3,3,4,4],"right_children":[2,4,-1,6,8,-1,-1,-1,-1],"split_conditions":[2.875E0,5.722656E-1,-2.2221504E2,-7.8466797E-1,-8.7890625E-1,2.9977135E-2,-3.3181745E-1,2.6079655E-1,2.5115037E-2],"split_indices":[63,124,0,4,4,0,0,0,0],"sum_hessian":[6.280228E4,6.2801047E4,1.234375E0,4.451889E4,1.8282156E4,4.529797E3,3.9989094E4,9.994328E3,8.287828E3],"tree_param":{"num_deleted":"0","num_feature":"946","num_nodes":"9","size_leaf_vector":"0"}},{"base_weights":[-4.5666867E-1,1.9255725E-1,-1.0975207E0,1.8314503E-1,2.2788723E1,-1.1848028E0,-5.64529E-1,1.6257143E-1,-1.00401394E-1,-3.5646445E-1,9.503883E-1,1.085388E0,1.3721017E1,-1.9064465E-1,4.4865483E-1],"default_left":[true,true,true,true,true,false,true,false,false,false,false,false,false,false,false],"id":3,"leaf_child_counts":[0,0,0,0,0,0,0,0,0,0,0,0,0,0,0],"left_children":[1,3,5,7,11,9,13,-1,-1,-1,-1,-1,-1,-1,-1],"loss_changes":[2.3148855E4,5.8741577E3,1.3018984E3,5.132829E3,4.8937285E3,3.6108203E2,5.7712585E2,0E0,0E0,0E0,0E0,0E0,0E0,0E0,0E0],"parents":[2147483647,0,0,1,1,2,2,3,3,5,5,4,4,6,6],"right_children":[2,4,6,8,12,10,14,-1,-1,-1,-1,-1,-1,-1,-1],"split_conditions":[-7.928467E-2,2.9082031E0,-1.1413574E-1,-1.1259766E0,1.4375E0,3.9042969E0,1.5693359E0,1.6257143E-1,-1.00401394E-1,-3.5646445E-1,9.503883E-1,1.085388E0,1.3721017E1,-1.9064465E-1,4.4865483E-1],"split_indices":[4,60,14,19,84,9,9,0,0,0,0,0,0,0,0],"sum_hessian":[5.5637055E4,2.7638305E4,2.799875E4,2.7627805E4,1.05E1,2.4057844E4,3.9409062E3,1.63204375E4,1.1307367E4,2.4039727E4,1.8117188E1,6.3515625E0,4.1484375E0,3.8103594E3,1.3054688E2],"tree_param":{"num_deleted":"0","num_feature":"946","num_nodes":"15","size_leaf_vector":"0"}},{"base_weights":[-3.712987E-1,-8.719373E-1,2.539516E-1,-5.165026E1,-8.663662E-1,2.4392453E-1,4.0384724E1,2.4767442E-1,-2.3613281E1,2.0262826E-2,3.281105E-1,-2.865135E-1,8.954606E-2,5.282101E-1,2.5838318E1],"default_left":[true,true,true,false,true,true,false,false,false,false,false,false,false,false,false],"id":4,"leaf_child_counts":[0,0,0,0,0,0,0,0,0,0,0,0,0,0,0],"left_children":[1,3,5,7,11,9,13,-1,-1,-1,-1,-1,-1,-1,-1],"loss_changes":[1.5582566E4,7.775699E3,8.89754E3,4.347266E3,2.8557422E3,3.317102E3,9.607046E3,0E0,0E0,0E0,0E0,0E0,0E0,0E0,0E0],"parents":[2147483647,0,0,1,1,2,2,3,3,5,5,4,4,6,6],"right_children":[2,4,6,8,12,10,14,-1,-1,-1,-1,-1,-1,-1,-1],"split_conditions":[-3.289795E-2,-7.7685547E-1,2.9082031E0,-6.723633E-1,-1.3562012E-1,3.4492188E0,1.3300781E0,2.4767442E-1,-2.3613281E1,2.0262826E-2,3.281105E-1,-2.865135E-1,8.954606E-2,5.282101E-1,2.5838318E1],"split_indices":[54,359,60,116,40,74,84,0,0,0,0,0,0,0,0],"sum_hessian":[4.977896E4,2.7643992E4,2.2134969E4,2.015625E0,2.7641977E4,2.2130445E4,4.5234375E0,1.015625E0,1E0,1.8327438E4,3.8030078E3,2.5686664E4,1.9553125E3,3.015625E0,1.5078125E0],"tree_param":{"num_deleted":"0","num_feature":"946","num_nodes":"15","size_leaf_vector":"0"}},{"base_weights":[-2.9419E-1,-3.0623734E-1,6.6519035E1,1.1150309E-1,-9.392672E-1,3.0681437E-2,1.11953125E1,-3.1182048E-1,-1.4087574E-1],"default_left":[false,false,false,true,true,false,false,false,false],"id":5,"leaf_child_counts":[0,0,0,0,0,0,0,0,0],"left_children":[1,3,-1,5,7,-1,-1,-1,-1],"loss_changes":[1.20932734E5,1.1948923E4,0E0,9.346344E3,8.443672E2,0E0,0E0,0E0,0E0],"parents":[2147483647,0,0,1,1,3,3,4,4],"right_children":[2,4,-1,6,8,-1,-1,-1,-1],"split_conditions":[1.36796875E1,5.065918E-2,6.6519035E1,2.9082031E0,-2.6391602E-1,3.0681437E-2,1.11953125E1,-3.1182048E-1,-1.4087574E-1],"split_indices":[609,4,0,60,14,0,0,0,0],"sum_hessian":[4.5185445E4,4.5183992E4,1.453125E0,2.7221305E4,1.7962688E4,2.7215555E4,5.75E0,1.4805086E4,3.1576016E3],"tree_param":{"num_deleted":"0","num_feature":"946","num_nodes":"9","size_leaf_vector":"0"}},{"base_weights":[-2.4488889E-1,-2.5565624E-1,1.05163216E2,1.8023285E-1,-7.3316646E-1,-2.580723E-1,6.733667E1,5.046018E-2,2.045713E1,-2.579155E-1,8.63567E-2],"default_left":[false,false,false,true,true,false,false,false,false,false,false],"id":6,"leaf_child_counts":[0,0,0,0,0,0,0,0,0,0,0],"left_children":[1,3,5,7,9,-1,-1,-1,-1,-1,-1],"loss_changes":[4.7139137E4,8.639369E3,5.3847367E4,1.7745803E4,2.5596592E3,0E0,0E0,0E0,0E0,0E0,0E0],"parents":[2147483647,0,0,1,1,2,2,3,3,4,4],"right_children":[2,4,6,8,10,-1,-1,-1,-1,-1,-1],"split_conditions":[6.6445312E0,-1.0455322E-1,-1.4904785E-1,2.9082031E0,1.9407272E-3,-2.580723E-1,6.733667E1,5.046018E-2,2.045713E1,-2.579155E-1,8.63567E-2],"split_indices":[439,19,238,60,43,0,0,0,0,0,0],"sum_hessian":[4.1508797E4,4.1505555E4,3.2421875E0,2.169875E4,1.9806805E4,2.2421875E0,1E0,2.1695914E4,2.8359375E0,1.7622695E4,2.1841094E3],"tree_param":{"num_deleted":"0","num_feature":"946","num_nodes":"11","size_leaf_vector":"0"}},{"base_weights":[-2.0072186E-1,-1.8334912E-1,-9.864152E1,-5.859379E-1,2.4693301E-1,-1.9882649E-1,2.6915252E-1,7.177134E-2,1.3120715E1],"default_left":[false,false,false,true,false,false,false,false,false],"id":7,"leaf_child_counts":[0,0,0,0,0,0,0,0,0],"left_children":[1,3,-1,5,7,-1,-1,-1,-1],"loss_changes":[2.1934756E5,6.6576836E3,0E0,2.2627007E3,6.206782E3,0E0,0E0,0E0,0E0],"parents":[2147483647,0,0,1,1,3,3,4,4],"right_children":[2,4,-1,6,8,-1,-1,-1,-1],"split_conditions":[3.6347656E0,-2.2216797E-1,-9.864152E1,1.4160156E0,2.9082031E0,-1.9882649E-1,2.6915252E-1,7.177134E-2,1.3120715E1],"split_indices":[585,25,0,9,60,0,0,0,0],"sum_hessian":[3.843254E4,3.8431508E4,1.03125E0,1.98545E4,1.8577008E4,1.8877312E4,9.771875E2,1.8574727E4,2.28125E0],"tree_param":{"num_deleted":"0","num_feature":"946","num_nodes":"9","size_leaf_vector":"0"}},{"base_weights":[-1.4693919E-1,-1.5368943E-1,3.4078262E1,8.1181265E-2,-9.147344E-1,4.00214E1,-3.7079647E0,2.5434313E-2,-1.0134301E1,-3.0021152E-1,-1.3777053E-1,1.9815668E-2,-3.3313434E0],"default_left":[true,true,true,true,false,false,true,false,false,false,false,false,false],"id":8,"leaf_child_counts":[0,0,0,0,0,0,0,0,0,0,0,0,0],"left_children":[1,3,5,7,9,-1,11,-1,-1,-1,-1,-1,-1],"loss_changes":[8.420819E3,6.51012E3,2.7470566E4,3.3955054E3,3.358916E2,0E0,1.7323676E2,0E0,0E0,0E0,0E0,0E0,0E0],"parents":[2147483647,0,0,1,1,2,2,3,3,4,4,6,6],"right_children":[2,4,6,8,10,-1,12,-1,-1,-1,-1,-1,-1],"split_conditions":[2.9082031E0,2.775879E-1,1.9970703E-1,6.6445312E0,-1.2445068E-1,4.00214E1,-3.5083008E-1,2.5434313E-2,-1.0134301E1,-3.0021152E-1,-1.3777053E-1,1.9815668E-2,-3.3313434E0],"split_indices":[60,4,17,439,36,0,25,0,0,0,0,0,0],"sum_hessian":[3.64256E4,3.6419414E4,6.1875E0,2.7831164E4,8.58825E3,1.0078125E0,5.1796875E0,2.7829203E4,1.9609375E0,7.223664E3,1.3645859E3,4.0859375E0,1.09375E0],"tree_param":{"num_deleted":"0","num_feature":"946","num_nodes":"13","size_leaf_vector":"0"}},{"base_weights":[-1.1345377E-1,-1.2484314E-1,5.3258884E1,-1.3145927E-1,4.4761868E1,-1.541152E-1,6.400018E-2,3.7936832E1,-2.2554915E0],"default_left":[false,false,false,true,true,false,false,false,false],"id":9,"leaf_child_counts":[0,0,0,0,0,0,0,0,0],"left_children":[1,3,-1,5,7,-1,-1,-1,-1],"loss_changes":[7.002168E4,1.0280213E4,0E0,4.5593833E3,2.273945E4,0E0,0E0,0E0,0E0],"parents":[2147483647,0,0,1,1,3,3,4,4],"right_children":[2,4,-1,6,8,-1,-1,-1,-1],"split_conditions":[3.5371094E0,2.9082031E0,5.3258884E1,-3.5302734E-1,7.128906E-1,-1.541152E-1,6.400018E-2,3.7936832E1,-2.2554915E0],"split_indices":[700,60,0,20,2,0,0,0,0],"sum_hessian":[3.4596695E4,3.4595477E4,1.21875E0,3.4591375E4,4.1015625E0,1.640421E4,1.8187164E4,1.046875E0,3.0546875E0],"tree_param":{"num_deleted":"0","num_feature":"946","num_nodes":"9","size_leaf_vector":"0"}},{"base_weights":[-1.0127373E-1,-8.832386E-2,-1.0904572E2,-9.35742E-2,2.4228003E1,2.8767124E-1,-6.2255642E1,-2.9899763E-2,8.031251E0],"default_left":[true,false,true,true,false,false,false,false,false],"id":10,"leaf_child_counts":[0,0,0,0,0,0,0,0,0],"left_children":[1,3,5,7,-1,-1,-1,-1,-1],"loss_changes":[4.6646574E4,1.4044062E4,4.2767305E4,5.4139414E3,0E0,0E0,0E0,0E0,0E0],"parents":[2147483647,0,0,1,1,2,2,3,3],"right_children":[2,4,6,8,-1,-1,-1,-1,-1],"split_conditions":[3.4179688E0,6.9023438E0,-1.346875E1,2.9316406E0,2.4228003E1,2.8767124E-1,-6.2255642E1,-2.9899763E-2,8.031251E0],"split_indices":[704,170,702,62,0,0,0,0,0],"sum_hessian":[3.3069375E4,3.3066445E4,2.9296875E0,3.3065297E4,1.1484375E0,1.8515625E0,1.078125E0,3.3058797E4,6.5E0],"tree_param":{"num_deleted":"0","num_feature":"946","num_nodes":"9","size_leaf_vector":"0"}},{"base_weights":[-4.973439E-2,-6.7440554E-2,6.9625565E1,-7.446093E-2,4.9562973E1,-1.8689622E-1,4.6190742E-2,1.20645165E-1,3.4185528E1],"default_left":[true,false,false,false,false,false,false,false,false],"id":11,"leaf_child_counts":[0,0,0,0,0,0,0,0,0],"left_children":[1,3,-1,5,7,-1,-1,-1,-1],"loss_changes":[1.3472686E5,1.1422675E4,0E0,4.1061216E3,1.4631269E4,0E0,0E0,0E0,0E0],"parents":[2147483647,0,0,1,1,3,3,4,4],"right_children":[2,4,-1,6,8,-1,-1,-1,-1],"split_conditions":[3.4472656E0,6.4101562E0,6.9625565E1,-4.4799805E-1,-2.1655273E-1,-1.8689622E-1,4.6190742E-2,1.20645165E-1,3.4185528E1],"split_indices":[704,34,0,104,200,0,0,0,0],"sum_hessian":[3.2773707E4,3.2772207E4,1.5E0,3.276857E4,3.6367188E0,9.633656E3,2.3134914E4,2.6328125E0,1.0039062E0],"tree_param":{"num_deleted":"0","num_feature":"946","num_nodes":"9","size_leaf_vector":"0"}},{"base_weights":[-6.994687E-2,-5.7308182E-2,-5.1048878E1,-2.162587E-1,6.492402E-1,-1.3347691E-1,8.5457325E-2,1.8739566E-1,1.787143E1],"default_left":[false,true,false,false,false,false,false,false,false],"id":12,"leaf_child_counts":[0,0,0,0,0,0,0,0,0],"left_children":[1,3,-1,5,7,-1,-1,-1,-1],"loss_changes":[6.7813516E4,3.5431782E3,0E0,2.951316E3,8.357158E3,0E0,0E0,0E0,0E0],"parents":[2147483647,0,0,1,1,3,3,4,4],"right_children":[2,4,-1,6,8,-1,-1,-1,-1],"split_conditions":[2.9492188E0,3.4887695E-1,-5.1048878E1,3.1469727E-1,2.9179688E0,-1.3347691E-1,8.5457325E-2,1.8739566E-1,1.787143E1],"split_indices":[703,34,0,125,64,0,0,0,0],"sum_hessian":[3.1548352E4,3.1547008E4,1.34375E0,2.5753906E4,5.7931016E3,1.7684438E4,8.0694688E3,5.7916953E3,1.40625E0],"tree_param":{"num_deleted":"0","num_feature":"946","num_nodes":"9","size_leaf_vector":"0"}},{"base_weights":[-5.418919E-2,-4.2349413E-2,-5.3739246E1,-5.347141E-2,4.2408226E1,-1.3643745E-2,-9.359865E0],"default_left":[true,true,false,true,false,false,false],"id":13,"leaf_child_counts":[0,0,0,0,0,0,0],"left_children":[1,3,-1,5,-1,-1,-1],"loss_changes":[6.464222E4,4.7960137E4,0E0,7.5882593E3,0E0,0E0,0E0],"parents":[2147483647,0,0,1,1,3,3],"right_children":[2,4,-1,6,-1,-1,-1],"split_conditions":[2.9199219E0,2.875E0,-5.3739246E1,2.9316406E0,4.2408226E1,-1.3643745E-2,-9.359865E0],"split_indices":[703,63,0,62,0,0,0],"sum_hessian":[3.0490922E4,3.0489906E4,1.015625E0,3.0488508E4,1.3984375E0,3.0481688E4,6.8203125E0],"tree_param":{"num_deleted":"0","num_feature":"946","num_nodes":"7","size_leaf_vector":"0"}},{"base_weights":[-7.2012995E-3,-2.5764707E-2,7.389182E1,-3.0336589E-2,1.6131346E1,-1.1549162E-1,6.69503E-2],"default_left":[false,true,false,false,false,false,false],"id":14,"leaf_child_counts":[0,0,0,0,0,0,0],"left_children":[1,3,-1,5,-1,-1,-1],"loss_changes":[1.391254E5,7.484617E3,0E0,2.7351494E3,0E0,0E0,0E0],"parents":[2147483647,0,0,1,1,3,3],"right_children":[2,4,-1,6,-1,-1,-1],"split_conditions":[2.8046875E0,2.9082031E0,7.389182E1,-2.9418945E-1,1.6131346E1,-1.1549162E-1,6.69503E-2],"split_indices":[702,60,0,29,0,0,0],"sum_hessian":[3.0424738E4,3.0423445E4,1.2929688E0,3.042186E4,1.5859375E0,1.2681195E4,1.7740664E4],"tree_param":{"num_deleted":"0","num_feature":"946","num_nodes":"7","size_leaf_vector":"0"}},{"base_weights":[-3.9488636E-2,-2.5740042E-2,-4.234671E1,-3.103438E-2,2.1589962E1,-7.362829E-3,-1.7440926E1,1.8113697E1,1.5518798E0],"default_left":[true,true,false,true,false,false,false,false,false],"id":15,"leaf_child_counts":[0,0,0,0,0,0,0,0,0],"left_children":[1,3,-1,5,7,-1,-1,-1,-1],"loss_changes":[5.7957875E4,3.4193438E3,0E0,1.1264167E4,4.346755E3,0E0,0E0,0E0,0E0],"parents":[2147483647,0,0,1,1,3,3,4,4],"right_children":[2,4,-1,6,8,-1,-1,-1,-1],"split_conditions":[1.6953125E0,2.875E0,-4.234671E1,2.9316406E0,9.995117E-1,-7.362829E-3,-1.7440926E1,1.8113697E1,1.5518798E0],"split_indices":[703,63,0,62,30,0,0,0,0],"sum_hessian":[2.9873762E4,2.9871852E4,1.9101562E0,2.9865535E4,6.3164062E0,2.98632E4,2.3359375E0,1.0820312E0,5.234375E0],"tree_param":{"num_deleted":"0","num_feature":"946","num_nodes":"9","size_leaf_vector":"0"}},{"base_weights":[-2.6093137E-3,-2.081204E-2,6.6338394E1,9.119668E-2,-7.6352316E-1,2.2334089E-3,2.741836E-1,-2.2647539E-1,-3.2350004E0],"default_left":[true,false,false,true,true,false,false,false,false],"id":16,"leaf_child_counts":[0,0,0,0,0,0,0,0,0],"left_children":[1,3,-1,5,7,-1,-1,-1,-1],"loss_changes":[1.2015562E5,2.4831614E3,0E0,1.7872805E3,3.291328E2,0E0,0E0,0E0,0E0],"parents":[2147483647,0,0,1,1,3,3,4,4],"right_children":[2,4,-1,6,8,-1,-1,-1,-1],"split_conditions":[2.0332031E0,4.3139648E-1,6.6338394E1,1.3359375E0,2.9082031E0,2.2334089E-3,2.741836E-1,-2.2647539E-1,-3.2350004E0],"split_indices":[704,4,0,9,60,0,0,0,0],"sum_hessian":[2.9848854E4,2.9847396E4,1.4570312E0,2.5936738E4,3.9106582E3,2.3541348E4,2.3953906E3,3.908377E3,2.28125E0],"tree_param":{"num_deleted":"0","num_feature":"946","num_nodes":"9","size_leaf_vector":"0"}},{"base_weights":[-3.1376693E-2,-1.647247E-2,-1.3039053E2,-1.2295131E-2,-2.9014458E1,-5.662743E1,-2.8791745E0,-5.6682225E-2,1.2868068E-1,-1.9816301E1,1.3637218E0],"default_left":[true,false,false,false,true,false,false,false,false,false,false],"id":17,"leaf_child_counts":[0,0,0,0,0,0,0,0,0,0,0],"left_children":[1,3,5,7,9,-1,-1,-1,-1,-1,-1],"loss_changes":[5.6098273E4,3.4970667E3,2.1460293E4,2.2501802E3,5.469186E3,0E0,0E0,0E0,0E0,0E0,0E0],"parents":[2147483647,0,0,1,1,2,2,3,3,4,4],"right_children":[2,4,6,8,10,-1,-1,-1,-1,-1,-1],"split_conditions":[2.234375E0,2.9179688E0,8.8720703E-1,4.1723633E-1,2.3007812E0,-5.662743E1,-2.8791745E0,-5.6682225E-2,1.2868068E-1,-1.9816301E1,1.3637218E0],"split_indices":[700,64,39,56,9,0,0,0,0,0,0],"sum_hessian":[2.8873549E4,2.8871248E4,2.3007812E0,2.886809E4,3.1582031E0,1.171875E0,1.1289062E0,2.0615355E4,8.252734E3,1.0410156E0,2.1171875E0],"tree_param":{"num_deleted":"0","num_feature":"946","num_nodes":"11","size_leaf_vector":"0"}},{"base_weights":[5.3716768E-3,-1.9049816E-3,3.0866095E1,-8.184126E-3,1.8050392E1,-5.1580593E-3,4.117697E0],"default_left":[false,false,false,true,false,false,false],"id":18,"leaf_child_counts":[0,0,0,0,0,0,0],"left_children":[1,3,-1,5,-1,-1,-1],"loss_changes":[2.1439518E4,1.0819945E4,0E0,3.5433376E3,0E0,0E0,0E0],"parents":[2147483647,0,0,1,1,3,3],"right_children":[2,4,-1,6,-1,-1,-1],"split_conditions":[7.519531E-2,2.875E0,3.0866095E1,2.9492188E0,1.8050392E1,-5.1580593E-3,4.117697E0],"split_indices":[708,63,0,703,0,0,0],"sum_hessian":[2.8636908E4,2.8635883E4,1.0253906E0,2.8633895E4,1.9882812E0,2.8616121E4,1.7773438E1],"tree_param":{"num_deleted":"0","num_feature":"946","num_nodes":"7","size_leaf_vector":"0"}},{"base_weights":[-2.2801057E-2,-2.8062148E-2,2.1901972E1,2.1381664E-1,-3.5169312E-1,1.936472E-2,1.6411823E-1,-1.7547446E-1,4.9481127E-2],"default_left":[false,true,false,false,true,false,false,false,false],"id":19,"leaf_child_counts":[0,0,0,0,0,0,0,0,0],"left_children":[1,3,-1,5,7,-1,-1,-1,-1],"loss_changes":[1.10007E4,2.2408477E3,0E0,8.1486475E2,1.4753606E3,0E0,0E0,0E0,0E0],"parents":[2147483647,0,0,1,1,3,3,4,4],"right_children":[2,4,-1,6,8,-1,-1,-1,-1],"split_conditions":[6.4375E0,-5.6103516E-1,2.1901972E1,4.7460938E-1,9.243164E-1,1.936472E-2,1.6411823E-1,-1.7547446E-1,4.9481127E-2],"split_indices":[209,63,0,45,39,0,0,0,0],"sum_hessian":[2.8625352E4,2.862429E4,1.0625E0,1.6381355E4,1.2242934E4,1.131452E4,5.066836E3,8.435E3,3.8079336E3],"tree_param":{"num_deleted":"0","num_feature":"946","num_nodes":"9","size_leaf_vector":"0"}},{"base_weights":[-2.100668E-2,-1.4644663E-2,-1.9554071E1,9.8606676E-2,-5.495941E-1,-6.195122E-1,-2.5676771E1,1.2177254E-2,2.614348E-1,-1.6149014E-1,-6.0485106E0,-1.128E0,2.5442094E-1],"default_left":[false,false,false,true,false,false,false,false,false,false,false,false,false],"id":20,"leaf_child_counts":[0,0,0,0,0,0,0,0,0,0,0,0,0],"left_children":[1,3,5,7,9,11,-1,-1,-1,-1,-1,-1,-1],"loss_changes":[3.4379653E3,1.6757798E3,1.1209864E4,1.023502E3,1.0595621E3,4.0096134E1,0E0,0E0,0E0,0E0,0E0,0E0,0E0],"parents":[2147483647,0,0,1,1,2,2,3,3,4,4,5,5],"right_children":[2,4,6,8,10,12,-1,-1,-1,-1,-1,-1,-1],"split_conditions":[7.531738E-2,7.788086E-1,-2.8925781E0,1.5693359E0,2.9082031E0,-4.5947266E-1,-2.5676771E1,1.2177254E-2,2.614348E-1,-1.6149014E-1,-6.0485106E0,-1.128E0,2.5442094E-1],"split_indices":[705,119,688,9,60,179,0,0,0,0,0,0,0],"sum_hessian":[2.7666668E4,2.765866E4,8.0078125E0,2.282691E4,4.83175E3,7.0078125E0,1E0,2.1233969E4,1.5929414E3,4.829996E3,1.7539062E0,1.734375E0,5.2734375E0],"tree_param":{"num_deleted":"0","num_feature":"946","num_nodes":"13","size_leaf_vector":"0"}},{"base_weights":[-1.2205918E-2,-1.4789402E-3,-3.5500422E0,8.958003E-3,-1.0868697E1,-2.7980886E-2,1.4258082E-1,-8.556095E0,-1.2756993E0],"default_left":[false,true,false,false,false,false,false,false,false],"id":21,"leaf_child_counts":[0,0,0,0,0,0,0,0,0],"left_children":[1,3,-1,5,7,-1,-1,-1,-1],"loss_changes":[3.4431855E3,3.0771504E3,0E0,1.2921162E3,2.9189006E3,0E0,0E0,0E0,0E0],"parents":[2147483647,0,0,1,1,3,3,4,4],"right_children":[2,4,-1,6,8,-1,-1,-1,-1],"split_conditions":[1.36796875E1,7.519531E-2,-3.5500422E0,2.7441406E0,2.9492188E0,-2.7980886E-2,1.4258082E-1,-8.556095E0,-1.2756993E0],"split_indices":[609,708,0,809,703,0,0,0,0],"sum_hessian":[2.715221E4,2.7128594E4,2.3617188E1,2.7103562E4,2.503125E1,2.2230793E4,4.8727695E3,5.921875E0,1.9109375E1],"tree_param":{"num_deleted":"0","num_feature":"946","num_nodes":"9","size_leaf_vector":"0"}},{"base_weights":[-6.916049E-3,-2.2927418E-3,-1.6993876E1,-1.4700669E-1,3.2232505E-1,-1.0328197E-1,5.4678705E-2,9.295991E-2,1.840273E0],"default_left":[false,false,false,false,false,false,false,false,false],"id":22,"leaf_child_counts":[0,0,0,0,0,0,0,0,0],"left_children":[1,3,-1,5,7,-1,-1,-1,-1],"loss_changes":[7.068233E3,1.2680242E3,0E0,1.212729E3,6.007518E2,0E0,0E0,0E0,0E0],"parents":[2147483647,0,0,1,1,3,3,4,4],"right_children":[2,4,-1,6,8,-1,-1,-1,-1],"split_conditions":[2.9082031E0,7.1240234E-1,-1.6993876E1,2.2631836E-1,7.531738E-2,-1.0328197E-1,5.4678705E-2,9.295991E-2,1.840273E0],"split_indices":[60,59,0,25,705,0,0,0,0],"sum_hessian":[2.69918E4,2.6990598E4,1.203125E0,1.8668684E4,8.321914E3,1.1674434E4,6.99425E3,8.305164E3,1.675E1],"tree_param":{"num_deleted":"0","num_feature":"946","num_nodes":"9","size_leaf_vector":"0"}},{"base_weights":[8.282695E-4,-5.224596E-3,1.6665846E1,-1.23044895E-2,3.3618164E1,-3.0525888E-3,-7.967956E0,2.13905E1,2.4457896E0],"default_left":[false,false,false,false,true,false,false,false,false],"id":23,"leaf_child_counts":[0,0,0,0,0,0,0,0,0],"left_children":[1,3,-1,5,7,-1,-1,-1,-1],"loss_changes":[8.8973955E3,6.2987437E3,0E0,1.4950079E3,4.7641436E3,0E0,0E0,0E0,0E0],"parents":[2147483647,0,0,1,1,3,3,4,4],"right_children":[2,4,-1,6,8,-1,-1,-1,-1],"split_conditions":[7.531738E-2,2.875E0,1.6665846E1,2.9179688E0,-1.2011719E-1,-3.0525888E-3,-7.967956E0,2.13905E1,2.4457896E0],"split_indices":[705,63,0,64,25,0,0,0,0],"sum_hessian":[2.6458895E4,2.6457012E4,1.8828125E0,2.6452441E4,4.5703125E0,2.645132E4,1.1210938E0,1.1171875E0,3.453125E0],"tree_param":{"num_deleted":"0","num_feature":"946","num_nodes":"9","size_leaf_vector":"0"}},{"base_weights":[-1.13969855E-2,-1.0438299E-5,-2.4873188E0,-9.970776E-2,4.093547E-1,5.589518E-3,-1.4649265E-1,1.2015851E-1,2.730564E0],"default_left":[false,false,false,true,false,false,false,false,false],"id":24,"leaf_child_counts":[0,0,0,0,0,0,0,0,0],"left_children":[1,3,-1,5,7,-1,-1,-1,-1],"loss_changes":[2.4906035E3,1.076788E3,0E0,9.756932E2,3.9279242E2,0E0,0E0,0E0,0E0],"parents":[2147483647,0,0,1,1,3,3,4,4],"right_children":[2,4,-1,6,8,-1,-1,-1,-1],"split_conditions":[7.519531E-2,-7.531738E-2,-2.4873188E0,-3.7817383E-1,3.6308594E0,5.589518E-3,-1.4649265E-1,1.2015851E-1,2.730564E0],"split_indices":[708,624,0,115,585,0,0,0,0],"sum_hessian":[2.6416992E4,2.638171E4,3.528125E1,2.1215594E4,5.166117E3,1.6263785E4,4.9518086E3,5.161922E3,4.1953125E0],"tree_param":{"num_deleted":"0","num_feature":"946","num_nodes":"9","size_leaf_vector":"0"}},{"base_weights":[-1.2441968E-2,1.1641104E1,-1.5472519E-2,-1.3171138E-1,3.2409364E-1,5.31806E-2,-8.8230886E-2,7.0350274E-2,2.0754392E-1],"default_left":[true,false,false,false,false,false,false,false,false],"id":25,"leaf_child_counts":[0,0,0,0,0,0,0,0,0],"left_children":[1,-1,3,5,7,-1,-1,-1,-1],"loss_changes":[3.0489329E3,0E0,1.02283417E3,9.687014E2,2.1755463E2,0E0,0E0,0E0,0E0],"parents":[2147483647,0,0,2,2,3,3,4,4],"right_children":[2,-1,4,6,8,-1,-1,-1,-1],"split_conditions":[-2.4645996E-1,1.1641104E1,3.071289E-1,-1.3339844E0,2.25E0,5.31806E-2,-8.8230886E-2,7.0350274E-2,2.0754392E-1],"split_indices":[208,0,49,19,49,0,0,0,0],"sum_hessian":[2.5912648E4,1.0234375E0,2.5911625E4,1.9304129E4,6.607496E3,6.6504062E3,1.2653723E4,5.314328E3,1.293168E3],"tree_param":{"num_deleted":"0","num_feature":"946","num_nodes":"9","size_leaf_vector":"0"}},{"base_weights":[-2.0377602E-2,-3.1447067E1,-1.0218392E-2,-2.7264887E1,7.5464684E-1,4.303127E-3,-4.910075E0,5.451082E-1,-2.6524165E-1,-4.9514927E-2,6.301774E-2],"default_left":[false,false,false,false,false,true,false,false,false,false,false],"id":26,"leaf_child_counts":[0,0,0,0,0,0,0,0,0,0,0],"left_children":[1,3,5,-1,7,9,-1,-1,-1,-1,-1],"loss_changes":[8.0927495E3,1.574642E4,6.019277E3,0E0,1.2583053E1,8.823186E2,0E0,0E0,0E0,0E0,0E0],"parents":[2147483647,0,0,1,1,2,2,4,4,5,5],"right_children":[2,4,6,-1,8,10,-1,-1,-1,-1,-1],"split_conditions":[-2.4633789E-1,-1.5991211E-2,7.519531E-2,-2.7264887E1,-1.9848633E-1,-4.1503906E-3,-4.910075E0,5.451082E-1,-2.6524165E-1,-4.9514927E-2,6.301774E-2],"split_indices":[208,207,708,0,69,56,0,0,0,0,0],"sum_hessian":[2.5347646E4,7.1914062E0,2.5340455E4,1.8867188E0,5.3046875E0,2.5318977E4,2.1478516E1,3.1523438E0,2.1523438E0,1.388816E4,1.1430816E4],"tree_param":{"num_deleted":"0","num_feature":"946","num_nodes":"11","size_leaf_vector":"0"}},{"base_weights":[-5.7032714E-3,7.149513E-3,-7.651751E1,2.2403997E1,1.4178429E-3,-3.1056683E1,-7.55604E0,2.0786293E1,2.3714904E-1,-1.1924647E-2,2.5391275E-1],"default_left":[false,false,true,false,true,false,false,false,false,false,false],"id":27,"leaf_child_counts":[0,0,0,0,0,0,0,0,0,0,0],"left_children":[1,3,5,7,9,-1,-1,-1,-1,-1,-1],"loss_changes":[2.4792438E4,3.2358774E3,3.2621836E3,6.4803486E3,8.7666125E2,0E0,0E0,0E0,0E0,0E0,0E0],"parents":[2147483647,0,0,1,1,2,2,3,3,4,4],"right_children":[2,4,6,8,10,-1,-1,-1,-1,-1,-1],"split_conditions":[7.519531E-2,-2.4633789E-1,4.9951172E-1,-1.5838623E-2,2.0703125E0,-3.1056683E1,-7.55604E0,2.0786293E1,2.3714904E-1,-1.1924647E-2,2.5391275E-1],"split_indices":[708,208,0,207,8,0,0,0,0,0,0],"sum_hessian":[2.5209645E4,2.520641E4,3.234375E0,5.4492188E0,2.520096E4,1.453125E0,1.78125E0,1.0234375E0,4.4257812E0,2.403111E4,1.1698516E3],"tree_param":{"num_deleted":"0","num_feature":"946","num_nodes":"11","size_leaf_vector":"0"}},{"base_weights":[3.5330371E-3,-7.277353E-3,4.4030083E1,-8.554354E0,2.0241993E-3,4.0438465E1,-6.7537847E0,-6.8574586E0,-1.7575495E0,2.3176616E-2,-1.3729553E-1,-2.795376E-1,-3.5619197E0],"default_left":[false,true,true,true,true,false,true,false,false,false,false,false,false],"id":28,"leaf_child_counts":[0,0,0,0,0,0,0,0,0,0,0,0,0],"left_children":[1,3,5,7,9,-1,11,-1,-1,-1,-1,-1,-1],"loss_changes":[1.194339E4,1.9945618E3,2.9304922E4,9.177788E2,8.667284E2,0E0,1.3504826E2,0E0,0E0,0E0,0E0,0E0,0E0],"parents":[2147483647,0,0,1,1,2,2,3,3,4,4,6,6],"right_children":[2,4,6,8,10,-1,12,-1,-1,-1,-1,-1,-1],"split_conditions":[7.519531E-2,-2.4645996E-1,4.9951172E-1,-4.5336914E-1,-5.267334E-2,4.0438465E1,-5.9906006E-2,-6.8574586E0,-1.7575495E0,2.3176616E-2,-1.3729553E-1,-2.795376E-1,-3.5619197E0],"split_indices":[708,208,0,3,113,0,236,0,0,0,0,0,0],"sum_hessian":[2.5092426E4,2.5087266E4,5.1601562E0,2.6273438E1,2.5060992E4,1.2578125E0,3.9023438E0,2.9804688E0,2.3292969E1,2.1537043E4,3.5239492E3,2.3789062E0,1.5234375E0],"tree_param":{"num_deleted":"0","num_feature":"946","num_nodes":"13","size_leaf_vector":"0"}},{"base_weights":[-1.0647572E-2,7.204558E-4,-5.9195496E1,-2.5510302E-1,1.187072E-1,-3.8729706E1,-3.4804647E0,-7.3422916E-2,-1.9050045E0,1.46925E-2,1.491106E-1,-1.6479573E0,-2.0573296E-1],"default_left":[false,false,true,false,false,false,true,false,false,false,false,false,false],"id":29,"leaf_child_counts":[0,0,0,0,0,0,0,0,0,0,0,0,0],"left_children":[1,3,5,7,9,-1,11,-1,-1,-1,-1,-1,-1],"loss_changes":[1.681963E4,7.5447473E2,1.824817E4,4.9661847E2,4.5127234E2,0E0,1.7040787E1,0E0,0E0,0E0,0E0,0E0,0E0],"parents":[2147483647,0,0,1,1,2,2,3,3,4,4,6,6],"right_children":[2,4,6,8,10,-1,12,-1,-1,-1,-1,-1,-1],"split_conditions":[7.519531E-2,-8.874512E-2,8.1347656E-1,6.6367188E0,1.3583984E0,-3.8729706E1,-4.6655273E-1,-7.3422916E-2,-1.9050045E0,1.46925E-2,1.491106E-1,-1.6479573E0,-2.0573296E-1],"split_indices":[708,79,2,439,51,0,860,0,0,0,0,0,0],"sum_hessian":[2.4997828E4,2.4994027E4,3.8007812E0,7.8885664E3,1.710546E4,1.1015625E0,2.6992188E0,7.8762188E3,1.2347656E1,1.444427E4,2.6611914E3,1.0078125E0,1.6914062E0],"tree_param":{"num_deleted":"0","num_feature":"946","num_nodes":"13","size_leaf_vector":"0"}},{"base_weights":[1.3221583E-2,8.915212E-4,5.375619E1,1.0382964E-2,-9.379418E0,3.3894554E1,-2.75E0,9.228077E-2,-2.3726383E-2,-1.2038517E0,4.344262E-2],"default_left":[true,false,true,true,false,false,true,false,false,false,false],"id":30,"leaf_child_counts":[0,0,0,0,0,0,0,0,0,0,0],"left_children":[1,3,5,7,-1,-1,9,-1,-1,-1,-1],"loss_changes":[1.6408443E4,7.3471367E3,1.9318432E4,6.582042E2,0E0,0E0,1.4775408E1,0E0,0E0,0E0,0E0],"parents":[2147483647,0,0,1,1,2,2,3,3,6,6],"right_children":[2,4,6,8,-1,-1,10,-1,-1,-1,-1],"split_conditions":[7.519531E-2,1.36796875E1,7.6416016E-1,-1.9814453E0,-9.379418E0,3.3894554E1,7.531738E-2,9.228077E-2,-2.3726383E-2,-1.2038517E0,4.344262E-2],"split_indices":[708,609,2,719,0,0,705,0,0,0,0],"sum_hessian":[2.4760771E4,2.4756092E4,4.6796875E0,2.4749578E4,6.513672E0,1.796875E0,2.8828125E0,5.7258945E3,1.9023684E4,1.7382812E0,1.1445312E0],"tree_param":{"num_deleted":"0","num_feature":"946","num_nodes":"11","size_leaf_vector":"0"}},{"base_weights":[-1.27594E-2,-2.0771006E-3,-3.4885372E1,1.2298789E-1,-2.2014827E-1,-3.6482243E1,-1.3335354E0,2.1862295E-2,1.8612759E-1,-1.1797365E-1,2.6622597E-2,4.2524755E-1,-7.062356E-1],"default_left":[true,false,true,false,true,false,false,false,false,false,false,false,false],"id":31,"leaf_child_counts":[0,0,0,0,0,0,0,0,0,0,0,0,0],"left_children":[1,3,5,7,9,-1,11,-1,-1,-1,-1,-1,-1],"loss_changes":[9.161554E3,6.705936E2,2.1751406E4,3.894941E2,4.7920398E2,0E0,2.1422169E1,0E0,0E0,0E0,0E0,0E0,0E0],"parents":[2147483647,0,0,1,1,2,2,3,3,4,4,6,6],"right_children":[2,4,6,8,10,-1,12,-1,-1,-1,-1,-1,-1],"split_conditions":[7.519531E-2,-4.5996094E-1,5.966797E-1,2.052002E-1,8.359375E-1,-3.6482243E1,-1.11694336E-1,2.1862295E-2,1.8612759E-1,-1.1797365E-1,2.6622597E-2,4.2524755E-1,-7.062356E-1],"split_indices":[708,60,0,94,59,0,180,0,0,0,0,0,0],"sum_hessian":[2.4592664E4,2.4586133E4,6.53125E0,1.5625348E4,8.960785E3,1.0898438E0,5.4414062E0,1.4196309E4,1.4290391E3,5.742504E3,3.2182812E3,1.3671875E0,4.0742188E0],"tree_param":{"num_deleted":"0","num_feature":"946","num_nodes":"13","size_leaf_vector":"0"}},{"base_weights":[1.0815775E-2,-2.0209246E-3,2.8824232E1,-5.064953E-3,8.759348E0,5.8380116E1,-9.978501E-1,-1.4530525E-2,1.6009372E-1,3.8734657E1,2.25E0,4.4512197E-1,-5.9976363E-1],"default_left":[true,false,true,false,false,true,true,false,false,false,false,false,false],"id":32,"leaf_child_counts":[0,0,0,0,0,0,0,0,0,0,0,0,0],"left_children":[1,3,5,7,-1,9,11,-1,-1,-1,-1,-1,-1],"loss_changes":[8.970943E3,2.155116E3,9.578259E3,5.6643536E2,0E0,1.8615393E4,1.8769165E1,0E0,0E0,0E0,0E0,0E0,0E0],"parents":[2147483647,0,0,1,1,2,2,3,3,5,5,6,6],"right_children":[2,4,6,8,-1,10,12,-1,-1,-1,-1,-1,-1],"split_conditions":[7.519531E-2,1.4135742E-1,5.966797E-1,2.6132812E0,8.759348E0,-5.960083E-2,7.2314453E-1,-1.4530525E-2,1.6009372E-1,3.8734657E1,2.25E0,4.4512197E-1,-5.9976363E-1],"split_indices":[708,709,0,14,0,681,785,0,0,0,0,0,0],"sum_hessian":[2.425321E4,2.424341E4,9.800781E0,2.4241883E4,1.5273438E0,4.4414062E0,5.359375E0,2.2436492E4,1.8053906E3,1.2148438E0,3.2265625E0,1.4023438E0,3.9570312E0],"tree_param":{"num_deleted":"0","num_feature":"946","num_nodes":"13","size_leaf_vector":"0"}},{"base_weights":[-1.5210423E-2,-6.4840135E-3,-2.6280565E1,-9.658575E-3,1.6252539E1,-2.5398636E1,-7.1737844E-1,-1.2985638E-1,1.423907E-2,-5.648734E-2,1.1537719E1,5.7239413E-1,-5.3787655E-1],"default_left":[true,false,true,false,false,false,true,false,false,false,false,false,false],"id":33,"leaf_child_counts":[0,0,0,0,0,0,0,0,0,0,0,0,0],"left_children":[1,3,5,7,9,-1,11,-1,-1,-1,-1,-1,-1],"loss_changes":[5.5342627E3,1.2461232E3,1.1907762E4,5.8347534E2,1.7278881E3,0E0,2.2017487E1,0E0,0E0,0E0,0E0,0E0,0E0],"parents":[2147483647,0,0,1,1,2,2,3,3,4,4,6,6],"right_children":[2,4,6,8,10,-1,12,-1,-1,-1,-1,-1,-1],"split_conditions":[7.519531E-2,5.0039062E0,4.9951172E-1,-5.3466797E-1,4.2877197E-2,-2.5398636E1,-1.4331055E-1,-1.2985638E-1,1.423907E-2,-5.648734E-2,1.1537719E1,5.7239413E-1,-5.3787655E-1],"split_indices":[708,588,0,25,182,0,639,0,0,0,0,0,0],"sum_hessian":[2.4145506E4,2.4138486E4,7.0195312E0,2.4134773E4,3.7128906E0,1.4335938E0,5.5859375E0,2.869461E3,2.1265312E4,2.703125E0,1.0097656E0,1.3984375E0,4.1875E0],"tree_param":{"num_deleted":"0","num_feature":"946","num_nodes":"13","size_leaf_vector":"0"}},{"base_weights":[4.991213E-4,-7.7241743E-3,5.813217E1,-3.1645673E-3,-3.0155376E1,2.945849E1,-1.4309211E-1,-2.0664066E-2,1.0410594E-1,1.177612E0,-1.7834013E1],"default_left":[false,false,true,false,false,false,false,false,false,false,false],"id":34,"leaf_child_counts":[0,0,0,0,0,0,0,0,0,0,0],"left_children":[1,3,5,7,9,-1,-1,-1,-1,-1,-1],"loss_changes":[1.1485935E4,3.3022932E3,8.0265244E3,5.528204E2,3.8598801E3,0E0,0E0,0E0,0E0,0E0,0E0],"parents":[2147483647,0,0,1,1,2,2,3,3,4,4],"right_children":[2,4,6,8,10,-1,-1,-1,-1,-1,-1],"split_conditions":[7.531738E-2,5.0039062E0,1.5654297E0,6.899414E-1,-5.1708984E-1,2.945849E1,-1.4309211E-1,-2.0664066E-2,1.0410594E-1,1.177612E0,-1.7834013E1],"split_indices":[705,588,810,9,0,0,0,0,0,0,0],"sum_hessian":[2.4025508E4,2.402311E4,2.3984375E0,2.4020477E4,2.6328125E0,1.0234375E0,1.375E0,2.0225719E4,3.7947578E3,1.6171875E0,1.015625E0],"tree_param":{"num_deleted":"0","num_feature":"946","num_nodes":"11","size_leaf_vector":"0"}},{"base_weights":[-1.2882306E-2,-3.2484205E-4,-3.456207E1,2.0315067E-3,-1.4078781E1,-1.9324264E-2,1.00351244E-1,4.108812E0,-1.3380752E1],"default_left":[true,false,false,false,false,false,false,false,false],"id":35,"leaf_child_counts":[0,0,0,0,0,0,0,0,0],"left_children":[1,3,-1,5,7,-1,-1,-1,-1],"loss_changes":[3.4577457E4,7.929444E2,0E0,5.279813E2,4.0020408E3,0E0,0E0,0E0,0E0],"parents":[2147483647,0,0,1,1,3,3,4,4],"right_children":[2,4,-1,6,8,-1,-1,-1,-1],"split_conditions":[7.531738E-2,2.9082031E0,-3.456207E1,4.1992188E-1,-5.0683594E-1,-1.9324264E-2,1.00351244E-1,4.108812E0,-1.3380752E1],"split_indices":[705,60,0,40,54,0,0,0,0],"sum_hessian":[2.3902508E4,2.3900902E4,1.6054688E0,2.3897902E4,3E0,1.9918027E4,3.979875E3,1.859375E0,1.140625E0],"tree_param":{"num_deleted":"0","num_feature":"946","num_nodes":"9","size_leaf_vector":"0"}},{"base_weights":[1.6136551E-2,5.6319432E-3,5.945163E1,-1.9748786E-3,1.175989E1,7.4742874E1,2.0570612E0,2.1999006E-4,-7.2630887E0,1.1696147E0,1.8046188E1,6.6414895E0,2.6852747E1],"default_left":[true,false,true,true,false,true,false,false,false,false,false,false,false],"id":36,"leaf_child_counts":[0,0,0,0,0,0,0,0,0,0,0,0,0],"left_children":[1,3,5,7,9,11,-1,-1,-1,-1,-1,-1,-1],"loss_changes":[1.4836688E4,2.1245444E3,2.8646748E3,1.5568501E3,5.6116807E3,4.6708008E2,0E0,0E0,0E0,0E0,0E0,0E0,0E0],"parents":[2147483647,0,0,1,1,2,2,3,3,4,4,5,5],"right_children":[2,4,6,8,10,12,-1,-1,-1,-1,-1,-1,-1],"split_conditions":[7.531738E-2,2.875E0,2.5722656E0,2.9082031E0,-3.3007812E-1,-8.5595703E-1,2.0570612E0,2.1999006E-4,-7.2630887E0,1.1696147E0,1.8046188E1,6.6414895E0,2.6852747E1],"split_indices":[705,63,54,60,28,77,0,0,0,0,0,0,0],"sum_hessian":[2.3763082E4,2.3759883E4,3.1992188E0,2.3745516E4,1.43671875E1,2.1523438E0,1.046875E0,2.374386E4,1.65625E0,1.32890625E1,1.078125E0,1.0195312E0,1.1328125E0],"tree_param":{"num_deleted":"0","num_feature":"946","num_nodes":"13","size_leaf_vector":"0"}},{"base_weights":[-6.7747748E-3,-6.806734E-4,-1.8707018E1,5.59202E-1,-3.8355924E-2,3.7493656E0,-1.94802E1,1.7698196E-1,-1.0976157E0,-3.6506217E-2,6.289766E-2,-2.9454134E-2,3.5312867E0],"default_left":[false,false,false,true,false,true,false,false,false,false,false,false,false],"id":37,"leaf_child_counts":[0,0,0,0,0,0,0,0,0,0,0,0,0],"left_children":[1,3,5,7,9,11,-1,-1,-1,-1,-1,-1,-1],"loss_changes":[2.708318E3,5.0117963E2,8.280555E3,1.9637561E2,4.601161E2,1.9115869E2,0E0,0E0,0E0,0E0,0E0,0E0,0E0],"parents":[2147483647,0,0,1,1,2,2,3,3,4,4,5,5],"right_children":[2,4,6,8,10,12,-1,-1,-1,-1,-1,-1,-1],"split_conditions":[7.531738E-2,-1.7578125E0,-8.989258E-1,6.5585938E0,3.8110352E-1,7.519531E-2,-1.94802E1,1.7698196E-1,-1.0976157E0,-3.6506217E-2,6.289766E-2,-2.9454134E-2,3.5312867E0],"split_indices":[705,4,77,568,79,708,0,0,0,0,0,0,0],"sum_hessian":[2.3764383E4,2.375764E4,6.7421875E0,1.4970156E3,2.2260625E4,5.15625E0,1.5859375E0,1.4870391E3,9.9765625E0,1.6662602E4,5.5980234E3,4.1523438E0,1.0039062E0],"tree_param":{"num_deleted":"0","num_feature":"946","num_nodes":"13","size_leaf_vector":"0"}},{"base_weights":[7.424141E-3,-3.7804914E-3,8.698861E0,1.088996E-3,-8.82861E0,3.4286776E0,2.0580986E1,-2.0968202E-4,6.2976565E0,-9.320874E-1,-3.387084E0,2.9635792E0,5.71649E-2],"default_left":[false,true,false,true,false,true,false,false,false,false,false,false,false],"id":38,"leaf_child_counts":[0,0,0,0,0,0,0,0,0,0,0,0,0],"left_children":[1,3,5,7,9,11,-1,-1,-1,-1,-1,-1,-1],"loss_changes":[2.29087E3,1.0096196E3,9.326642E3,8.813275E2,1.4741895E2,6.015176E2,0E0,0E0,0E0,0E0,0E0,0E0,0E0],"parents":[2147483647,0,0,1,1,2,2,3,3,4,4,5,5],"right_children":[2,4,6,8,10,12,-1,-1,-1,-1,-1,-1,-1],"split_conditions":[7.519531E-2,1.4135742E-1,7.531738E-2,7.531738E-2,-6.756592E-2,2.2636719E0,2.0580986E1,-2.0968202E-4,6.2976565E0,-9.320874E-1,-3.387084E0,2.9635792E0,5.71649E-2],"split_indices":[708,709,705,705,762,702,0,0,0,0,0,0,0],"sum_hessian":[2.352267E4,2.3493383E4,2.928711E1,2.3481426E4,1.1957031E1,2.7890625E1,1.3964844E0,2.3480426E4,1E0,4.2773438E0,7.6796875E0,8.636719E0,1.9253906E1],"tree_param":{"num_deleted":"0","num_feature":"946","num_nodes":"13","size_leaf_vector":"0"}},{"base_weights":[-7.9812985E-3,-5.311858E-3,-1.4798576E1,1.02131814E-1,-2.0105603E-1,-1.05968334E-1,-9.185766E0,-2.4758354E-3,9.163779E-2,-5.791245E-2,-1.6438235E0,6.97417E-1,-7.553271E-1],"default_left":[false,true,false,false,false,true,false,false,false,false,false,false,false],"id":39,"leaf_child_counts":[0,0,0,0,0,0,0,0,0,0,0,0,0],"left_children":[1,3,5,7,9,11,-1,-1,-1,-1,-1,-1,-1],"loss_changes":[9.29905E2,4.9533292E2,9.8465295E2,3.4128192E2,3.5202292E2,2.4653713E1,0E0,0E0,0E0,0E0,0E0,0E0,0E0],"parents":[2147483647,0,0,1,1,2,2,3,3,4,4,5,5],"right_children":[2,4,6,8,10,12,-1,-1,-1,-1,-1,-1,-1],"split_conditions":[1.083374E-1,4.0429688E-1,-2.0239258E-1,5.917969E-1,1.4135742E-1,-5.5322266E-1,-9.185766E0,-2.4758354E-3,9.163779E-2,-5.791245E-2,-1.6438235E0,6.97417E-1,-7.553271E-1],"split_indices":[705,785,65,339,709,82,0,0,0,0,0,0,0],"sum_hessian":[2.3553258E4,2.3550008E4,3.25E0,1.5204668E4,8.34534E3,2.2070312E0,1.0429688E0,9.855285E3,5.349383E3,8.333723E3,1.16171875E1,1.1171875E0,1.0898438E0],"tree_param":{"num_deleted":"0","num_feature":"946","num_nodes":"13","size_leaf_vector":"0"}},{"base_weights":[-5.0974768E-3,-2.4453491E-2,1.0239124E0,-1.5091141E-2,-2.2132976E0,9.9481004E-1,1.9806818E0,-2.7340923E-2,7.388033E-2,-7.1190864E-2,-6.643337E0,3.077958E-1,-1.8361382E-1],"default_left":[true,false,true,true,false,true,false,false,false,false,false,false,false],"id":40,"leaf_child_counts":[0,0,0,0,0,0,0,0,0,0,0,0,0],"left_children":[1,3,5,7,9,11,-1,-1,-1,-1,-1,-1,-1],"loss_changes":[4.655857E2,4.7014822E2,6.3497284E1,4.5411133E2,3.843056E3,2.219513E1,0E0,0E0,0E0,0E0,0E0,0E0,0E0],"parents":[2147483647,0,0,1,1,2,2,3,3,4,4,5,5],"right_children":[2,4,6,8,10,12,-1,-1,-1,-1,-1,-1,-1],"split_conditions":[2.9667969E0,-4.196167E-3,3.3242188E0,4.2749023E-1,6.4335938E0,1.4245605E-1,1.9806818E0,-2.7340923E-2,7.388033E-2,-7.1190864E-2,-6.643337E0,3.077958E-1,-1.8361382E-1],"split_indices":[9,609,585,129,608,289,0,0,0,0,0,0,0],"sum_hessian":[2.3373416E4,2.294283E4,4.3058594E2,2.2846117E4,9.671289E1,4.2952344E2,1.0625E0,1.7697488E4,5.148629E3,8.891016E1,7.8027344E0,4.2170312E2,7.8203125E0],"tree_param":{"num_deleted":"0","num_feature":"946","num_nodes":"13","size_leaf_vector":"0"}},{"base_weights":[-3.62679E-3,7.1060113E-3,-1.17078E1,1.1944367E-2,-3.7871692E0,-1.2597417E-2,1.0020073E-1,2.6023757E-1,-3.96879E0],"default_left":[false,false,false,false,false,false,false,false,false],"id":41,"leaf_child_counts":[0,0,0,0,0,0,0,0,0],"left_children":[1,3,-1,5,7,-1,-1,-1,-1],"loss_changes":[9.713147E3,4.2568942E2,0E0,4.0226422E2,1.3093625E3,0E0,0E0,0E0,0E0],"parents":[2147483647,0,0,1,1,3,3,4,4],"right_children":[2,4,-1,6,8,-1,-1,-1,-1],"split_conditions":[1.36796875E1,7.531738E-2,-1.17078E1,1.2773438E0,7.519531E-2,-1.2597417E-2,1.0020073E-1,2.6023757E-1,-3.96879E0],"split_indices":[609,705,0,29,708,0,0,0,0],"sum_hessian":[2.3190072E4,2.3184695E4,5.376953E0,2.3156164E4,2.853125E1,1.9835191E4,3.3209727E3,1.971875E1,8.8125E0],"tree_param":{"num_deleted":"0","num_feature":"946","num_nodes":"9","size_leaf_vector":"0"}},{"base_weights":[-5.3766617E-3,5.1534646E-3,-2.1321972E1,3.151311E-2,-6.043828E-1,3.7950568E-2,-4.372392E-2,-1.7427942E-1,-2.8850808E0],"default_left":[false,true,false,true,false,false,false,false,false],"id":42,"leaf_child_counts":[0,0,0,0,0,0,0,0,0],"left_children":[1,3,-1,5,7,-1,-1,-1,-1],"loss_changes":[1.7295084E4,3.7129797E2,0E0,3.7298956E2,1.9688028E2,0E0,0E0,0E0,0E0],"parents":[2147483647,0,0,1,1,3,3,4,4],"right_children":[2,4,-1,6,8,-1,-1,-1,-1],"split_conditions":[1.36796875E1,7.426758E-1,-2.1321972E1,-1.6088867E-1,7.531738E-2,3.7950568E-2,-4.372392E-2,-1.7427942E-1,-2.8850808E0],"split_indices":[609,4,0,69,705,0,0,0,0],"sum_hessian":[2.3109361E4,2.3106938E4,2.4238281E0,2.215E4,9.569375E2,1.4421941E4,7.7280586E3,9.555156E2,1.421875E0],"tree_param":{"num_deleted":"0","num_feature":"946","num_nodes":"9","size_leaf_vector":"0"}},{"base_weights":[-7.640124E-3,2.8231705E-3,-1.1777948E1,-4.004161E-2,3.8973856E-1,-2.5869356E-2,1.0316754E-1,1.1982026E-1,-2.9276502E0],"default_left":[false,true,false,true,false,false,false,false,false],"id":43,"leaf_child_counts":[0,0,0,0,0,0,0,0,0],"left_children":[1,3,-1,5,7,-1,-1,-1,-1],"loss_changes":[9.403391E3,3.796512E2,0E0,3.654889E2,2.277734E2,0E0,0E0,0E0,0E0],"parents":[2147483647,0,0,1,1,3,3,4,4],"right_children":[2,4,-1,6,8,-1,-1,-1,-1],"split_conditions":[1.36796875E1,2.758789E-1,-1.1777948E1,-7.4279785E-2,6.4101562E0,-2.5869356E-2,1.0316754E-1,1.1982026E-1,-2.9276502E0],"split_indices":[609,258,0,94,34,0,0,0,0],"sum_hessian":[2.289434E4,2.2889238E4,5.1015625E0,2.0607152E4,2.282086E3,1.8394906E4,2.212246E3,2.280875E3,1.2109375E0],"tree_param":{"num_deleted":"0","num_feature":"946","num_nodes":"9","size_leaf_vector":"0"}},{"base_weights":[-3.0968415E-3,1.7230411E-3,-3.365793E0,1.9126743E-4,1.1109801E1,3.1747688E-2,-4.2680137E-2,-9.3040544E-1,5.824081E0],"default_left":[false,true,false,false,true,false,false,false,false],"id":44,"leaf_child_counts":[0,0,0,0,0,0,0,0,0],"left_children":[1,3,-1,5,7,-1,-1,-1,-1],"loss_changes":[1.2349766E3,3.885374E2,0E0,3.4361575E2,4.317448E2,0E0,0E0,0E0,0E0],"parents":[2147483647,0,0,1,1,3,3,4,4],"right_children":[2,4,-1,6,8,-1,-1,-1,-1],"split_conditions":[6.6445312E0,5.0039062E0,-3.365793E0,1E0,2.4238281E0,3.1747688E-2,-4.2680137E-2,-9.3040544E-1,5.824081E0],"split_indices":[439,588,0,937,585,0,0,0,0],"sum_hessian":[2.2842848E4,2.2834035E4,8.8125E0,2.2831887E4,2.1484375E0,1.3110543E4,9.721344E3,1.0234375E0,1.125E0],"tree_param":{"num_deleted":"0","num_feature":"946","num_nodes":"9","size_leaf_vector":"0"}},{"base_weights":[-3.3052755E-3,1.1901584E-3,-7.8586535E0,-4.432181E-2,3.432031E-1,2.8705387E-3,-1.00223415E-1,1.00265466E-1,1.2719113E0],"default_left":[false,false,false,false,false,false,false,false,false],"id":45,"leaf_child_counts":[0,0,0,0,0,0,0,0,0],"left_children":[1,3,-1,5,7,-1,-1,-1,-1],"loss_changes":[2.6829512E3,3.5464627E2,0E0,3.1399176E2,9.226169E1,0E0,0E0,0E0,0E0],"parents":[2147483647,0,0,1,1,3,3,4,4],"right_children":[2,4,-1,6,8,-1,-1,-1,-1],"split_conditions":[6.6445312E0,1.3408203E0,-7.8586535E0,-2.7954102E-1,4.9921875E0,2.8705387E-3,-1.00223415E-1,1.00265466E-1,1.2719113E0],"split_indices":[439,56,0,250,588,0,0,0,0],"sum_hessian":[2.278479E4,2.2781879E4,2.9101562E0,2.0107082E4,2.6747969E3,1.6954727E4,3.1523555E3,2.6697266E3,5.0703125E0],"tree_param":{"num_deleted":"0","num_feature":"946","num_nodes":"9","size_leaf_vector":"0"}},{"base_weights":[-3.9445045E-3,5.103112E-4,-1.3715501E1,-2.5103282E-2,5.806611E-1,-1.9161753E-2,1.0969112E-1,1.1524158E-1,2.764254E-1],"default_left":[false,false,false,true,false,false,false,false,false],"id":46,"leaf_child_counts":[0,0,0,0,0,0,0,0,0],"left_children":[1,3,-1,5,7,-1,-1,-1,-1],"loss_changes":[4.600469E3,3.356792E2,0E0,3.277607E2,6.361017E1,0E0,0E0,0E0,0E0],"parents":[2147483647,0,0,1,1,3,3,4,4],"right_children":[2,4,-1,6,8,-1,-1,-1,-1],"split_conditions":[6.6445312E0,4.3046875E0,-1.3715501E1,-9.1552734E-2,2.0292969E0,-1.9161753E-2,1.0969112E-1,1.1524158E-1,2.764254E-1],"split_indices":[439,174,0,300,209,0,0,0,0],"sum_hessian":[2.2589053E4,2.2587852E4,1.2011719E0,2.1633684E4,9.5416797E2,1.9681703E4,1.9519805E3,6.065078E2,3.4766016E2],"tree_param":{"num_deleted":"0","num_feature":"946","num_nodes":"9","size_leaf_vector":"0"}},{"base_weights":[-3.5686316E-3,1.0540002E-3,-8.099452E0,-2.5822937E-2,4.9997103E-1,-8.187984E-3,2.7326684E0,1.3415867E-1,3.1204656E-1],"default_left":[false,false,false,true,false,false,false,false,false],"id":47,"leaf_child_counts":[0,0,0,0,0,0,0,0,0],"left_children":[1,3,-1,5,7,-1,-1,-1,-1],"loss_changes":[2.797183E3,3.0055365E2,0E0,2.8590295E2,3.219751E1,0E0,0E0,0E0,0E0],"parents":[2147483647,0,0,1,1,3,3,4,4],"right_children":[2,4,-1,6,8,-1,-1,-1,-1],"split_conditions":[6.6445312E0,3.0175781E0,-8.099452E0,5.0039062E0,8.666992E-1,-8.187984E-3,2.7326684E0,1.3415867E-1,3.1204656E-1],"split_indices":[439,679,0,588,60,0,0,0,0],"sum_hessian":[2.2414592E4,2.2411754E4,2.8378906E0,2.1267035E4,1.1447188E3,2.126461E4,2.4257812E0,1.0445E3,1.0021875E2],"tree_param":{"num_deleted":"0","num_feature":"946","num_nodes":"9","size_leaf_vector":"0"}},{"base_weights":[-3.945972E-3,6.5270776E-4,-7.227583E0,8.9123614E-2,-1.4148806E-1,-3.5830557E-2,5.2185256E-2,-7.401178E-2,3.2833394E-2],"default_left":[false,true,false,false,true,false,false,false,false],"id":48,"leaf_child_counts":[0,0,0,0,0,0,0,0,0],"left_children":[1,3,-1,5,7,-1,-1,-1,-1],"loss_changes":[2.4777898E3,2.8125674E2,0E0,2.439057E2,2.2656958E2,0E0,0E0,0E0,0E0],"parents":[2147483647,0,0,1,1,3,3,4,4],"right_children":[2,4,-1,6,8,-1,-1,-1,-1],"split_conditions":[6.6445312E0,-1.8457031E-1,-7.227583E0,-4.465332E-1,2.841797E-1,-3.5830557E-2,5.2185256E-2,-7.401178E-2,3.2833394E-2],"split_indices":[439,638,0,78,629,0,0,0,0],"sum_hessian":[2.2367035E4,2.2363766E4,3.2695312E0,1.3784453E4,8.5793125E3,3.9854062E3,9.799047E3,6.0447305E3,2.534582E3],"tree_param":{"num_deleted":"0","num_feature":"946","num_nodes":"9","size_leaf_vector":"0"}},{"base_weights":[-4.253094E-3,2.1091288E-4,-1.3181504E1,3.7270293E-2,-3.214557E-1,-3.3759505E-3,9.231331E-2,-9.3527615E-2,-1.3392859E0],"default_left":[false,false,false,true,false,false,false,false,false],"id":49,"leaf_child_counts":[0,0,0,0,0,0,0,0,0],"left_children":[1,3,-1,5,7,-1,-1,-1,-1],"loss_changes":[4.3735645E3,2.6583188E2,0E0,2.6240714E2,9.115747E1,0E0,0E0,0E0,0E0],"parents":[2147483647,0,0,1,1,3,3,4,4],"right_children":[2,4,-1,6,8,-1,-1,-1,-1],"split_conditions":[6.6445312E0,3E0,-1.3181504E1,1.890625E0,1.4135742E-1,-3.3759505E-3,9.231331E-2,-9.3527615E-2,-1.3392859E0],"split_indices":[439,921,0,39,709,0,0,0,0],"sum_hessian":[2.2299164E4,2.2297898E4,1.265625E0,1.9995133E4,2.3027656E3,1.6954121E4,3.0410117E3,2.298461E3,4.3046875E0],"tree_param":{"num_deleted":"0","num_feature":"946","num_nodes":"9","size_leaf_vector":"0"}},{"base_weights":[-1.738063E-3,-6.0887267E-3,7.5155487E0,4.0495105E-2,-2.6465538E-1,-8.175789E-3,6.324251E-2,-7.622151E-2,-1.489866E0],"default_left":[false,false,false,true,false,false,false,false,false],"id":50,"leaf_child_counts":[0,0,0,0,0,0,0,0,0],"left_children":[1,3,-1,5,7,-1,-1,-1,-1],"loss_changes":[2.42533E3,2.6797092E2,0E0,2.1751823E2,1.6773555E2,0E0,0E0,0E0,0E0],"parents":[2147483647,0,0,1,1,3,3,4,4],"right_children":[2,4,-1,6,8,-1,-1,-1,-1],"split_conditions":[3.6347656E0,-1.7382812E-1,7.5155487E0,4.8217773E-1,7.531738E-2,-8.175789E-3,6.324251E-2,-7.622151E-2,-1.489866E0],"split_indices":[585,197,0,6,705,0,0,0,0],"sum_hessian":[2.2248406E4,2.2245543E4,2.8632812E0,1.8850285E4,3.3952578E3,1.3486445E4,5.36384E3,3.3886836E3,6.5742188E0],"tree_param":{"num_deleted":"0","num_feature":"946","num_nodes":"9","size_leaf_vector":"0"}},{"base_weights":[-3.5446E-5,-1.1243035E-2,1.0253847E0,-7.317797E-2,1.825421E-1,9.865543E-1,1.5100001E0,-2.054667E-2,-1.0544811E0,8.158005E-2,-3.4691542E-3,2.782361E-1,6.3861126E-1],"default_left":[true,true,true,false,true,false,false,false,false,false,false,false,false],"id":51,"leaf_child_counts":[0,0,0,0,0,0,0,0,0,0,0,0,0],"left_children":[1,3,5,7,9,11,-1,-1,-1,-1,-1,-1,-1],"loss_changes":[2.5419315E2,2.626074E2,3.2250595E1,2.6734985E2,9.195441E1,1.4096725E1,0E0,0E0,0E0,0E0,0E0,0E0,0E0],"parents":[2147483647,0,0,1,1,2,2,3,3,4,4,5,5],"right_children":[2,4,6,8,10,12,-1,-1,-1,-1,-1,-1,-1],"split_conditions":[3.9042969E0,5.180664E-1,4.9882812E0,1.4135742E-1,-1.3000488E-1,4.4091797E-1,1.5100001E0,-2.054667E-2,-1.0544811E0,8.158005E-2,-3.4691542E-3,2.782361E-1,6.3861126E-1],"split_indices":[9,425,588,709,747,2,0,0,0,0,0,0,0],"sum_hessian":[2.2116195E4,2.1878062E4,2.3813281E2,1.6579707E4,5.2983555E3,2.3708203E2,1.0507812E0,1.6558168E4,2.1539062E1,3.6274219E3,1.6709336E3,2.2714062E2,9.941406E0],"tree_param":{"num_deleted":"0","num_feature":"946","num_nodes":"13","size_leaf_vector":"0"}},{"base_weights":[4.256282E-4,5.659946E-3,-2.1996741E0,-1.3522168E-1,8.1808314E-2,-5.8686066E0,-1.3611928E0,-3.9102055E-2,-1.8862644E0,-4.676767E0,-8.349837E-1,2.3743132E-2,1.2169743E0,-5.157523E-1,9.3211845E-2],"default_left":[false,true,true,true,true,true,false,false,false,false,false,false,false,false,false],"id":52,"leaf_child_counts":[0,0,0,0,0,0,0,0,0,0,0,0,0,0,0],"left_children":[1,3,5,7,11,9,13,-1,-1,-1,-1,-1,-1,-1,-1],"loss_changes":[2.5341986E2,2.3552658E2,1.526899E2,2.3052469E2,1.506152E2,2.3895068E2,2.6758675E1,0E0,0E0,0E0,0E0,0E0,0E0,0E0,0E0],"parents":[2147483647,0,0,1,1,2,2,3,3,5,5,4,4,6,6],"right_children":[2,4,6,8,12,10,14,-1,-1,-1,-1,-1,-1,-1,-1],"split_conditions":[1.36796875E1,-3.227539E-1,6.4492188E0,2.9082031E0,2.875E0,-1.743164E-1,6.7529297E-1,-3.9102055E-2,-1.8862644E0,-4.676767E0,-8.349837E-1,2.3743132E-2,1.2169743E0,-5.157523E-1,9.3211845E-2],"split_indices":[609,56,608,60,63,243,125,0,0,0,0,0,0,0,0],"sum_hessian":[2.2003773E4,2.1952543E4,5.123047E1,7.702121E3,1.4250422E4,8.4140625E0,4.2816406E1,7.697035E3,5.0859375E0,1.0507812E0,7.3632812E0,1.4241895E4,8.527344E0,3.5242188E1,7.5742188E0],"tree_param":{"num_deleted":"0","num_feature":"946","num_nodes":"15","size_leaf_vector":"0"}},{"base_weights":[2.5933424E-3,-6.341076E-2,1.5324959E-1,-6.5211214E-2,8.023017E0,7.6626286E-2,5.490196E-1,-8.832322E-3,-1.274917E-1,2.0140873E-2,2.0673685E0,-1.5144427E0,5.582455E0,1.5873486E-1,3.2024438E0],"default_left":[true,false,true,true,false,false,true,false,false,false,false,false,false,false,false],"id":53,"leaf_child_counts":[0,0,0,0,0,0,0,0,0,0,0,0,0,0,0],"left_children":[1,3,5,7,11,9,13,-1,-1,-1,-1,-1,-1,-1,-1],"loss_changes":[2.1855734E2,2.230367E2,2.0300755E2,1.9663216E2,5.6576733E2,3.6239496E2,2.1320193E2,0E0,0E0,0E0,0E0,0E0,0E0,0E0,0E0],"parents":[2147483647,0,0,1,1,2,2,3,3,5,5,4,4,6,6],"right_children":[2,4,6,8,12,10,14,-1,-1,-1,-1,-1,-1,-1,-1],"split_conditions":[2.775879E-1,2.875E0,-9.210205E-2,-1.0595703E-1,-7.973633E-1,3.6308594E0,2.875E0,-8.832322E-3,-1.274917E-1,2.0140873E-2,2.0673685E0,-1.5144427E0,5.582455E0,1.5873486E-1,3.2024438E0],"split_indices":[629,63,4,252,375,585,63,0,0,0,0,0,0,0,0],"sum_hessian":[2.1976992E4,1.5282254E4,6.6947383E3,1.5279844E4,2.4101562E0,5.609836E3,1.0849023E3,1.3898984E4,1.3808594E3,5.603043E3,6.7929688E0,1.3125E0,1.0976562E0,1.0838242E3,1.078125E0],"tree_param":{"num_deleted":"0","num_feature":"946","num_nodes":"15","size_leaf_vector":"0"}},{"base_weights":[4.228881E-4,3.1711278E-3,-6.5208735E0,1.0690175E-1,-8.763656E-2,-8.280906E0,-3.4569377E-1,-4.6844278E-3,8.2003556E-2,-4.518565E-2,7.523872E-2,-1.0874171E0,3.2514873E0],"default_left":[false,true,true,false,true,false,true,false,false,false,false,false,false],"id":54,"leaf_child_counts":[0,0,0,0,0,0,0,0,0,0,0,0,0],"left_children":[1,3,5,7,9,-1,11,-1,-1,-1,-1,-1,-1],"loss_changes":[3.933772E2,2.0667308E2,1.1941699E3,2.0885332E2,2.4940933E2,0E0,3.386833E2,0E0,0E0,0E0,0E0,0E0,0E0],"parents":[2147483647,0,0,1,1,2,2,3,3,4,4,6,6],"right_children":[2,4,6,8,10,-1,12,-1,-1,-1,-1,-1,-1],"split_conditions":[2.9082031E0,-1.8688965E-1,-2.0410156E-1,-2.536621E-1,2.15625E0,-8.280906E0,-2.6000977E-1,-4.6844278E-3,8.2003556E-2,-4.518565E-2,7.523872E-2,-1.0874171E0,3.2514873E0],"split_indices":[60,69,400,221,39,0,274,0,0,0,0,0,0],"sum_hessian":[2.1947145E4,2.1938898E4,8.246094E0,1.024068E4,1.1698219E4,1.0820312E0,7.1640625E0,5.899242E3,4.3414375E3,9.863227E3,1.8349922E3,6.0625E0,1.1015625E0],"tree_param":{"num_deleted":"0","num_feature":"946","num_nodes":"13","size_leaf_vector":"0"}},{"base_weights":[2.1634854E-3,-9.3845534E-4,9.478937E0,1.3092225E-3,-6.6706195E0,-5.6997454E-1,1.0654945E1,1.4110857E-1,-5.6282524E-3,-2.0045936E0,6.860539E-1],"default_left":[false,true,false,true,false,true,false,false,false,false,false],"id":55,"leaf_child_counts":[0,0,0,0,0,0,0,0,0,0,0],"left_children":[1,3,5,7,-1,9,-1,-1,-1,-1,-1],"loss_changes":[6.4203033E2,1.091203E3,1.8901143E3,2.0554091E2,0E0,1.225015E2,0E0,0E0,0E0,0E0,0E0],"parents":[2147483647,0,0,1,1,2,2,3,3,5,5],"right_children":[2,4,6,8,-1,10,-1,-1,-1,-1,-1],"split_conditions":[2.875E0,2.9082031E0,-5.1416016E-1,-1.9111328E0,-6.6706195E0,-1.1260986E-1,1.0654945E1,1.4110857E-1,-5.6282524E-3,-2.0045936E0,6.860539E-1],"split_indices":[63,60,252,4,0,590,0,0,0,0,0],"sum_hessian":[2.1839146E4,2.1833E4,6.1464844E0,2.1831793E4,1.2070312E0,5.140625E0,1.0058594E0,8.9489844E2,2.0936895E4,1.2109375E0,3.9296875E0],"tree_param":{"num_deleted":"0","num_feature":"946","num_nodes":"11","size_leaf_vector":"0"}},{"base_weights":[-1.9343359E-3,1.9192145E-3,-1.0715721E1,-1.268456E-1,7.386481E-2,-1.0822242E1,-1.2753624E0,-5.4612108E-2,3.7555706E-2,1.3990062E-1,1.1698184E-2,-1.7152724E0,2.323009E0],"default_left":[false,false,true,true,true,false,true,false,false,false,false,false,false],"id":56,"leaf_child_counts":[0,0,0,0,0,0,0,0,0,0,0,0,0],"left_children":[1,3,5,7,9,-1,11,-1,-1,-1,-1,-1,-1],"loss_changes":[8.984278E2,2.015369E2,1.8270521E3,1.0850038E2,1.9098907E2,0E0,3.1422964E2,0E0,0E0,0E0,0E0,0E0,0E0],"parents":[2147483647,0,0,1,1,2,2,3,3,4,4,6,6],"right_children":[2,4,6,8,10,-1,12,-1,-1,-1,-1,-1,-1],"split_conditions":[2.9082031E0,-2.3327637E-1,-2.7246094E-1,-1.108551E-2,-9.4970703E-1,-1.0822242E1,2.6757812E-1,-5.4612108E-2,3.7555706E-2,1.3990062E-1,1.1698184E-2,-1.7152724E0,2.323009E0],"split_indices":[60,215,3,256,60,0,2,0,0,0,0,0,0],"sum_hessian":[2.1759516E4,2.1752691E4,6.8242188E0,7.797082E3,1.3955609E4,1.0859375E0,5.7382812E0,6.3965234E3,1.4005586E3,1.1377617E3,1.2817848E4,4.0898438E0,1.6484375E0],"tree_param":{"num_deleted":"0","num_feature":"946","num_nodes":"13","size_leaf_vector":"0"}},{"base_weights":[2.5113237E-3,-1.5743918E-3,1.5645939E1,4.479486E-4,-6.2972016E0,1.3217227E1,-5.989805E-1,-6.695209E-3,1.1297587E-1,-1.5745542E0,1.8795608E0],"default_left":[false,false,true,false,false,false,true,false,false,false,false],"id":57,"leaf_child_counts":[0,0,0,0,0,0,0,0,0,0,0],"left_children":[1,3,5,7,-1,-1,9,-1,-1,-1,-1],"loss_changes":[1.3893219E3,9.2247406E2,2.6460024E3,1.8608896E2,0E0,0E0,1.7961835E2,0E0,0E0,0E0,0E0],"parents":[2147483647,0,0,1,1,2,2,3,3,6,6],"right_children":[2,4,6,8,-1,-1,10,-1,-1,-1,-1],"split_conditions":[2.875E0,2.9082031E0,-2.7450562E-2,1.3828125E0,-6.2972016E0,1.3217227E1,-4.324341E-2,-6.695209E-3,1.1297587E-1,-1.5745542E0,1.8795608E0],"split_indices":[63,60,218,285,0,0,633,0,0,0,0],"sum_hessian":[2.1735777E4,2.1731102E4,4.6757812E0,2.1730008E4,1.09375E0,1.078125E0,3.5976562E0,2.049077E4,1.2392383E3,2.2851562E0,1.3125E0],"tree_param":{"num_deleted":"0","num_feature":"946","num_nodes":"11","size_leaf_vector":"0"}},{"base_weights":[-4.68589E-3,-9.505384E-4,-2.5352325E1,1.087339E-3,-8.013428E0,-1.2945696E1,2.0794923E0,-7.7062002E-3,9.469089E-2,-4.0193267E0,-2.050633E-1],"default_left":[false,true,true,true,false,false,false,false,false,false,false],"id":58,"leaf_child_counts":[0,0,0,0,0,0,0,0,0,0,0],"left_children":[1,3,5,7,9,-1,-1,-1,-1,-1,-1],"loss_changes":[2.05832E3,3.5494452E2,2.1398062E3,1.8304005E2,2.0898691E2,0E0,0E0,0E0,0E0,0E0,0E0],"parents":[2147483647,0,0,1,1,2,2,3,3,4,4],"right_children":[2,4,6,8,10,-1,-1,-1,-1,-1,-1],"split_conditions":[3.0820312E0,2.9082031E0,-5.644531E-1,2.1777344E0,1.0986328E0,-1.2945696E1,2.0794923E0,-7.7062002E-3,9.469089E-2,-4.0193267E0,-2.050633E-1],"split_indices":[62,60,17,59,87,0,0,0,0,0,0],"sum_hessian":[2.1738473E4,2.173627E4,2.203125E0,2.1731742E4,4.5273438E0,1.203125E0,1E0,2.0027871E4,1.7038711E3,2.1328125E0,2.3945312E0],"tree_param":{"num_deleted":"0","num_feature":"946","num_nodes":"11","size_leaf_vector":"0"}},{"base_weights":[2.5000672E-3,-9.732388E-4,1.0588308E1,9.678593E-2,-8.848039E-2,-1.2287771E-2,8.744018E-2,-3.74763E-2,8.505836E-2],"default_left":[false,false,false,true,false,false,false,false,false],"id":59,"leaf_child_counts":[0,0,0,0,0,0,0,0,0],"left_children":[1,3,-1,5,7,-1,-1,-1,-1],"loss_changes":[2.6591455E3,1.8557405E2,0E0,2.7477863E2,1.5520805E2,0E0,0E0,0E0,0E0],"parents":[2147483647,0,0,1,1,3,3,4,4],"right_children":[2,4,-1,6,8,-1,-1,-1,-1],"split_conditions":[3.0117188E0,-5.4785156E-1,1.0588308E1,-7.5927734E-1,2.6835938E0,-1.2287771E-2,8.744018E-2,-3.74763E-2,8.505836E-2],"split_indices":[63,84,0,752,39,0,0,0,0],"sum_hessian":[2.1691963E4,2.1690828E4,1.1347656E0,1.0245215E4,1.1445613E4,6.0004414E3,4.2447734E3,1.0425074E4,1.02053906E3],"tree_param":{"num_deleted":"0","num_feature":"946","num_nodes":"9","size_leaf_vector":"0"}},{"base_weights":[-3.5885759E-3,1.0569806E-3,-1.6708742E1,-5.89107E-2,1.4417416E-1,-1.469484E1,1.7022961E-1,7.220195E-2,-3.1106826E-2,4.7206905E-2,-1.3950201E0,-1.8481731E0,1.0265766E0],"default_left":[false,true,true,true,true,false,true,false,false,false,false,false,false],"id":60,"leaf_child_counts":[0,0,0,0,0,0,0,0,0,0,0,0,0],"left_children":[1,3,5,7,9,-1,11,-1,-1,-1,-1,-1,-1],"loss_changes":[1.673748E3,1.8506557E2,3.274728E3,2.0387993E2,4.0313635E2,0E0,1.22643166E2,0E0,0E0,0E0,0E0,0E0,0E0],"parents":[2147483647,0,0,1,1,2,2,3,3,4,4,6,6],"right_children":[2,4,6,8,10,-1,12,-1,-1,-1,-1,-1,-1],"split_conditions":[2.9082031E0,-3.0810547E-1,1.184082E-1,-1.5332031E0,7.531738E-2,-1.469484E1,-1.6552734E-1,7.220195E-2,-3.1106826E-2,4.7206905E-2,-1.3950201E0,-1.8481731E0,1.0265766E0],"split_indices":[60,4,623,4,705,0,859,0,0,0,0,0,0],"sum_hessian":[2.1566375E4,2.1561379E4,4.9960938E0,1.5195066E4,6.3663125E3,1.0625E0,3.9335938E0,1.9753008E3,1.3219766E4,6.3498203E3,1.6492188E1,1.03125E0,2.9023438E0],"tree_param":{"num_deleted":"0","num_feature":"946","num_nodes":"13","size_leaf_vector":"0"}},{"base_weights":[4.1660364E-3,-1.3668382E-3,3.1294209E1,-9.1889605E-2,8.933816E-2,-5.742025E-2,1.7912329E1,-2.650735E-2,-1.2710928E0,2.5671607E-2,9.8867E-1],"default_left":[false,true,false,false,true,false,false,false,false,false,false],"id":61,"leaf_child_counts":[0,0,0,0,0,0,0,0,0,0,0],"left_children":[1,3,5,7,9,-1,-1,-1,-1,-1,-1],"loss_changes":[3.7563027E3,1.7813571E2,3.4431265E3,1.5858817E2,1.3057178E2,0E0,0E0,0E0,0E0,0E0,0E0],"parents":[2147483647,0,0,1,1,2,2,3,3,4,4],"right_children":[2,4,6,8,10,-1,-1,-1,-1,-1,-1],"split_conditions":[2.875E0,-2.319336E-1,-5.136719E-1,7.531738E-2,5E0,-5.742025E-2,1.7912329E1,-2.650735E-2,-1.2710928E0,2.5671607E-2,9.8867E-1],"split_indices":[63,45,380,705,588,0,0,0,0,0,0],"sum_hessian":[2.169595E4,2.1693113E4,2.8359375E0,1.0857457E4,1.0835656E4,1.8164062E0,1.0195312E0,1.0849234E4,8.222656E0,1.0823969E4,1.16875E1],"tree_param":{"num_deleted":"0","num_feature":"946","num_nodes":"11","size_leaf_vector":"0"}},{"base_weights":[-6.13687E-3,-9.983805E-4,-1.4641675E1,1.0286715E-3,-1.173954E1,-1.8867524E-2,3.887129E-2,-5.148864E0,5.679348E-2],"default_left":[false,true,false,true,true,false,false,false,false],"id":62,"leaf_child_counts":[0,0,0,0,0,0,0,0,0],"left_children":[1,3,-1,5,7,-1,-1,-1,-1],"loss_changes":[5.4238047E3,5.1466095E2,0E0,1.7769803E2,2.4484149E2,0E0,0E0,0E0,0E0],"parents":[2147483647,0,0,1,1,3,3,4,4],"right_children":[2,4,-1,6,8,-1,-1,-1,-1],"split_conditions":[3.0546875E0,2.9082031E0,-1.4641675E1,-1.1138916E-1,4.6295166E-2,-1.8867524E-2,3.887129E-2,-5.148864E0,5.679348E-2],"split_indices":[60,60,0,9,156,0,0,0,0],"sum_hessian":[2.1629055E4,2.1627777E4,1.2773438E0,2.1625043E4,2.734375E0,1.4443309E4,7.1817344E3,1.578125E0,1.15625E0],"tree_param":{"num_deleted":"0","num_feature":"946","num_nodes":"9","size_leaf_vector":"0"}},{"base_weights":[2.3504025E-3,-1.2445659E-3,1.4941906E1,6.783257E-2,-1.2737547E-1,-1.148636E0,1.2099657E1,6.126373E-3,8.476182E-2,-4.9194492E-2,9.30442E-2,9.399231E-1,-1.4607624E0],"default_left":[false,false,false,true,true,false,false,false,false,false,false,false,false],"id":63,"leaf_child_counts":[0,0,0,0,0,0,0,0,0,0,0,0,0],"left_children":[1,3,5,7,9,11,-1,-1,-1,-1,-1,-1,-1],"loss_changes":[1.1598225E3,1.8812357E2,2.1688374E3,1.4201099E2,1.2242188E2,8.140419E1,0E0,0E0,0E0,0E0,0E0,0E0,0E0],"parents":[2147483647,0,0,1,1,2,2,3,3,4,4,5,5],"right_children":[2,4,6,8,10,12,-1,-1,-1,-1,-1,-1,-1],"split_conditions":[2.875E0,3.6193848E-2,-5.621338E-2,5.46875E-1,1.3925781E0,-3.6450195E-1,1.2099657E1,6.126373E-3,8.476182E-2,-4.9194492E-2,9.30442E-2,9.399231E-1,-1.4607624E0],"split_indices":[63,245,367,79,244,178,0,0,0,0,0,0,0],"sum_hessian":[2.159393E4,2.1589734E4,4.1953125E0,1.3950199E4,7.639535E3,3.1523438E0,1.0429688E0,1.1427816E4,2.5223828E3,7.050285E3,5.8925E2,1.5390625E0,1.6132812E0],"tree_param":{"num_deleted":"0","num_feature":"946","num_nodes":"13","size_leaf_vector":"0"}},{"base_weights":[-4.7860574E-3,1.0025597E-3,-1.7659344E1,6.670361E-2,-1.1847135E-1,-1.6658468E1,-2.081448E0,-4.254365E-3,6.676055E-2,-3.3052437E-2,-6.2168545E-1,1.8673185E0,-1.5550948E0],"default_left":[false,false,true,false,false,false,false,false,false,false,false,false,false],"id":64,"leaf_child_counts":[0,0,0,0,0,0,0,0,0,0,0,0,0],"left_children":[1,3,5,7,9,-1,11,-1,-1,-1,-1,-1,-1],"loss_changes":[2.2019856E3,1.6909189E2,4.050713E3,1.751855E2,1.2366537E2,0E0,1.8797061E2,0E0,0E0,0E0,0E0,0E0,0E0],"parents":[2147483647,0,0,1,1,2,2,3,3,4,4,6,6],"right_children":[2,4,6,8,10,-1,12,-1,-1,-1,-1,-1,-1],"split_conditions":[2.9082031E0,1.0917969E0,-2.0385742E-1,-4.4726562E-1,2.8046875E0,-1.6658468E1,9.9658203E-1,-4.254365E-3,6.676055E-2,-3.3052437E-2,-6.2168545E-1,1.8673185E0,-1.5550948E0],"split_indices":[60,788,15,4,702,0,561,0,0,0,0,0,0],"sum_hessian":[2.1545629E4,2.1539566E4,6.0625E0,1.38975E4,7.6420664E3,1.0195312E0,5.0429688E0,9.149391E3,4.7481094E3,7.6108047E3,3.1261719E1,1.0976562E0,3.9453125E0],"tree_param":{"num_deleted":"0","num_feature":"946","num_nodes":"13","size_leaf_vector":"0"}},{"base_weights":[3.5402211E-3,-1.1597574E-3,1.2244933E1,-2.467641E-2,3.1550664E-1,-1.51759675E-2,9.409728E-2,1.565611E-1,1.113667E-2],"default_left":[false,false,false,true,true,false,false,false,false],"id":65,"leaf_child_counts":[0,0,0,0,0,0,0,0,0],"left_children":[1,3,-1,5,7,-1,-1,-1,-1],"loss_changes":[4.1549507E3,1.6130063E2,0E0,1.7676707E2,8.600067E1,0E0,0E0,0E0,0E0],"parents":[2147483647,0,0,1,1,3,3,4,4],"right_children":[2,4,-1,6,8,-1,-1,-1,-1],"split_conditions":[2.875E0,5.9228516E-1,1.2244933E1,1.6357422E0,4.1503906E-1,-1.51759675E-2,9.409728E-2,1.565611E-1,1.113667E-2],"split_indices":[63,94,0,43,52,0,0,0,0],"sum_hessian":[2.1659455E4,2.165796E4,1.4941406E0,2.0161617E4,1.4963438E3,1.872823E4,1.4333867E3,8.588281E2,6.375156E2],"tree_param":{"num_deleted":"0","num_feature":"946","num_nodes":"9","size_leaf_vector":"0"}},{"base_weights":[-5.363873E-3,8.2254305E-4,-1.3188478E1,5.3463525E-1,-1.3206018E-2,-1.81969E1,-1.0434222E0,1.3756172E-1,5.2981347E-1,-1.2442681E-2,7.2573416E-2,-2.1066668E0,6.2136656E-1],"default_left":[false,true,true,true,true,false,false,false,false,false,false,false,false],"id":66,"leaf_child_counts":[0,0,0,0,0,0,0,0,0,0,0,0,0],"left_children":[1,3,5,7,9,-1,11,-1,-1,-1,-1,-1,-1],"loss_changes":[1.7618538E3,1.617139E2,5.7782725E3,5.100682E1,1.5176402E2,0E0,1.837414E2,0E0,0E0,0E0,0E0,0E0,0E0],"parents":[2147483647,0,0,1,1,2,2,3,3,4,4,6,6],"right_children":[2,4,6,8,10,-1,12,-1,-1,-1,-1,-1,-1],"split_conditions":[2.9082031E0,-4.7929688E0,1.1578369E-1,1.2695312E-1,2.7109375E0,-1.81969E1,1.3222656E0,1.3756172E-1,5.2981347E-1,-1.2442681E-2,7.2573416E-2,-2.1066668E0,6.2136656E-1],"split_indices":[60,169,679,2,429,0,55,0,0,0,0,0,0],"sum_hessian":[2.1601797E4,2.1592664E4,9.1328125E0,5.5197266E2,2.1040691E4,1.046875E0,8.0859375E0,5.211406E2,3.0832031E1,1.8942508E4,2.0981836E3,2.3398438E0,5.7460938E0],"tree_param":{"num_deleted":"0","num_feature":"946","num_nodes":"13","size_leaf_vector":"0"}},{"base_weights":[2.2598028E-3,-1.9297466E-4,1.3318794E1,-1.5019444E-2,4.5374307E-1,-1.3123515E0,9.8116865E0,-4.1739214E-3,-2.2936049E0,1.313923E-1,1.6085821E0],"default_left":[false,true,false,true,false,false,false,false,false,false,false],"id":67,"leaf_child_counts":[0,0,0,0,0,0,0,0,0,0,0],"left_children":[1,3,5,7,9,-1,-1,-1,-1,-1,-1],"loss_changes":[7.039084E2,1.4503012E2,1.5044192E3,1.7605566E2,5.0402603E1,0E0,0E0,0E0,0E0,0E0,0E0],"parents":[2147483647,0,0,1,1,2,2,3,3,4,4],"right_children":[2,4,6,8,10,-1,-1,-1,-1,-1,-1],"split_conditions":[2.875E0,2.3320312E0,-3.2836914E-1,6.4101562E0,3.0273438E0,-1.3123515E0,9.8116865E0,-4.1739214E-3,-2.2936049E0,1.313923E-1,1.6085821E0],"split_indices":[63,24,433,34,585,0,0,0,0,0,0],"sum_hessian":[2.154989E4,2.1546922E4,2.96875E0,2.0866352E4,6.805703E2,1.9570312E0,1.0117188E0,2.0864328E4,2.0234375E0,6.7947656E2,1.09375E0],"tree_param":{"num_deleted":"0","num_feature":"946","num_nodes":"11","size_leaf_vector":"0"}},{"base_weights":[-2.816236E-3,8.245542E-4,-1.1747194E1,-1.2462966E-1,5.403845E-2,-1.1591022E1,7.355226E-1,-2.4767153E-2,-1.4276339E-1,-8.171115E-3,4.672046E-2,2.4369645E0,-9.46268E-1],"default_left":[false,true,true,true,true,false,false,false,false,false,false,false,false],"id":68,"leaf_child_counts":[0,0,0,0,0,0,0,0,0,0,0,0,0],"left_children":[1,3,5,7,9,-1,11,-1,-1,-1,-1,-1,-1],"loss_changes":[9.1919244E2,1.4348035E2,2.264586E3,9.455671E1,1.2473839E2,0E0,1.8456993E2,0E0,0E0,0E0,0E0,0E0,0E0],"parents":[2147483647,0,0,1,1,2,2,3,3,4,4,6,6],"right_children":[2,4,6,8,10,-1,12,-1,-1,-1,-1,-1,-1],"split_conditions":[2.9082031E0,-3.1567383E-1,2.3901367E-1,8.466797E-1,-2.3352051E-1,-1.1591022E1,5.4052734E-1,-2.4767153E-2,-1.4276339E-1,-8.171115E-3,4.672046E-2,2.4369645E0,-9.46268E-1],"split_indices":[60,330,19,15,286,0,561,0,0,0,0,0,0],"sum_hessian":[2.1495916E4,2.1490254E4,5.6621094E0,6.4001836E3,1.509007E4,1.1308594E0,4.53125E0,5.716676E3,6.835078E2,8.38752E3,6.702551E3,1.1875E0,3.34375E0],"tree_param":{"num_deleted":"0","num_feature":"946","num_nodes":"13","size_leaf_vector":"0"}},{"base_weights":[2.773643E-3,-4.179008E-4,1.8247288E1,-4.2274344E-1,1.4353715E-2,1.1556127E1,-1.0252866E0,-6.2476933E-1,-1.1805066E-1,1.0834006E-1,-1.9820938E-3],"default_left":[false,false,true,true,false,false,false,false,false,false,false],"id":69,"leaf_child_counts":[0,0,0,0,0,0,0,0,0,0,0],"left_children":[1,3,5,7,9,-1,-1,-1,-1,-1,-1],"loss_changes":[1.2452007E3,1.3339607E2,1.7744176E3,3.4253677E1,1.5017717E2,0E0,0E0,0E0,0E0,0E0,0E0],"parents":[2147483647,0,0,1,1,2,2,3,3,4,4],"right_children":[2,4,6,8,10,-1,-1,-1,-1,-1,-1],"split_conditions":[2.9179688E0,-8.5009766E-1,-9.790039E-2,-2.4645996E-1,-3.0820312E0,1.1556127E1,-1.0252866E0,-6.2476933E-1,-1.1805066E-1,1.0834006E-1,-1.9820938E-3],"split_indices":[64,43,362,208,905,0,0,0,0,0,0],"sum_hessian":[2.138372E4,2.138098E4,2.7402344E0,7.216328E2,2.0659348E4,1.0136719E0,1.7265625E0,1.1277344E1,7.1035547E2,1.1766289E3,1.9482719E4],"tree_param":{"num_deleted":"0","num_feature":"946","num_nodes":"11","size_leaf_vector":"0"}},{"base_weights":[-5.6152074E-3,-4.9665257E-5,-1.9285173E1,6.406346E-2,-9.357625E-2,-1.6053047E1,-1.1064241E0,3.0239955E-2,-6.259302E-2,-4.860324E-2,2.3735141E-2,-2.2185185E0,8.451071E-1],"default_left":[false,true,true,true,true,false,false,false,false,false,false,false,false],"id":70,"leaf_child_counts":[0,0,0,0,0,0,0,0,0,0,0,0,0],"left_children":[1,3,5,7,9,-1,11,-1,-1,-1,-1,-1,-1],"loss_changes":[2.2918518E3,1.2805E2,3.7758735E3,1.269496E2,1.0265594E2,0E0,1.4535432E2,0E0,0E0,0E0,0E0,0E0,0E0],"parents":[2147483647,0,0,1,1,2,2,3,3,4,4,6,6],"right_children":[2,4,6,8,10,-1,12,-1,-1,-1,-1,-1,-1],"split_conditions":[2.9082031E0,-3.4814453E-1,-1.7944336E-1,3E0,1.2265625E0,-1.6053047E1,-3.4350586E-1,3.0239955E-2,-6.259302E-2,-4.860324E-2,2.3735141E-2,-2.2185185E0,8.451071E-1],"split_indices":[60,742,325,921,104,0,420,0,0,0,0,0,0],"sum_hessian":[2.1358062E4,2.1352898E4,5.1640625E0,1.2668719E4,8.68418E3,1.1171875E0,4.046875E0,1.1165273E4,1.5034453E3,6.2195664E3,2.4646133E3,1.2148438E0,2.8320312E0],"tree_param":{"num_deleted":"0","num_feature":"946","num_nodes":"13","size_leaf_vector":"0"}},{"base_weights":[3.4124185E-3,-1.5403255E-4,6.047308E0,-1.4513814E-3,3.494032E0,9.3160095E0,-4.1362214E0,-1.2303165E-2,4.5373354E-2,5.307874E0,1.2242013E0,-2.1976333E0,5.517658E-1],"default_left":[true,false,false,false,false,true,true,false,false,false,false,false,false],"id":71,"leaf_child_counts":[0,0,0,0,0,0,0,0,0,0,0,0,0],"left_children":[1,3,5,7,-1,9,11,-1,-1,-1,-1,-1,-1],"loss_changes":[4.5873392E2,3.2141183E2,4.5630994E2,1.2848087E2,0E0,3.5796588E2,8.4787994E1,0E0,0E0,0E0,0E0,0E0,0E0],"parents":[2147483647,0,0,1,1,2,2,3,3,5,5,6,6],"right_children":[2,4,6,8,-1,10,12,-1,-1,-1,-1,-1,-1],"split_conditions":[2.875E0,6.9296875E0,3.5766602E-1,-1.0299683E-2,3.494032E0,8.510742E-1,-2.2937012E-1,-1.2303165E-2,4.5373354E-2,5.307874E0,1.2242013E0,-2.1976333E0,5.517658E-1],"split_indices":[63,712,766,215,0,212,877,0,0,0,0,0,0],"sum_hessian":[2.128072E4,2.126917E4,1.1550781E1,2.12678E4,1.3691406E0,8.808594E0,2.7421875E0,1.6892234E4,4.3755664E3,2.4726562E0,6.3359375E0,1.640625E0,1.1015625E0],"tree_param":{"num_deleted":"0","num_feature":"946","num_nodes":"13","size_leaf_vector":"0"}},{"base_weights":[-5.6116427E-5,-2.644738E-3,1.1886048E1,-2.5847763E-2,2.5617835E-1,-2.7527351E0,9.439121E0,-1.0797595E-2,1.778012E-1,7.1494885E-2,1.9314989E0,-1.8475962E0,7.291209E-1],"default_left":[false,true,false,false,true,true,false,false,false,false,false,false,false],"id":72,"leaf_child_counts":[0,0,0,0,0,0,0,0,0,0,0,0,0],"left_children":[1,3,5,7,9,11,-1,-1,-1,-1,-1,-1,-1],"loss_changes":[6.5466394E2,1.27757195E2,1.4143457E3,1.225169E2,1.9173578E2,7.799597E1,0E0,0E0,0E0,0E0,0E0,0E0,0E0],"parents":[2147483647,0,0,1,1,2,2,3,3,4,4,5,5],"right_children":[2,4,6,8,10,12,-1,-1,-1,-1,-1,-1,-1],"split_conditions":[2.875E0,-5.4473877E-2,-8.9697266E-1,1.5556641E0,7.519531E-2,-6.5612793E-3,9.439121E0,-1.0797595E-2,1.778012E-1,7.1494885E-2,1.9314989E0,-1.8475962E0,7.291209E-1],"split_indices":[63,680,757,256,708,306,0,0,0,0,0,0,0],"sum_hessian":[2.1274973E4,2.127134E4,3.6328125E0,1.9522117E4,1.7492227E3,2.5703125E0,1.0625E0,1.9208031E4,3.1408594E2,1.7452188E3,4.0039062E0,1.4375E0,1.1328125E0],"tree_param":{"num_deleted":"0","num_feature":"946","num_nodes":"13","size_leaf_vector":"0"}},{"base_weights":[-5.201222E-3,-1.3648581E-3,-2.5457163E1,-3.7026044E-2,1.5975903E-1,-1.4441331E1,2.846362E0,-9.559214E-3,-4.7142714E-1,1.5058247E-2,1.01519905E-1],"default_left":[false,false,true,false,false,false,false,false,false,false,false],"id":73,"leaf_child_counts":[0,0,0,0,0,0,0,0,0,0,0],"left_children":[1,3,5,7,9,-1,-1,-1,-1,-1,-1],"loss_changes":[2.0715083E3,1.2189466E2,2.9907966E3,1.3752881E2,7.5229195E1,0E0,0E0,0E0,0E0,0E0,0E0],"parents":[2147483647,0,0,1,1,2,2,3,3,4,4],"right_children":[2,4,6,8,10,-1,-1,-1,-1,-1,-1],"split_conditions":[2.9316406E0,1.3300781E0,6.694336E-1,2.2636719E0,4.6899414E-1,-1.4441331E1,2.846362E0,-9.559214E-3,-4.7142714E-1,1.5058247E-2,1.01519905E-1],"split_indices":[62,59,2,702,226,0,0,0,0,0,0],"sum_hessian":[2.1214482E4,2.1212285E4,2.1972656E0,1.7368848E4,3.8434375E3,1.1035156E0,1.09375E0,1.7311629E4,5.721875E1,2.3831016E3,1.4603359E3],"tree_param":{"num_deleted":"0","num_feature":"946","num_nodes":"11","size_leaf_vector":"0"}},{"base_weights":[4.8884605E-3,-4.7340672E-4,9.35261E0,-1.8369756E-3,8.74699E0,1.5413534E1,1.459534E0,-1.5041679E-2,3.3293568E-2,5.983876E0,1.3599399E-1,-2.073379E-1,4.5470805E0,-1.282937E0,1.7142447E0],"default_left":[true,false,true,false,false,true,true,false,false,false,false,false,false,false,false],"id":74,"leaf_child_counts":[0,0,0,0,0,0,0,0,0,0,0,0,0,0,0],"left_children":[1,3,5,7,11,9,13,-1,-1,-1,-1,-1,-1,-1,-1],"loss_changes":[1.0600889E3,2.521605E2,5.575552E2,1.1518543E2,2.098109E2,4.489436E2,1.7991925E2,0E0,0E0,0E0,0E0,0E0,0E0,0E0,0E0],"parents":[2147483647,0,0,1,1,2,2,3,3,5,5,4,4,6,6],"right_children":[2,4,6,8,12,10,14,-1,-1,-1,-1,-1,-1,-1,-1],"split_conditions":[2.875E0,7.0117188E0,3.8208008E-2,-3.0810547E-1,-2.7514648E-1,3.4155273E-1,-4.5092773E-1,-1.5041679E-2,3.3293568E-2,5.983876E0,1.3599399E-1,-2.073379E-1,4.5470805E0,-1.282937E0,1.7142447E0],"split_indices":[63,404,16,4,518,227,286,0,0,0,0,0,0,0,0],"sum_hessian":[2.1149404E4,2.113828E4,1.1125E1,2.1135984E4,2.2949219E0,5.7539062E0,5.3710938E0,1.4799945E4,6.336039E3,4.1601562E0,1.59375E0,1.2890625E0,1.0058594E0,2.2851562E0,3.0859375E0],"tree_param":{"num_deleted":"0","num_feature":"946","num_nodes":"15","size_leaf_vector":"0"}},{"base_weights":[2.2083675E-3,-1.3578947E-3,1.9962717E1,-2.1235743E-3,2.339159E0,1.2011048E1,-6.125001E-1,-8.531744E-3,6.1188884E-2],"default_left":[false,true,true,true,false,false,false,false,false],"id":75,"leaf_child_counts":[0,0,0,0,0,0,0,0,0],"left_children":[1,3,5,7,-1,-1,-1,-1,-1],"loss_changes":[1.5153635E3,1.27111435E2,1.7614797E3,1.15432724E2,0E0,0E0,0E0,0E0,0E0],"parents":[2147483647,0,0,1,1,2,2,3,3],"right_children":[2,4,6,8,-1,-1,-1,-1,-1],"split_conditions":[2.9316406E0,2.875E0,9.902344E-1,1.0439453E0,2.339159E0,1.2011048E1,-6.125001E-1,-8.531744E-3,6.1188884E-2],"split_indices":[62,63,653,265,0,0,0,0,0],"sum_hessian":[2.1286475E4,2.1283672E4,2.8027344E0,2.1282582E4,1.0898438E0,1.0371094E0,1.765625E0,1.8873457E4,2.409125E3],"tree_param":{"num_deleted":"0","num_feature":"946","num_nodes":"9","size_leaf_vector":"0"}},{"base_weights":[-5.414067E-3,-6.1045313E-4,-1.4850528E1,7.6325245E-2,-6.877071E-2,-1.3920577E1,-8.5506755E-1,3.1599324E-2,-6.570243E-2,-2.67899E-2,1.02425724E-1,9.183704E-1,-1.7205883E0],"default_left":[false,true,true,true,true,false,true,false,false,false,false,false,false],"id":76,"leaf_child_counts":[0,0,0,0,0,0,0,0,0,0,0,0,0],"left_children":[1,3,5,7,9,-1,11,-1,-1,-1,-1,-1,-1],"loss_changes":[1.515585E3,1.1142708E2,2.9961604E3,8.55308E1,9.490636E1,0E0,1.2805089E2,0E0,0E0,0E0,0E0,0E0,0E0],"parents":[2147483647,0,0,1,1,2,2,3,3,4,4,6,6],"right_children":[2,4,6,8,10,-1,12,-1,-1,-1,-1,-1,-1],"split_conditions":[2.9082031E0,-2.1179199E-1,-2.5E-1,-1.7585754E-3,2.25E0,-1.3920577E1,3.1323242E-1,3.1599324E-2,-6.570243E-2,-2.67899E-2,1.02425724E-1,9.183704E-1,-1.7205883E0],"split_indices":[60,248,397,254,49,0,434,0,0,0,0,0,0],"sum_hessian":[2.125254E4,2.1246664E4,5.875E0,9.980773E3,1.1265891E4,1.09375E0,4.78125E0,9.088773E3,8.92E2,1.072968E4,5.3621094E2,2.859375E0,1.921875E0],"tree_param":{"num_deleted":"0","num_feature":"946","num_nodes":"13","size_leaf_vector":"0"}},{"base_weights":[3.1504969E-3,-5.590715E-4,1.0722364E1,-4.0408686E-2,1.3668159E-1,-2.164685E-2,5.8372855E-2,3.880478E-2,2.0792906E0],"default_left":[false,true,false,false,false,false,false,false,false],"id":77,"leaf_child_counts":[0,0,0,0,0,0,0,0,0],"left_children":[1,3,-1,5,7,-1,-1,-1,-1],"loss_changes":[2.8091543E3,1.1588336E2,0E0,1.2251825E2,2.3663911E2,0E0,0E0,0E0,0E0],"parents":[2147483647,0,0,1,1,3,3,4,4],"right_children":[2,4,-1,6,8,-1,-1,-1,-1],"split_conditions":[2.9082031E0,5.136719E-1,1.0722364E1,9.355469E-1,3.6308594E0,-2.164685E-2,5.8372855E-2,3.880478E-2,2.0792906E0],"split_indices":[60,8,0,79,585,0,0,0,0],"sum_hessian":[2.1188371E4,2.1187172E4,1.1992188E0,1.642009E4,4.767082E3,1.446632E4,1.9537695E3,4.762961E3,4.1210938E0],"tree_param":{"num_deleted":"0","num_feature":"946","num_nodes":"9","size_leaf_vector":"0"}},{"base_weights":[-5.4091057E-3,-5.047212E-4,-2.2377981E1,2.1410985E-2,-2.4566744E-1,-1.5711175E1,1.359495E0,-6.2550995E-3,4.699785E-2,-8.980965E-2,9.9396974E-2,2.2253098E0,-1.4713457E0],"default_left":[false,false,true,false,false,false,false,false,false,false,false,false,false],"id":78,"leaf_child_counts":[0,0,0,0,0,0,0,0,0,0,0,0,0],"left_children":[1,3,5,7,9,-1,11,-1,-1,-1,-1,-1,-1],"loss_changes":[2.3174236E3,1.1346514E2,3.3667407E3,1.1080439E2,5.3789566E1,0E0,1.7142319E2,0E0,0E0,0E0,0E0,0E0,0E0],"parents":[2147483647,0,0,1,1,2,2,3,3,4,4,6,6],"right_children":[2,4,6,8,10,-1,12,-1,-1,-1,-1,-1,-1],"split_conditions":[2.9082031E0,-1.3313293E-2,5.1220703E-1,-2.4523926E-1,5.292969E-1,-1.5711175E1,-2.5024414E-1,-6.2550995E-3,4.699785E-2,-8.980965E-2,9.9396974E-2,2.2253098E0,-1.4713457E0],"split_indices":[60,113,4,3,219,0,397,0,0,0,0,0,0],"sum_hessian":[2.111964E4,2.1116012E4,3.6289062E0,1.9384129E4,1.7318828E3,1.0703125E0,2.5585938E0,1.4769824E4,4.6143047E3,1.5848672E3,1.4701562E2,1.2070312E0,1.3515625E0],"tree_param":{"num_deleted":"0","num_feature":"946","num_nodes":"13","size_leaf_vector":"0"}},{"base_weights":[4.9861437E-3,6.6782177E-6,8.4375E0,-1.3221884E-3,7.9215527E0,1.3287802E0,1.3235123E1,1.0627703E-2,-4.0833846E-2,1.6533034E0,-1.232491E0,4.5279837E0,-3.1632972E-1,2.9231808E-1,5.197457E0],"default_left":[true,false,false,true,true,true,false,false,false,false,false,false,false,false,false],"id":79,"leaf_child_counts":[0,0,0,0,0,0,0,0,0,0,0,0,0,0,0],"left_children":[1,3,5,7,11,9,13,-1,-1,-1,-1,-1,-1,-1,-1],"loss_changes":[8.8936597E2,2.2285207E2,4.0872534E2,1.0484899E2,2.4449036E2,1.6245107E2,3.5174915E2,0E0,0E0,0E0,0E0,0E0,0E0,0E0,0E0],"parents":[2147483647,0,0,1,1,2,2,3,3,5,5,4,4,6,6],"right_children":[2,4,6,8,12,10,14,-1,-1,-1,-1,-1,-1,-1,-1],"split_conditions":[2.9082031E0,1.2296875E1,1.826477E-2,-1.1242676E-1,5.620117E-1,-3.5107422E-1,-2.998047E-1,1.0627703E-2,-4.0833846E-2,1.6533034E0,-1.232491E0,4.5279837E0,-3.1632972E-1,2.9231808E-1,5.197457E0],"split_indices":[60,793,458,69,319,809,589,0,0,0,0,0,0,0,0],"sum_hessian":[2.1179723E4,2.1168223E4,1.15E1,2.1165672E4,2.5507812E0,5.1484375E0,6.3515625E0,1.6632031E4,4.5336406E3,2.9023438E0,2.2460938E0,1.0390625E0,1.5117188E0,1.8984375E0,4.453125E0],"tree_param":{"num_deleted":"0","num_feature":"946","num_nodes":"15","size_leaf_vector":"0"}},{"base_weights":[1.7752699E-3,-1.0862256E-3,6.691161E0,1.2835847E-1,-3.9077397E-2,3.703515E-2,1.2794057E0,-6.7945034E-3,-1.5392894E-1],"default_left":[false,false,false,true,false,false,false,false,false],"id":80,"leaf_child_counts":[0,0,0,0,0,0,0,0,0],"left_children":[1,3,-1,5,7,-1,-1,-1,-1],"loss_changes":[1.3485481E3,1.03913666E2,0E0,9.6806E1,1.27206604E2,0E0,0E0,0E0,0E0],"parents":[2147483647,0,0,1,1,3,3,4,4],"right_children":[2,4,-1,6,8,-1,-1,-1,-1],"split_conditions":[3.0117188E0,1E0,6.691161E0,2.9316406E0,8.5253906E-1,3.703515E-2,1.2794057E0,-6.7945034E-3,-1.5392894E-1],"split_indices":[63,927,0,62,15,0,0,0,0],"sum_hessian":[2.1129996E4,2.1128285E4,1.7109375E0,4.793465E3,1.633482E4,4.7888125E3,4.6523438E0,1.5788648E4,5.461719E2],"tree_param":{"num_deleted":"0","num_feature":"946","num_nodes":"9","size_leaf_vector":"0"}},{"base_weights":[-2.6265269E-3,-8.386038E-4,-6.4588165E0,-1.748198E-2,2.860632E-1,-6.08708E0,8.0684596E-1,6.9464624E-2,-1.1319984E-2,5.9854493E-2,3.8921738E-1,1.4638753E0,-1.3540603E0],"default_left":[false,false,true,false,true,false,true,false,false,false,false,false,false],"id":81,"leaf_child_counts":[0,0,0,0,0,0,0,0,0,0,0,0,0],"left_children":[1,3,5,7,9,-1,11,-1,-1,-1,-1,-1,-1],"loss_changes":[2.4364893E2,1.0077334E2,6.036367E2,1.0060587E2,1.0102479E2,0E0,1.2588068E2,0E0,0E0,0E0,0E0,0E0,0E0],"parents":[2147483647,0,0,1,1,2,2,3,3,4,4,6,6],"right_children":[2,4,6,8,10,-1,12,-1,-1,-1,-1,-1,-1],"split_conditions":[3.0664062E0,2.5048828E-1,7.910156E-1,-7.060547E-1,2.5024414E-2,-6.08708E0,-3.9038086E-1,6.9464624E-2,-1.1319984E-2,5.9854493E-2,3.8921738E-1,1.4638753E0,-1.3540603E0],"split_indices":[64,303,119,813,4,0,415,0,0,0,0,0,0],"sum_hessian":[2.1107094E4,2.110225E4,4.84375E0,1.9946102E4,1.1561484E3,1.0507812E0,3.7929688E0,1.4992578E3,1.8446844E4,1.0661094E3,9.003906E1,2.1953125E0,1.5976562E0],"tree_param":{"num_deleted":"0","num_feature":"946","num_nodes":"13","size_leaf_vector":"0"}},{"base_weights":[8.6722226E-4,-4.4654432E-4,7.6183867E0,-2.8737394E-2,1.6949397E-1,5.537077E0,-1.1317568E0,1.0853322E-2,-3.841698E-2,4.923835E-2,2.4305828E0],"default_left":[false,false,true,false,false,false,false,false,false,false,false],"id":82,"leaf_child_counts":[0,0,0,0,0,0,0,0,0,0,0],"left_children":[1,3,5,7,9,-1,-1,-1,-1,-1,-1],"loss_changes":[2.1083612E2,1.0127815E2,5.1813904E2,1.1643768E2,1.2664265E2,0E0,0E0,0E0,0E0,0E0,0E0],"parents":[2147483647,0,0,1,1,2,2,3,3,4,4],"right_children":[2,4,6,8,10,-1,-1,-1,-1,-1,-1],"split_conditions":[3.2714844E0,1.7148438E0,-1.8786621E-1,-1.5979004E-1,2.875E0,5.537077E0,-1.1317568E0,1.0853322E-2,-3.841698E-2,4.923835E-2,2.4305828E0],"split_indices":[63,159,500,67,63,0,0,0,0,0,0],"sum_hessian":[2.1066172E4,2.106354E4,2.6328125E0,1.805814E4,3.0053984E3,1.03125E0,1.6015625E0,1.0920879E4,7.1372617E3,3.0043867E3,1.0117188E0],"tree_param":{"num_deleted":"0","num_feature":"946","num_nodes":"11","size_leaf_vector":"0"}},{"base_weights":[-2.0386132E-3,-2.67406E-4,-7.9164143E0,-1.03622146E-1,4.4510294E-2,-6.1488466E0,1.5367568E0,-4.425539E-2,9.6099675E-2,1.2764764E-2,1.1217163E0,1.7374539E0,-8.063381E-1],"default_left":[false,false,true,false,false,false,true,false,false,false,false,false,false],"id":83,"leaf_child_counts":[0,0,0,0,0,0,0,0,0,0,0,0,0],"left_children":[1,3,5,7,9,-1,11,-1,-1,-1,-1,-1,-1],"loss_changes":[2.9441245E2,9.71873E1,5.9032135E2,1.1818024E2,1.0599911E2,0E0,8.051307E1,0E0,0E0,0E0,0E0,0E0,0E0],"parents":[2147483647,0,0,1,1,2,2,3,3,4,4,6,6],"right_children":[2,4,6,8,10,-1,12,-1,-1,-1,-1,-1,-1],"split_conditions":[3.2714844E0,-1.2646484E-1,1.5100098E-1,1.8369141E0,2.9316406E0,-6.1488466E0,2.541504E-1,-4.425539E-2,9.6099675E-2,1.2764764E-2,1.1217163E0,1.7374539E0,-8.063381E-1],"split_indices":[63,75,640,138,62,0,134,0,0,0,0,0,0],"sum_hessian":[2.100161E4,2.099791E4,3.6992188E0,6.346883E3,1.4651027E4,1.0859375E0,2.6132812E0,5.7519805E3,5.9490234E2,1.4644266E4,6.7617188E0,1.1171875E0,1.4960938E0],"tree_param":{"num_deleted":"0","num_feature":"946","num_nodes":"13","size_leaf_vector":"0"}},{"base_weights":[1.1340855E-3,-1.8033072E-4,6.871031E0,-1.1083124E-2,4.2191315E-1,5.4653187E0,-1.0614E0,-3.072626E-3,-1.8131688E0,-8.3266306E-1,1.3289407E-1],"default_left":[false,false,true,true,false,false,false,false,false,false,false],"id":84,"leaf_child_counts":[0,0,0,0,0,0,0,0,0,0,0],"left_children":[1,3,5,7,9,-1,-1,-1,-1,-1,-1],"loss_changes":[1.8937123E2,9.65013E1,5.382709E2,1.036543E2,3.6796707E1,0E0,0E0,0E0,0E0,0E0,0E0],"parents":[2147483647,0,0,1,1,2,2,3,3,4,4],"right_children":[2,4,6,8,10,-1,-1,-1,-1,-1,-1],"split_conditions":[3.2714844E0,3.778076E-2,-8.111572E-2,6.4101562E0,-3.9672852E-1,5.4653187E0,-1.0614E0,-3.072626E-3,-1.8131688E0,-8.3266306E-1,1.3289407E-1],"split_indices":[63,374,114,34,71,0,0,0,0,0,0],"sum_hessian":[2.097043E4,2.0967418E4,3.0117188E0,2.044041E4,5.270078E2,1.0820312E0,1.9296875E0,2.0438562E4,1.8476562E0,2.59375E0,5.2441406E2],"tree_param":{"num_deleted":"0","num_feature":"946","num_nodes":"11","size_leaf_vector":"0"}},{"base_weights":[-1.7788929E-3,-1.3315641E-4,-8.193133E0,-5.8270423E-3,8.0458975E-1,-4.6710963E0,1.2433884E0,-1.4743779E-3,-2.7080855E0,2.2138713E-1,1.5648649E0],"default_left":[false,false,true,false,false,false,false,false,false,false,false],"id":85,"leaf_child_counts":[0,0,0,0,0,0,0,0,0,0,0],"left_children":[1,3,5,7,9,-1,-1,-1,-1,-1,-1],"loss_changes":[2.8221024E2,9.5910965E1,4.4727087E2,1.7104387E2,3.9382095E1,0E0,0E0,0E0,0E0,0E0,0E0],"parents":[2147483647,0,0,1,1,2,2,3,3,4,4],"right_children":[2,4,6,8,10,-1,-1,-1,-1,-1,-1],"split_conditions":[3.2714844E0,3.9042969E0,3.7695312E-1,6.4101562E0,2.4140625E0,-4.6710963E0,1.2433884E0,-1.4743779E-3,-2.7080855E0,2.2138713E-1,1.5648649E0],"split_indices":[63,9,517,34,585,0,0,0,0,0,0],"sum_hessian":[2.0933299E4,2.0930094E4,3.2050781E0,2.0784027E4,1.460664E2,1.8417969E0,1.3632812E0,2.0782926E4,1.1015625E0,1.4504297E2,1.0234375E0],"tree_param":{"num_deleted":"0","num_feature":"946","num_nodes":"11","size_leaf_vector":"0"}},{"base_weights":[1.0727615E-3,2.1235552E-3,-7.2898927E0,-2.91052E-2,1.4576642E-1,5.7407767E-1,-3.869065E0,6.847729E-3,-4.052203E-2,4.2541794E-2,1.1519232E0],"default_left":[false,false,false,true,false,false,false,false,false,false,false],"id":86,"leaf_child_counts":[0,0,0,0,0,0,0,0,0,0,0],"left_children":[1,3,5,7,9,-1,-1,-1,-1,-1,-1],"loss_changes":[1.602244E2,9.379954E1,1.8019644E2,9.4524506E1,5.408612E1,0E0,0E0,0E0,0E0,0E0,0E0],"parents":[2147483647,0,0,1,1,2,2,3,3,4,4],"right_children":[2,4,6,8,10,-1,-1,-1,-1,-1,-1],"split_conditions":[7.6054688E0,1.3903809E-1,-1.973877E-1,-1.8457031E-1,5.0039062E0,5.7407767E-1,-3.869065E0,6.847729E-3,-4.052203E-2,4.2541794E-2,1.1519232E0],"split_indices":[712,154,324,638,588,0,0,0,0,0,0],"sum_hessian":[2.0910451E4,2.0908438E4,2.0136719E0,1.7175242E4,3.7331953E3,1.0117188E0,1.0019531E0,1.1527059E4,5.6481836E3,3.7302344E3,2.9609375E0],"tree_param":{"num_deleted":"0","num_feature":"946","num_nodes":"11","size_leaf_vector":"0"}},{"base_weights":[2.4198943E-3,1.2338447E-3,2.5219326E0,-1.1628327E-4,3.206797E0,5.934111E-4,-7.347274E-1,1.7158664E0,-2.8051403E-1],"default_left":[false,true,false,false,true,false,false,false,false],"id":87,"leaf_child_counts":[0,0,0,0,0,0,0,0,0],"left_children":[1,3,-1,5,7,-1,-1,-1,-1],"loss_changes":[2.0818764E2,9.039139E1,0E0,1.0708558E2,9.686043E1,0E0,0E0,0E0,0E0],"parents":[2147483647,0,0,1,1,3,3,4,4],"right_children":[2,4,-1,6,8,-1,-1,-1,-1],"split_conditions":[3.8793945E-1,1.083374E-1,2.5219326E0,7.531738E-2,2.3769531E0,5.934111E-4,-7.347274E-1,1.7158664E0,-2.8051403E-1],"split_indices":[701,705,0,705,704,0,0,0,0],"sum_hessian":[2.0886502E4,2.0884555E4,1.9472656E0,2.0876762E4,7.7929688E0,2.0859922E4,1.6839844E1,4.6132812E0,3.1796875E0],"tree_param":{"num_deleted":"0","num_feature":"946","num_nodes":"9","size_leaf_vector":"0"}},{"base_weights":[5.4733845E-4,-1.8137597E-4,2.1181154E0,3.634671E-2,-1.1719227E-1,3.761306E-2,-1.5653081E-2,-3.3509508E-2,-9.811253E-1],"default_left":[false,false,false,false,true,false,false,false,false],"id":88,"leaf_child_counts":[0,0,0,0,0,0,0,0,0],"left_children":[1,3,-1,5,7,-1,-1,-1,-1],"loss_changes":[1.0748139E2,8.9294754E1,0E0,1.25487236E2,8.5737595E1,0E0,0E0,0E0,0E0],"parents":[2147483647,0,0,1,1,3,3,4,4],"right_children":[2,4,-1,6,8,-1,-1,-1,-1],"split_conditions":[1.934375E1,-8.660889E-2,2.1181154E0,6.767578E-1,1.7443848E-1,3.761306E-2,-1.5653081E-2,-3.3509508E-2,-9.811253E-1],"split_indices":[520,132,0,120,709,0,0,0,0],"sum_hessian":[2.0890809E4,2.0889652E4,1.15625E0,1.5920371E4,4.9692812E3,7.9372695E3,7.9831016E3,4.961672E3,7.609375E0],"tree_param":{"num_deleted":"0","num_feature":"946","num_nodes":"9","size_leaf_vector":"0"}},{"base_weights":[-1.3681804E-4,5.7652316E0,-9.805164E-4,3.0586998E0,-4.578035E-1,-4.5127813E-2,1.0726917E-1,4.0145934E-2,-2.4718827E-2,2.4735961E-2,1.4517693E-1],"default_left":[true,true,false,false,false,false,false,false,false,false,false],"id":89,"leaf_child_counts":[0,0,0,0,0,0,0,0,0,0,0],"left_children":[1,3,5,-1,-1,7,9,-1,-1,-1,-1],"loss_changes":[1.01810776E2,1.1448778E2,1.0001481E2,0E0,0E0,9.9150925E1,5.662776E1,0E0,0E0,0E0,0E0],"parents":[2147483647,0,0,1,1,2,2,5,5,6,6],"right_children":[2,4,6,-1,-1,8,10,-1,-1,-1,-1],"split_conditions":[-5.9296875E0,-1.116333E-1,8.7597656E-1,3.0586998E0,-4.578035E-1,-1.5507812E0,1.6601562E-1,4.0145934E-2,-2.4718827E-2,2.4735961E-2,1.4517693E-1],"split_indices":[523,294,36,0,0,905,4,0,0,0,0],"sum_hessian":[2.0928332E4,2.0625E0,2.092627E4,1.0351562E0,1.0273438E0,1.4864633E4,6.0616367E3,2.561711E3,1.2302922E4,5.6880938E3,3.7354297E2],"tree_param":{"num_deleted":"0","num_feature":"946","num_nodes":"11","size_leaf_vector":"0"}},{"base_weights":[-1.4950909E-3,-2.7360097E-3,2.971833E0,-4.09619E-2,1.03879765E-1,-8.26554E-3,-1.4307876E-1,2.9285839E-2,1.2027962E0],"default_left":[false,false,false,false,true,false,false,false,false],"id":90,"leaf_child_counts":[0,0,0,0,0,0,0,0,0],"left_children":[1,3,-1,5,7,-1,-1,-1,-1],"loss_changes":[2.5693695E2,8.516005E1,0E0,8.990954E1,1.3443869E2,0E0,0E0,0E0,0E0],"parents":[2147483647,0,0,1,1,3,3,4,4],"right_children":[2,4,-1,6,8,-1,-1,-1,-1],"split_conditions":[1.083374E-1,9.0185547E-1,2.971833E0,7.5E-1,3.6308594E0,-8.26554E-3,-1.4307876E-1,2.9285839E-2,1.2027962E0],"split_indices":[705,716,0,4,585,0,0,0,0],"sum_hessian":[2.089527E4,2.0893652E4,1.6171875E0,1.5379957E4,5.5136953E3,1.4922027E4,4.579297E2,5.5058945E3,7.8007812E0],"tree_param":{"num_deleted":"0","num_feature":"946","num_nodes":"9","size_leaf_vector":"0"}},{"base_weights":[-2.589371E-3,-3.465673E-3,2.391084E0,1.8770732E-2,-1.932627E-1,-6.2489253E-3,4.3296732E-2,-5.5612605E-2,-1.0366193E0],"default_left":[false,true,false,false,true,false,false,false,false],"id":91,"leaf_child_counts":[0,0,0,0,0,0,0,0,0],"left_children":[1,3,-1,5,7,-1,-1,-1,-1],"loss_changes":[1.45524E2,8.788785E1,0E0,9.2683075E1,5.5550568E1,0E0,0E0,0E0,0E0],"parents":[2147483647,0,0,1,1,3,3,4,4],"right_children":[2,4,-1,6,8,-1,-1,-1,-1],"split_conditions":[5.0039062E0,-1.3696289E-1,2.391084E0,1.2265625E0,7.531738E-2,-6.2489253E-3,4.3296732E-2,-5.5612605E-2,-1.0366193E0],"split_indices":[588,876,0,104,705,0,0,0,0],"sum_hessian":[2.0823941E4,2.0822652E4,1.2890625E0,1.8639742E4,2.1829102E3,1.4170906E4,4.468836E3,2.1786992E3,4.2109375E0],"tree_param":{"num_deleted":"0","num_feature":"946","num_nodes":"9","size_leaf_vector":"0"}},{"base_weights":[-2.850143E-3,-3.5875337E-3,2.134965E0,5.6387726E-3,-4.2935842E-1,-7.405196E-4,1.4511721E-1,-1.5197012E-1,1.1574803E-1],"default_left":[false,true,false,false,true,false,false,false,false],"id":92,"leaf_child_counts":[0,0,0,0,0,0,0,0,0],"left_children":[1,3,-1,5,7,-1,-1,-1,-1],"loss_changes":[1.0910466E2,8.161937E1,0E0,7.88258E1,2.7932037E1,0E0,0E0,0E0,0E0],"parents":[2147483647,0,0,1,1,3,3,4,4],"right_children":[2,4,-1,6,8,-1,-1,-1,-1],"split_conditions":[4.9179688E0,3.9882812E0,2.134965E0,2.8671875E0,-1.640625E-1,-7.405196E-4,1.4511721E-1,-1.5197012E-1,1.1574803E-1],"split_indices":[119,582,0,285,329,0,0,0,0],"sum_hessian":[2.0776852E4,2.07757E4,1.1523438E0,2.0336012E4,4.396875E2,1.999789E4,3.381211E2,4.019922E2,3.7695312E1],"tree_param":{"num_deleted":"0","num_feature":"946","num_nodes":"9","size_leaf_vector":"0"}},{"base_weights":[-3.681194E-3,-5.2950367E-2,7.545988E-2,-6.5176375E-2,4.4957966E-1,7.129372E-2,3.5615876E0,-1.069165E-1,-1.3832111E-2,2.2028575E-2,-1.377855E0,-1.2806477E-1,1.8815245E-1,-3.8029373E-1,5.899046E0],"default_left":[false,true,false,true,false,true,false,false,false,false,false,false,false,false,false],"id":93,"leaf_child_counts":[0,0,0,0,0,0,0,0,0,0,0,0,0,0,0],"left_children":[1,3,5,7,11,9,13,-1,-1,-1,-1,-1,-1,-1,-1],"loss_changes":[8.10389E1,7.872733E1,1.15563156E2,6.943048E1,4.7642315E1,7.9655106E1,7.634928E2,0E0,0E0,0E0,0E0,0E0,0E0,0E0,0E0],"parents":[2147483647,0,0,1,1,2,2,3,3,5,5,4,4,6,6],"right_children":[2,4,6,8,12,10,14,-1,-1,-1,-1,-1,-1,-1,-1],"split_conditions":[3.9379883E-1,1.8828125E0,3.6308594E0,-7.5634766E-1,-5.0683594E-1,5.0039062E0,8.1347656E-1,-1.069165E-1,-1.3832111E-2,2.2028575E-2,-1.377855E0,-1.2806477E-1,1.8815245E-1,-3.8029373E-1,5.899046E0],"split_indices":[228,80,585,43,679,588,116,0,0,0,0,0,0,0,0],"sum_hessian":[2.0781361E4,1.2808055E4,7.9733066E3,1.2504699E4,3.0335547E2,7.9648086E3,8.498047E0,7.674297E2,1.173727E4,7.9621484E3,2.6601562E0,5.0875E1,2.5248047E2,7.2460938E0,1.2519531E0],"tree_param":{"num_deleted":"0","num_feature":"946","num_nodes":"15","size_leaf_vector":"0"}},{"base_weights":[-1.12466235E-2,-1.1374963E-3,-1.9216088E0,-2.9460844E-3,6.974144E0,-2.0998626E0,2.6121094E0,-1.7391593E-4,-1.1719452E0,-4.887534E-1,6.5396557E0,-5.657496E-1,-2.992705E0],"default_left":[false,false,true,true,false,false,false,false,false,false,false,false,false],"id":94,"leaf_child_counts":[0,0,0,0,0,0,0,0,0,0,0,0,0],"left_children":[1,3,5,7,9,11,-1,-1,-1,-1,-1,-1,-1],"loss_changes":[4.0163275E2,2.6101572E2,2.2569006E2,1.9106201E2,7.195563E2,1.6403647E2,0E0,0E0,0E0,0E0,0E0,0E0,0E0],"parents":[2147483647,0,0,1,1,2,2,3,3,4,4,5,5],"right_children":[2,4,6,8,10,12,-1,-1,-1,-1,-1,-1,-1],"split_conditions":[5.3125E0,3.6308594E0,-3.1103516E-1,5.0039062E0,-2.758789E-1,1.3886719E0,2.6121094E0,-1.7391593E-4,-1.1719452E0,-4.887534E-1,6.5396557E0,-5.657496E-1,-2.992705E0],"split_indices":[587,585,586,588,459,226,0,0,0,0,0,0,0],"sum_hessian":[2.079607E4,2.0687598E4,1.0847266E2,2.0683234E4,4.3632812E0,1.0747266E2,1E0,2.0671703E4,1.153125E1,3.3242188E0,1.0390625E0,1.0583594E2,1.6367188E0],"tree_param":{"num_deleted":"0","num_feature":"946","num_nodes":"13","size_leaf_vector":"0"}},{"base_weights":[-7.2845016E-3,-6.3819153E-4,-1.5199304E0,-2.184935E-3,6.5455637E0,-1.7151215E0,4.46402E0,-1.2071633E-4,-1.1174232E0,-4.6451333E-1,-2.369775E0,6.164341E0,-7.798781E-1,-6.80447E-1,2.752E0],"default_left":[false,false,true,true,true,false,true,false,false,false,false,false,false,false,false],"id":95,"leaf_child_counts":[0,0,0,0,0,0,0,0,0,0,0,0,0,0,0],"left_children":[1,3,5,7,11,9,13,-1,-1,-1,-1,-1,-1,-1,-1],"loss_changes":[2.0886241E2,2.0945885E2,1.1380875E2,1.3723271E2,6.7917334E2,7.926871E1,1.20624405E2,0E0,0E0,0E0,0E0,0E0,0E0,0E0,0E0],"parents":[2147483647,0,0,1,1,2,2,3,3,5,5,4,4,6,6],"right_children":[2,4,6,8,12,10,14,-1,-1,-1,-1,-1,-1,-1,-1],"split_conditions":[5.3125E0,3.6308594E0,-3.1103516E-1,5.0039062E0,3.9160156E-1,4.9804688E-1,-6.0595703E-1,-1.2071633E-4,-1.1174232E0,-4.6451333E-1,-2.369775E0,6.164341E0,-7.798781E-1,-6.80447E-1,2.752E0],"split_indices":[587,585,586,588,2,625,51,0,0,0,0,0,0,0,0],"sum_hessian":[2.0774164E4,2.0684281E4,8.988281E1,2.0680395E4,3.8867188E0,8.7734375E1,2.1484375E0,2.0671496E4,8.8984375E0,8.664844E1,1.0859375E0,1.0429688E0,2.84375E0,1.0976562E0,1.0507812E0],"tree_param":{"num_deleted":"0","num_feature":"946","num_nodes":"15","size_leaf_vector":"0"}},{"base_weights":[-5.0022216E-3,4.624472E-3,-6.2793356E-1,3.2689318E-3,8.377804E0,-8.1197E-1,6.757689E-1,-1.263085E0,1.270563E-3,-4.4116774E-1,-1.641235E-1,-8.8957953E-1,4.703957E0,3.0142158E-1,-5.824181E-1],"default_left":[true,true,false,true,true,true,true,false,false,false,false,false,false,false,false],"id":96,"leaf_child_counts":[0,0,0,0,0,0,0,0,0,0,0,0,0,0,0],"left_children":[1,3,5,7,11,9,13,-1,-1,-1,-1,-1,-1,-1,-1],"loss_changes":[1.2448288E2,2.320035E2,7.634554E1,8.324104E1,3.2053806E2,4.75699E1,3.6066406E1,0E0,0E0,0E0,0E0,0E0,0E0,0E0,0E0],"parents":[2147483647,0,0,1,1,2,2,3,3,5,5,4,4,6,6],"right_children":[2,4,6,8,12,10,14,-1,-1,-1,-1,-1,-1,-1,-1],"split_conditions":[3.1660156E0,3.3320312E0,1.2412109E0,-5.9296875E0,-3.334961E-1,1.7285156E0,2.0527344E0,-1.263085E0,1.270563E-3,-4.4116774E-1,-1.641235E-1,-8.8957953E-1,4.703957E0,3.0142158E-1,-5.824181E-1],"split_indices":[589,585,45,523,1,586,68,0,0,0,0,0,0,0,0],"sum_hessian":[2.075684E4,2.0441926E4,3.1491406E2,2.0439617E4,2.3085938E0,2.7628906E2,3.8625E1,3.6875E0,2.043593E4,7.794531E1,1.9834375E2,1.1367188E0,1.171875E0,3.4859375E1,3.765625E0],"tree_param":{"num_deleted":"0","num_feature":"946","num_nodes":"15","size_leaf_vector":"0"}},{"base_weights":[-3.7056347E-3,4.333471E-3,-5.024165E-1,-4.2992253E-2,8.45174E-2,-5.293185E-1,2.2304597E0,-1.39917955E-2,1.7481391E0,-3.394826E-1,-1.3201025E-1,2.8182264E-2,-1.2667408E0,1.1006826E-1,9.586112E-1],"default_left":[true,false,true,false,false,true,false,false,false,false,false,false,false,false,false],"id":97,"leaf_child_counts":[0,0,0,0,0,0,0,0,0,0,0,0,0,0,0],"left_children":[1,3,5,7,11,9,13,-1,-1,-1,-1,-1,-1,-1,-1],"loss_changes":[8.31346E1,7.744529E1,2.5365517E1,2.7502786E2,3.0782825E2,1.7062775E1,4.9386196E0,0E0,0E0,0E0,0E0,0E0,0E0,0E0,0E0],"parents":[2147483647,0,0,1,1,2,2,3,3,5,5,4,4,6,6],"right_children":[2,4,6,8,12,10,14,-1,-1,-1,-1,-1,-1,-1,-1],"split_conditions":[-9.362793E-2,-4.326172E-1,4.3515625E0,3.6308594E0,7.531738E-2,-7.5E-1,-2.4975586E-1,-1.39917955E-2,1.7481391E0,-3.394826E-1,-1.3201025E-1,2.8182264E-2,-1.2667408E0,1.1006826E-1,9.586112E-1],"split_indices":[360,4,48,585,705,359,429,0,0,0,0,0,0,0,0],"sum_hessian":[2.0734469E4,2.0406512E4,3.2795703E2,1.2832844E4,7.573668E3,3.255586E2,2.3984375E0,1.2825867E4,6.9765625E0,4.0523438E1,2.8503516E2,7.5581094E3,1.5558594E1,1.2890625E0,1.109375E0],"tree_param":{"num_deleted":"0","num_feature":"946","num_nodes":"15","size_leaf_vector":"0"}},{"base_weights":[-2.503869E-3,1.2953387E-3,-1.1837881E0,1.3164415E-5,5.725441E0,-1.4105604E0,1.9632205E0,4.089283E-4,-1.2135289E0,-1.0606912E0,5.8117085E0,-4.6400014E-1,8.233227E-1],"default_left":[false,false,false,true,false,true,false,false,false,false,false,false,false],"id":98,"leaf_child_counts":[0,0,0,0,0,0,0,0,0,0,0,0,0],"left_children":[1,3,5,7,9,11,-1,-1,-1,-1,-1,-1,-1],"loss_changes":[9.353219E1,1.524721E2,1.2631727E2,1.1342768E2,6.56481E2,4.1416534E1,0E0,0E0,0E0,0E0,0E0,0E0,0E0],"parents":[2147483647,0,0,1,1,2,2,3,3,4,4,5,5],"right_children":[2,4,6,8,10,12,-1,-1,-1,-1,-1,-1,-1],"split_conditions":[5.3125E0,3.6308594E0,7.3876953E-1,5.0039062E0,-6.850586E-1,2.1191406E0,1.9632205E0,4.089283E-4,-1.2135289E0,-1.0606912E0,5.8117085E0,-4.6400014E-1,8.233227E-1],"split_indices":[587,585,28,588,339,79,0,0,0,0,0,0,0],"sum_hessian":[2.0839422E4,2.077361E4,6.58125E1,2.0769957E4,3.6523438E0,6.473047E1,1.0820312E0,2.0764027E4,5.9296875E0,2.6171875E0,1.0351562E0,6.3285156E1,1.4453125E0],"tree_param":{"num_deleted":"0","num_feature":"946","num_nodes":"13","size_leaf_vector":"0"}},{"base_weights":[-2.0247675E-3,4.4911034E-2,-8.40386E-2,4.2394936E-2,3.1361501E0,9.0693586E-2,-1.5463217E-1,-1.0095016E-3,5.4542348E-2,5.4085877E-2,-2.5677785E-2,3.740511E0,-7.747689E-2,-4.4285454E-2,-5.0553083E-1],"default_left":[true,false,true,false,true,false,false,false,false,false,false,false,false,false,false],"id":99,"leaf_child_counts":[0,0,0,0,0,0,0,0,0,0,0,0,0,0,0],"left_children":[1,3,5,7,11,9,13,-1,-1,-1,-1,-1,-1,-1,-1],"loss_changes":[8.018925E1,1.029182E2,9.3543045E1,8.4462524E1,3.441227E2,3.4485847E1,5.7728622E1,0E0,0E0,0E0,0E0,0E0,0E0,0E0,0E0],"parents":[2147483647,0,0,1,1,2,2,3,3,5,5,4,4,6,6],"right_children":[2,4,6,8,12,10,14,-1,-1,-1,-1,-1,-1,-1,-1],"split_conditions":[-8.5302734E-1,2.9316406E0,-2.2363281E-1,7.607422E-1,-2.5463867E-1,2.6123047E-1,2.2636719E0,-1.0095016E-3,5.4542348E-2,5.4085877E-2,-2.5677785E-2,3.740511E0,-7.747689E-2,-4.4285454E-2,-5.0553083E-1],"split_indices":[789,62,114,159,