{"learner":{"attributes":{"scikit_learn":"{\"n_estimators\": 500, \"objective\": \"binary:logistic\", \"max_depth\": 3, \"learning_rate\": null, \"verbosity\": null, \"booster\": null, \"tree_method\": \"gpu_hist\", \"gamma\": null, \"min_child_weight\": null, \"max_delta_step\": null, \"subsample\": null, \"colsample_bytree\": null, \"colsample_bylevel\": null, \"colsample_bynode\": null, \"reg_alpha\": null, \"reg_lambda\": null, \"scale_pos_weight\": null, \"base_score\": null, \"missing\": NaN, \"num_parallel_tree\": null, \"kwargs\": {\"single_precision_histogram\": true}, \"random_state\": 33, \"n_jobs\": -1, \"monotone_constraints\": null, \"interaction_constraints\": null, \"importance_type\": \"gain\", \"gpu_id\": null, \"validate_parameters\": null, \"classes_\": [0, 1], \"n_classes_\": 2, \"_le\": {\"classes_\": [0, 1]}, \"_features_count\": 946, \"n_features_in_\": 946, \"type\": \"XGBClassifier\"}"},"gradient_booster":{"model":{"gbtree_model_param":{"num_trees":"500","size_leaf_vector":"0"},"tree_info":[0,0,0,0,0,0,0,0,0,0,0,0,0,0,0,0,0,0,0,0,0,0,0,0,0,0,0,0,0,0,0,0,0,0,0,0,0,0,0,0,0,0,0,0,0,0,0,0,0,0,0,0,0,0,0,0,0,0,0,0,0,0,0,0,0,0,0,0,0,0,0,0,0,0,0,0,0,0,0,0,0,0,0,0,0,0,0,0,0,0,0,0,0,0,0,0,0,0,0,0,0,0,0,0,0,0,0,0,0,0,0,0,0,0,0,0,0,0,0,0,0,0,0,0,0,0,0,0,0,0,0,0,0,0,0,0,0,0,0,0,0,0,0,0,0,0,0,0,0,0,0,0,0,0,0,0,0,0,0,0,0,0,0,0,0,0,0,0,0,0,0,0,0,0,0,0,0,0,0,0,0,0,0,0,0,0,0,0,0,0,0,0,0,0,0,0,0,0,0,0,0,0,0,0,0,0,0,0,0,0,0,0,0,0,0,0,0,0,0,0,0,0,0,0,0,0,0,0,0,0,0,0,0,0,0,0,0,0,0,0,0,0,0,0,0,0,0,0,0,0,0,0,0,0,0,0,0,0,0,0,0,0,0,0,0,0,0,0,0,0,0,0,0,0,0,0,0,0,0,0,0,0,0,0,0,0,0,0,0,0,0,0,0,0,0,0,0,0,0,0,0,0,0,0,0,0,0,0,0,0,0,0,0,0,0,0,0,0,0,0,0,0,0,0,0,0,0,0,0,0,0,0,0,0,0,0,0,0,0,0,0,0,0,0,0,0,0,0,0,0,0,0,0,0,0,0,0,0,0,0,0,0,0,0,0,0,0,0,0,0,0,0,0,0,0,0,0,0,0,0,0,0,0,0,0,0,0,0,0,0,0,0,0,0,0,0,0,0,0,0,0,0,0,0,0,0,0,0,0,0,0,0,0,0,0,0,0,0,0,0,0,0,0,0,0,0,0,0,0,0,0,0,0,0,0,0,0,0,0,0,0,0,0,0,0,0,0,0,0,0,0,0,0,0,0,0,0,0,0,0,0,0,0,0,0,0,0,0,0,0,0,0,0,0,0,0,0,0,0,0,0,0,0,0,0,0,0,0,0,0,0,0,0,0,0,0,0,0,0,0],"trees":[{"base_weights":[-9.642502E-1,6.3471246E-1,-1.7159561E0,-4.7767195E-1,9.930184E-1,-1.8686367E0,-7.3292387E-1,-3.6265126E-1,1.2506538E-2,-5.686082E-1,-2.3471989E-1,4.3276414E-1,1.5363957E-1,-9.891398E-2,-4.4217202E-1],"default_left":[true,true,true,true,true,true,true,false,false,false,false,false,false,false,false],"id":0,"leaf_child_counts":[0,0,0,0,0,0,0,0,0,0,0,0,0,0,0],"left_children":[1,3,5,7,11,9,13,-1,-1,-1,-1,-1,-1,-1,-1],"loss_changes":[8.825664E4,9.359588E3,7.4950938E3,2.1727236E3,3.8386973E3,1.2534531E3,2.0061421E3,0E0,0E0,0E0,0E0,0E0,0E0,0E0,0E0],"parents":[2147483647,0,0,1,1,2,2,3,3,5,5,4,4,6,6],"right_children":[2,4,6,8,12,10,14,-1,-1,-1,-1,-1,-1,-1,-1],"split_conditions":[-4.326172E-1,-3.618164E-1,8.270264E-2,-3.289795E-2,-1.1035156E0,-1.3513184E-1,1.7700195E-1,-3.6265126E-1,1.2506538E-2,-5.686082E-1,-2.3471989E-1,4.3276414E-1,1.5363957E-1,-9.891398E-2,-4.4217202E-1],"split_indices":[4,14,14,54,4,40,4,0,0,0,0,0,0,0,0],"sum_hessian":[7.3426E4,2.34805E4,4.99455E4,5.7205E3,1.776E4,4.323025E4,6.71525E3,2.37525E3,3.34525E3,4.21915E4,1.03875E3,9.17825E3,8.58175E3,4.34975E3,2.3655E3],"tree_param":{"num_deleted":"0","num_feature":"946","num_nodes":"15","size_leaf_vector":"0"}},{"base_weights":[-7.214973E-1,-7.05666E-1,-3.2136447E2,3.755804E-1,-1.3330781E0,-1.6470818E2,2.0322582E-2,-9.951888E-3,3.165553E-1,-1.9522355E-1,-4.2816457E-1],"default_left":[false,true,true,false,true,false,false,false,false,false,false],"id":1,"leaf_child_counts":[0,0,0,0,0,0,0,0,0,0,0],"left_children":[1,3,5,7,9,-1,-1,-1,-1,-1,-1],"loss_changes":[3.5262962E5,4.7154887E4,2.5101534E5,7.0904644E3,2.8244219E3,0E0,0E0,0E0,0E0,0E0,0E0],"parents":[2147483647,0,0,1,1,2,2,3,3,4,4],"right_children":[2,4,6,8,10,-1,-1,-1,-1,-1,-1],"split_conditions":[3.1420898E-1,-2.9541016E-1,4.1015625E-1,5.107422E-1,-1.1757812E0,-1.6470818E2,2.0322582E-2,-9.951888E-3,3.165553E-1,-1.9522355E-1,-4.2816457E-1],"split_indices":[795,4,390,24,19,0,0,0,0,0,0],"sum_hessian":[6.951098E4,6.950855E4,2.4296875E0,2.552339E4,4.3985156E4,1.0078125E0,1.421875E0,1.59381875E4,9.585203E3,5.3335938E3,3.8651562E4],"tree_param":{"num_deleted":"0","num_feature":"946","num_nodes":"11","size_leaf_vector":"0"}},{"base_weights":[-5.747189E-1,-4.337515E2,-5.4772055E-1,-2.5357648E2,-6.370968E-2,5.093308E-1,-9.8979396E-1,2.4164487E-1,-3.1605896E-2,-3.3843288E-1,-1.5273853E-2],"default_left":[true,true,true,false,false,true,true,false,false,false,false],"id":2,"leaf_child_counts":[0,0,0,0,0,0,0,0,0,0,0],"left_children":[1,3,5,-1,-1,7,9,-1,-1,-1,-1],"loss_changes":[7.3448844E5,6.981004E5,2.9356246E4,0E0,0E0,3.372502E3,5.7523086E3,0E0,0E0,0E0,0E0],"parents":[2147483647,0,0,1,1,2,2,5,5,6,6],"right_children":[2,4,6,-1,-1,8,10,-1,-1,-1,-1],"split_conditions":[-5.6152344E-1,3.9511719E0,-6.220703E-1,-2.5357648E2,-6.370968E-2,-1.0722656E0,5.6640625E-1,2.4164487E-1,-3.1605896E-2,-3.3843288E-1,-1.5273853E-2],"split_indices":[155,355,4,0,0,19,124,0,0,0,0],"sum_hessian":[6.2822586E4,2.9140625E0,6.281967E4,1.0078125E0,1.90625E0,1.8524703E4,4.429497E4,1.25013125E4,6.0233906E3,3.860717E4,5.687797E3],"tree_param":{"num_deleted":"0","num_feature":"946","num_nodes":"11","size_leaf_vector":"0"}},{"base_weights":[-4.6093386E-1,2.8302998E1,-4.6581453E-1,1.7728662E-1,-1.0989146E0,5.584958E-3,4.0623698E-1,-3.5608515E-1,-1.6411555E-1],"default_left":[false,false,true,false,true,false,false,false,false],"id":3,"leaf_child_counts":[0,0,0,0,0,0,0,0,0],"left_children":[1,-1,3,5,7,-1,-1,-1,-1],"loss_changes":[2.5770957E4,0E0,2.2637277E4,5.1504434E3,1.3605547E3,0E0,0E0,0E0,0E0],"parents":[2147483647,0,0,2,2,3,3,4,4],"right_children":[2,-1,4,6,8,-1,-1,-1,-1],"split_conditions":[-5.6152344E-1,2.8302998E1,-8.111572E-2,1.5742188E0,-9.008789E-2,5.584958E-3,4.0623698E-1,-3.5608515E-1,-1.6411555E-1],"split_indices":[155,0,4,9,14,0,0,0,0],"sum_hessian":[5.5600086E4,1.8671875E0,5.559822E4,2.7581617E4,2.8016602E4,2.430557E4,3.2760469E3,2.4161148E4,3.8554531E3],"tree_param":{"num_deleted":"0","num_feature":"946","num_nodes":"9","size_leaf_vector":"0"}},{"base_weights":[-3.716361E-1,-3.7776494E-1,6.8943954E1,-8.754534E-1,2.5249705E-1,-8.0091536E-2,4.554379E1,-2.889068E-1,8.895861E-2,2.0357867E-1,-2.1236645E-2,-3.277972E-1,2.983871E-1],"default_left":[false,true,false,true,true,true,false,false,false,false,false,false,false],"id":4,"leaf_child_counts":[0,0,0,0,0,0,0,0,0,0,0,0,0],"left_children":[1,3,5,7,9,11,-1,-1,-1,-1,-1,-1,-1],"loss_changes":[2.1266072E4,1.5682021E4,2.5327322E4,2.8672676E3,3.038811E3,4.8020334E0,0E0,0E0,0E0,0E0,0E0,0E0,0E0],"parents":[2147483647,0,0,1,1,2,2,3,3,4,4,5,5],"right_children":[2,4,6,8,10,12,-1,-1,-1,-1,-1,-1,-1],"split_conditions":[8.1015625E0,-3.289795E-2,-6.123047E-1,-1.3513184E-1,-9.6484375E-1,-5.2368164E-2,4.554379E1,-2.889068E-1,8.895861E-2,2.0357867E-1,-2.1236645E-2,-3.277972E-1,2.983871E-1],"split_indices":[484,54,339,40,4,385,0,0,0,0,0,0,0],"sum_hessian":[4.9996355E4,4.999293E4,3.4257812E0,2.7934203E4,2.2058727E4,2.4140625E0,1.0117188E0,2.5992266E4,1.9419375E3,9.515703E3,1.2543023E4,1.234375E0,1.1796875E0],"tree_param":{"num_deleted":"0","num_feature":"946","num_nodes":"13","size_leaf_vector":"0"}},{"base_weights":[-3.0513424E-1,-3.2713476E-1,3.180304E2,-7.9128325E-1,2.235563E-1,1.4876851E2,-6.0885612E-2,-2.7363822E-1,6.9508195E-2,1.1568069E-2,2.585772E-1],"default_left":[false,false,true,true,false,false,false,false,false,false,false],"id":5,"leaf_child_counts":[0,0,0,0,0,0,0,0,0,0,0],"left_children":[1,3,5,7,9,-1,-1,-1,-1,-1,-1],"loss_changes":[3.159097E5,1.1525322E4,1.765411E5,3.0249453E3,2.435482E3,0E0,0E0,0E0,0E0,0E0,0E0],"parents":[2147483647,0,0,1,1,2,2,3,3,4,4],"right_children":[2,4,6,8,10,-1,-1,-1,-1,-1,-1],"split_conditions":[4.8164062E0,-2.6586914E-1,1.10625E1,4.9316406E-2,4.6923828E-1,1.4876851E2,-6.0885612E-2,-2.7363822E-1,6.9508195E-2,1.1568069E-2,2.585772E-1],"split_indices":[424,14,899,43,34,0,0,0,0,0,0],"sum_hessian":[4.5091242E4,4.5089125E4,2.1171875E0,2.446686E4,2.0622266E4,1E0,1.1171875E0,2.1882047E4,2.5848125E3,1.5989609E4,4.6326562E3],"tree_param":{"num_deleted":"0","num_feature":"946","num_nodes":"11","size_leaf_vector":"0"}},{"base_weights":[-2.5590605E-1,-2.4973139E-1,-3.292932E1,-2.457697E-1,-2.2591848E1,2.3901725E-2,-2.7743676E-1],"default_left":[false,true,false,true,false,false,false],"id":6,"leaf_child_counts":[0,0,0,0,0,0,0],"left_children":[1,3,-1,5,-1,-1,-1],"loss_changes":[2.7639564E4,1.2147744E4,0E0,9.041371E3,0E0,0E0,0E0],"parents":[2147483647,0,0,1,1,3,3],"right_children":[2,4,-1,6,-1,-1,-1],"split_conditions":[5.328125E0,4.8164062E0,-3.292932E1,1.8981934E-1,-2.2591848E1,2.3901725E-2,-2.7743676E-1],"split_indices":[587,424,0,4,0,0,0],"sum_hessian":[4.0915734E4,4.091443E4,1.3046875E0,4.0913273E4,1.15625E0,2.765811E4,1.3255164E4],"tree_param":{"num_deleted":"0","num_feature":"946","num_nodes":"7","size_leaf_vector":"0"}},{"base_weights":[-2.0214719E-1,-1.8743211E-1,-7.607126E1,-5.771635E-1,2.4434897E-1,-2.3718767E-1,-1.4866106E-2,-5.4211162E-2,1.4710578E-1],"default_left":[false,true,false,true,true,false,false,false,false],"id":7,"leaf_child_counts":[0,0,0,0,0,0,0,0,0],"left_children":[1,3,-1,5,7,-1,-1,-1,-1],"loss_changes":[1.4244247E5,6.4312227E3,0E0,2.262229E3,1.8959542E3,0E0,0E0,0E0,0E0],"parents":[2147483647,0,0,1,1,3,3,4,4],"right_children":[2,4,-1,6,8,-1,-1,-1,-1],"split_conditions":[3.0390625E0,-2.1606445E-1,-7.607126E1,3.4057617E-1,-6.097412E-2,-2.3718767E-1,-1.4866106E-2,-5.4211162E-2,1.4710578E-1],"split_indices":[745,25,0,59,23,0,0,0,0],"sum_hessian":[3.821708E4,3.821586E4,1.21875E0,2.0085805E4,1.8130055E4,1.4299836E4,5.7859688E3,6.646422E3,1.1483633E4],"tree_param":{"num_deleted":"0","num_feature":"946","num_nodes":"9","size_leaf_vector":"0"}},{"base_weights":[-1.5260997E-1,-1.5915072E-1,2.357842E1,5.945579E-2,-9.211989E-1,2.3023963E0,1.1735331E-2,1.0859877E0,-2.7958038E-1],"default_left":[true,true,false,true,false,false,false,false,false],"id":8,"leaf_child_counts":[0,0,0,0,0,0,0,0,0],"left_children":[1,3,-1,5,7,-1,-1,-1,-1],"loss_changes":[1.8411154E4,5.950429E3,0E0,4.2987217E3,3.9156445E2,0E0,0E0,0E0,0E0],"parents":[2147483647,0,0,1,1,3,3,4,4],"right_children":[2,4,-1,6,8,-1,-1,-1,-1],"split_conditions":[3.03125E0,3.232422E-1,2.357842E1,-5.6152344E-1,-4.7929688E0,2.3023963E0,1.1735331E-2,1.0859877E0,-2.7958038E-1],"split_indices":[740,4,0,155,169,0,0,0,0],"sum_hessian":[3.571992E4,3.5717953E4,1.96875E0,2.775646E4,7.961492E3,7.292969E1,2.7683531E4,1.7984375E1,7.943508E3],"tree_param":{"num_deleted":"0","num_feature":"946","num_nodes":"9","size_leaf_vector":"0"}},{"base_weights":[-1.1216694E-1,-1.2753846E-1,1.0016011E2,-1.3352002E-1,2.2042553E1,5.881262E-1,7.782442E1,-1.9756962E-1,3.290155E-2,9.471429E-1,1.9203773E1,2.8353658E-1,-8.2295716E-2],"default_left":[false,false,false,false,false,false,false,false,false,false,false,false,false],"id":9,"leaf_child_counts":[0,0,0,0,0,0,0,0,0,0,0,0,0],"left_children":[1,3,5,7,9,11,-1,-1,-1,-1,-1,-1,-1],"loss_changes":[5.2440824E4,4.5131357E3,8.254075E4,4.3417124E3,7.073917E3,1.5557679E0,0E0,0E0,0E0,0E0,0E0,0E0,0E0],"parents":[2147483647,0,0,1,1,2,2,3,3,4,4,5,5],"right_children":[2,4,6,8,10,12,-1,-1,-1,-1,-1,-1,-1],"split_conditions":[4.6210938E0,3.0488281E0,-5.621338E-2,-4.482422E-1,-2.763672E-1,-2.1191406E-1,7.782442E1,-1.9756962E-1,3.290155E-2,9.471429E-1,1.9203773E1,2.8353658E-1,-8.2295716E-2],"split_indices":[8,742,487,104,35,84,0,0,0,0,0,0,0],"sum_hessian":[3.4013668E4,3.4009453E4,4.2148438E0,3.4001273E4,8.1796875E0,3.2109375E0,1.0039062E0,1.0762844E4,2.323843E4,6.3828125E0,1.796875E0,2.203125E0,1.0078125E0],"tree_param":{"num_deleted":"0","num_feature":"946","num_nodes":"13","size_leaf_vector":"0"}},{"base_weights":[-9.788578E-2,-1.0684934E-1,3.7137043E1,-1.0369142E-1,-1.4638662E1,-1.3431057E-1,5.926371E-2],"default_left":[false,true,false,true,false,false,false],"id":10,"leaf_child_counts":[0,0,0,0,0,0,0],"left_children":[1,3,-1,5,-1,-1,-1],"loss_changes":[3.6034996E4,4.982252E3,0E0,3.3613513E3,0E0,0E0,0E0],"parents":[2147483647,0,0,1,1,3,3],"right_children":[2,4,-1,6,-1,-1,-1],"split_conditions":[1.2011719E0,4.6328125E0,3.7137043E1,-2.7929688E-1,-1.4638662E1,-1.3431057E-1,5.926371E-2],"split_indices":[704,8,0,29,0,0,0],"sum_hessian":[3.2437082E4,3.2435734E4,1.3476562E0,3.2434633E4,1.1015625E0,1.5142047E4,1.7292586E4],"tree_param":{"num_deleted":"0","num_feature":"946","num_nodes":"7","size_leaf_vector":"0"}},{"base_weights":[-9.37555E-2,-7.725769E-2,-1.6257579E2,-7.3465854E-2,-1.263967E1,-6.781626E1,-7.709398E0,3.658658E-2,-1.697725E-1],"default_left":[true,true,true,false,false,false,false,false,false],"id":11,"leaf_child_counts":[0,0,0,0,0,0,0,0,0],"left_children":[1,3,5,7,-1,-1,-1,-1,-1],"loss_changes":[8.436613E4,5.016145E3,2.1954242E4,3.0288828E3,0E0,0E0,0E0,0E0,0E0],"parents":[2147483647,0,0,1,1,2,2,3,3],"right_children":[2,4,6,8,-1,-1,-1,-1,-1],"split_conditions":[1.4931641E0,4.6210938E0,-2.7526855E-2,5.517578E-1,-1.263967E1,-6.781626E1,-7.709398E0,3.658658E-2,-1.697725E-1],"split_indices":[700,8,823,15,0,0,0,0,0],"sum_hessian":[3.1476572E4,3.1474377E4,2.1953125E0,3.1472541E4,1.8359375E0,1.0546875E0,1.140625E0,2.2531773E4,8.940768E3],"tree_param":{"num_deleted":"0","num_feature":"946","num_nodes":"9","size_leaf_vector":"0"}},{"base_weights":[-4.055503E-2,-5.8567286E-2,7.111491E1,-6.487237E-2,1.607068E1,-8.8349886E-2,1.016761E-1,3.858696E-2,2.649837E1],"default_left":[true,true,false,true,true,false,false,false,false],"id":12,"leaf_child_counts":[0,0,0,0,0,0,0,0,0],"left_children":[1,3,-1,5,7,-1,-1,-1,-1],"loss_changes":[1.3043878E5,3.1067822E3,0E0,2.830751E3,1.3739788E4,0E0,0E0,0E0,0E0],"parents":[2147483647,0,0,1,1,3,3,4,4],"right_children":[2,4,-1,6,8,-1,-1,-1,-1],"split_conditions":[9.135742E-1,3.0488281E0,7.111491E1,1.8896484E-1,1.640625E0,-8.8349886E-2,1.016761E-1,3.858696E-2,2.649837E1],"split_indices":[703,742,0,125,750,0,0,0,0],"sum_hessian":[3.053969E4,3.053837E4,1.3203125E0,3.0527432E4,1.09375E1,1.9460807E4,1.1066625E4,9.78125E0,1.15625E0],"tree_param":{"num_deleted":"0","num_feature":"946","num_nodes":"9","size_leaf_vector":"0"}},{"base_weights":[-5.8216523E-2,-4.1104916E-2,-7.0218956E1,-4.719937E-2,1.6082272E1,-4.31501E-2,2.4992424E-1,2.0967072E-1,2.5937864E1],"default_left":[true,true,false,false,true,false,false,false,false],"id":13,"leaf_child_counts":[0,0,0,0,0,0,0,0,0],"left_children":[1,3,-1,5,7,-1,-1,-1,-1],"loss_changes":[1.2022041E5,2.9510872E3,0E0,2.5533052E3,1.2224993E4,0E0,0E0,0E0,0E0],"parents":[2147483647,0,0,1,1,3,3,4,4],"right_children":[2,4,-1,6,8,-1,-1,-1,-1],"split_conditions":[5.449219E-1,3.0488281E0,-7.0218956E1,3.4492188E0,-2.8027344E-1,-4.31501E-2,2.4992424E-1,2.0967072E-1,2.5937864E1],"split_indices":[703,742,0,74,38,0,0,0,0],"sum_hessian":[3.0024979E4,3.0023783E4,1.1953125E0,3.0013436E4,1.0347656E1,2.7045324E4,2.9681113E3,9.3203125E0,1.0273438E0],"tree_param":{"num_deleted":"0","num_feature":"946","num_nodes":"9","size_leaf_vector":"0"}},{"base_weights":[-1.9338647E-2,-3.849539E-2,5.9891438E1,-3.276029E-2,-2.8255709E1,4.159454E0,-1.2041648E-2,6.8457574E-1,-2.6246307E1],"default_left":[true,true,false,true,false,false,false,false,false],"id":14,"leaf_child_counts":[0,0,0,0,0,0,0,0,0],"left_children":[1,3,-1,5,7,-1,-1,-1,-1],"loss_changes":[1.1274866E5,4.7689033E3,0E0,3.0224868E3,1.1031268E4,0E0,0E0,0E0,0E0],"parents":[2147483647,0,0,1,1,3,3,4,4],"right_children":[2,4,-1,6,8,-1,-1,-1,-1],"split_conditions":[5.449219E-1,3.03125E0,5.9891438E1,-5.6152344E-1,6.479492E-1,4.159454E0,-1.2041648E-2,6.8457574E-1,-2.6246307E1],"split_indices":[703,740,0,155,260,0,0,0,0],"sum_hessian":[2.9475406E4,2.9473578E4,1.828125E0,2.946859E4,4.9882812E0,1.4640625E1,2.945395E4,3.9257812E0,1.0625E0],"tree_param":{"num_deleted":"0","num_feature":"946","num_nodes":"9","size_leaf_vector":"0"}},{"base_weights":[-3.2210987E-2,-1.432892E-2,-6.3936573E1,-2.056932E-2,3.0582031E1,1.0791076E-1,-6.66929E-2,2.7021013E1,1.5915494E-1],"default_left":[false,true,false,true,false,false,false,false,false],"id":15,"leaf_child_counts":[0,0,0,0,0,0,0,0,0],"left_children":[1,3,-1,5,7,-1,-1,-1,-1],"loss_changes":[1.1210848E5,5.617969E3,0E0,2.2567166E3,1.0678445E4,0E0,0E0,0E0,0E0],"parents":[2147483647,0,0,1,1,3,3,4,4],"right_children":[2,4,-1,6,8,-1,-1,-1,-1],"split_conditions":[1.1650391E0,3.0390625E0,-6.3936573E1,-1.3203125E0,8.100586E-1,1.0791076E-1,-6.66929E-2,2.7021013E1,1.5915494E-1],"split_indices":[702,745,0,19,271,0,0,0,0],"sum_hessian":[2.9420863E4,2.9419395E4,1.46875E0,2.9414395E4,5E0,1.0195512E4,1.9218883E4,1.0078125E0,3.9921875E0],"tree_param":{"num_deleted":"0","num_feature":"946","num_nodes":"9","size_leaf_vector":"0"}},{"base_weights":[-2.6677454E-2,-4.6582222E-2,1.5908298E2,-1.5048589E-2,-3.403478E0,9.215268E0,7.2035614E1,6.340149E-2,-1.0324213E-1,-6.4004856E-1,-5.0180813E1],"default_left":[true,false,true,true,false,false,false,false,false,false,false],"id":16,"leaf_child_counts":[0,0,0,0,0,0,0,0,0,0,0],"left_children":[1,3,5,7,9,-1,-1,-1,-1,-1,-1],"loss_changes":[9.237497E4,3.0869602E3,3.057586E4,2.1526028E3,5.6121375E4,0E0,0E0,0E0,0E0,0E0,0E0],"parents":[2147483647,0,0,1,1,2,2,3,3,4,4],"right_children":[2,4,6,8,10,-1,-1,-1,-1,-1,-1],"split_conditions":[3.0908203E-1,3.0488281E0,-5.9387207E-2,-4.8535156E-1,-5.810547E-1,9.215268E0,7.2035614E1,6.340149E-2,-1.0324213E-1,-6.4004856E-1,-5.0180813E1],"split_indices":[704,742,385,63,338,0,0,0,0,0,0],"sum_hessian":[2.9164258E4,2.916161E4,2.6484375E0,2.8891219E4,2.7039062E2,1.5585938E0,1.0898438E0,1.7116734E4,1.1774484E4,2.693164E2,1.0742188E0],"tree_param":{"num_deleted":"0","num_feature":"946","num_nodes":"11","size_leaf_vector":"0"}},{"base_weights":[-3.0521128E-2,-1.8318448E-2,-1.1017303E2,8.3448865E-2,-7.951578E-1,2.2513564E-1,-5.2354664E1,-2.3547648E-2,1.3589104E-1,-2.6776075E-1,-5.460693E-2],"default_left":[true,false,true,false,true,false,false,false,false,false,false],"id":17,"leaf_child_counts":[0,0,0,0,0,0,0,0,0,0,0],"left_children":[1,3,5,7,9,-1,-1,-1,-1,-1,-1],"loss_changes":[3.8483457E4,2.263633E3,2.2768938E4,1.5149995E3,1.9785205E2,0E0,0E0,0E0,0E0,0E0,0E0],"parents":[2147483647,0,0,1,1,2,2,3,3,4,4],"right_children":[2,4,6,8,10,-1,-1,-1,-1,-1,-1],"split_conditions":[1.9030762E-1,5.136719E-1,-8.652344E-1,4.1503906E-1,-9.008789E-2,2.2513564E-1,-5.2354664E1,-2.3547648E-2,1.3589104E-1,-2.6776075E-1,-5.460693E-2],"split_indices":[700,4,4,56,36,0,0,0,0,0,0],"sum_hessian":[2.8633309E4,2.8631137E4,2.171875E0,2.5315637E4,3.3155E3,1.1601562E0,1.0117188E0,1.7602297E4,7.71334E3,2.860707E3,4.5479297E2],"tree_param":{"num_deleted":"0","num_feature":"946","num_nodes":"11","size_leaf_vector":"0"}},{"base_weights":[-2.3136712E-3,-1.5535582E-2,5.470222E1,1.8468533E1,-2.4088975E-2,3.5790466E1,-1.7630193E-1,-2.901827E-2,2.6049927E-1],"default_left":[true,true,false,true,true,false,false,false,false],"id":18,"leaf_child_counts":[0,0,0,0,0,0,0,0,0],"left_children":[1,3,-1,5,7,-1,-1,-1,-1],"loss_changes":[6.728213E4,4.412267E3,0E0,2.4873154E4,1.8082291E3,0E0,0E0,0E0,0E0],"parents":[2147483647,0,0,1,1,3,3,4,4],"right_children":[2,4,-1,6,8,-1,-1,-1,-1],"split_conditions":[8.81958E-2,-5.6103516E-1,5.470222E1,6.171875E-1,1.2714844E0,3.5790466E1,-1.7630193E-1,-2.901827E-2,2.6049927E-1],"split_indices":[703,155,0,63,9,0,0,0,0],"sum_hessian":[2.7905025E4,2.7904002E4,1.0234375E0,1.1908203E1,2.7892094E4,1.0566406E0,1.08515625E1,2.579352E4,2.0985742E3],"tree_param":{"num_deleted":"0","num_feature":"946","num_nodes":"9","size_leaf_vector":"0"}},{"base_weights":[-5.1420957E-2,-3.8058355E-2,-4.373833E1,-5.687881E1,-1.6916836E-2,-8.38033E1,-1.5287235E-1,-6.7715603E-3,1.6677727E1],"default_left":[true,false,false,true,false,false,false,false,false],"id":19,"leaf_child_counts":[0,0,0,0,0,0,0,0,0],"left_children":[1,3,-1,5,7,-1,-1,-1,-1],"loss_changes":[5.3688297E4,3.3128742E4,0E0,1.2839481E5,8.668053E3,0E0,0E0,0E0,0E0],"parents":[2147483647,0,0,1,1,3,3,4,4],"right_children":[2,4,-1,6,8,-1,-1,-1,-1],"split_conditions":[1.9030762E-1,-5.6103516E-1,-4.373833E1,7.1777344E-1,7.0039062E0,-8.38033E1,-1.5287235E-1,-6.7715603E-3,1.6677727E1],"split_indices":[700,155,0,64,404,0,0,0,0],"sum_hessian":[2.7569564E4,2.7568037E4,1.5273438E0,9.25E0,2.7558787E4,1.0703125E0,8.1796875E0,2.7556984E4,1.8027344E0],"tree_param":{"num_deleted":"0","num_feature":"946","num_nodes":"9","size_leaf_vector":"0"}},{"base_weights":[1.083578E-2,3.790337E1,9.771524E-5,3.6312645E1,-1.1048222E-2,4.649121E1,-1.4913295E-1,-5.46823E-3,5.6710567E0],"default_left":[true,false,false,true,false,false,false,false,false],"id":20,"leaf_child_counts":[0,0,0,0,0,0,0,0,0],"left_children":[1,-1,3,5,7,-1,-1,-1,-1],"loss_changes":[3.7285223E4,0E0,1.1123959E4,3.691307E4,3.731353E3,0E0,0E0,0E0,0E0],"parents":[2147483647,0,0,2,2,3,3,4,4],"right_children":[2,-1,4,6,8,-1,-1,-1,-1],"split_conditions":[-7.8466797E-1,3.790337E1,-5.6103516E-1,8.2958984E-1,1.9030762E-1,4.649121E1,-1.4913295E-1,-5.46823E-3,5.6710567E0],"split_indices":[711,0,155,63,700,0,0,0,0],"sum_hessian":[2.7483734E4,1.3359375E0,2.7482398E4,7.4335938E0,2.7474965E4,1E0,6.4335938E0,2.746554E4,9.425781E0],"tree_param":{"num_deleted":"0","num_feature":"946","num_nodes":"9","size_leaf_vector":"0"}},{"base_weights":[-1.8767722E-2,-8.201052E1,-4.898807E-3,-5.1729614E1,-5.3280044E0,-9.280932E-3,1.3607125E1,-3.1287766E0,2.9156253E-1,3.3263874E0,-5.348611E-3],"default_left":[false,false,false,false,false,false,false,false,false,false,false],"id":21,"leaf_child_counts":[0,0,0,0,0,0,0,0,0,0,0],"left_children":[1,3,5,-1,7,9,-1,-1,-1,-1,-1],"loss_changes":[3.1202562E4,3.1258213E4,5.454261E3,0E0,1.2399726E2,2.6025574E3,0E0,0E0,0E0,0E0,0E0],"parents":[2147483647,0,0,1,1,2,2,4,4,5,5],"right_children":[2,4,6,-1,8,10,-1,-1,-1,-1,-1],"split_conditions":[-6.5625E-1,1.7565918E-1,5.6289062E0,-5.1729614E1,8.8671875E-1,-5.6103516E-1,1.3607125E1,-3.1287766E0,2.9156253E-1,3.3263874E0,-5.348611E-3],"split_indices":[711,714,464,0,214,155,0,0,0,0,0],"sum_hessian":[2.7438943E4,3.640625E0,2.7435303E4,1.0976562E0,2.5429688E0,2.7433652E4,1.6503906E0,1.0429688E0,1.5E0,2.0117188E1,2.7413535E4],"tree_param":{"num_deleted":"0","num_feature":"946","num_nodes":"11","size_leaf_vector":"0"}},{"base_weights":[3.284207E-3,1.21998146E2,-1.0744828E-2,5.3424473E1,3.32367E0,4.5138233E1,-1.8738601E-2,3.3185085E1,-1.054995E-1,2.9782448E-2,-1.6414168E-1],"default_left":[false,true,true,false,false,true,false,false,false,false,false],"id":22,"leaf_child_counts":[0,0,0,0,0,0,0,0,0,0,0],"left_children":[1,3,5,-1,-1,7,9,-1,-1,-1,-1],"loss_changes":[4.7095355E4,1.7709832E4,9.931142E3,0E0,0E0,1.4548037E4,1.7155746E3,0E0,0E0,0E0,0E0],"parents":[2147483647,0,0,1,1,2,2,5,5,6,6],"right_children":[2,4,6,-1,-1,8,10,-1,-1,-1,-1],"split_conditions":[-6.5625E-1,5.5810547E-1,-6.772461E-1,5.3424473E1,3.32367E0,7.5E-1,7.788086E-1,3.3185085E1,-1.054995E-1,2.9782448E-2,-1.6414168E-1],"split_indices":[711,12,158,0,0,735,119,0,0,0,0],"sum_hessian":[2.7515719E4,2.1640625E0,2.7513555E4,1.0351562E0,1.1289062E0,3.8710938E0,2.7509684E4,1E0,2.8710938E0,2.2488004E4,5.0216797E3],"tree_param":{"num_deleted":"0","num_feature":"946","num_nodes":"11","size_leaf_vector":"0"}},{"base_weights":[-2.7276E-2,-5.0030704E1,-1.4660402E-2,-2.126997E1,-1.1636061E-2,1.5001721E1,-1.9607618E1,-3.8803577E-2,1.4595288E-1],"default_left":[false,false,false,true,false,false,false,false,false],"id":23,"leaf_child_counts":[0,0,0,0,0,0,0,0,0],"left_children":[1,-1,3,5,7,-1,-1,-1,-1],"loss_changes":[5.7130395E4,0E0,1.7456329E3,1.5408508E4,1.59241E3,0E0,0E0,0E0,0E0],"parents":[2147483647,0,0,2,2,3,3,4,4],"right_children":[2,-1,4,6,8,-1,-1,-1,-1],"split_conditions":[-6.5625E-1,-5.0030704E1,-6.772461E-1,-3.7158203E-1,-7.531738E-2,1.5001721E1,-1.9607618E1,-3.8803577E-2,1.4595288E-1],"split_indices":[711,0,158,157,624,0,0,0,0],"sum_hessian":[2.7159246E4,1.0546875E0,2.7158191E4,2.8632812E0,2.7155328E4,1.0429688E0,1.8203125E0,2.1965691E4,5.1896367E3],"tree_param":{"num_deleted":"0","num_feature":"946","num_nodes":"9","size_leaf_vector":"0"}},{"base_weights":[3.9623943E-3,7.805531E1,-1.1498922E-2,6.0183647E1,-1.3783659E0,8.540532E0,-1.4007375E-2,1.225791E0,-2.2054458E0,-4.3473586E-2,1.2463342E-1],"default_left":[false,true,true,false,true,false,false,false,false,false,false],"id":24,"leaf_child_counts":[0,0,0,0,0,0,0,0,0,0,0],"left_children":[1,3,5,-1,7,-1,9,-1,-1,-1,-1],"loss_changes":[3.2275021E4,5.1842344E4,1.910705E3,0E0,1.6735179E2,0E0,1.5032207E3,0E0,0E0,0E0,0E0],"parents":[2147483647,0,0,1,1,2,2,4,4,6,6],"right_children":[2,4,6,-1,8,-1,10,-1,-1,-1,-1],"split_conditions":[-5.239258E-1,-1.1289062E0,-1.48515625E1,6.0183647E1,-8.911133E-1,8.540532E0,4.753418E-1,1.225791E0,-2.2054458E0,-4.3473586E-2,1.2463342E-1],"split_indices":[711,713,453,0,272,0,45,0,0,0,0],"sum_hessian":[2.6743078E4,4.296875E0,2.6738781E4,1.0898438E0,3.2070312E0,1.3554688E0,2.6737426E4,1.8398438E0,1.3671875E0,2.049182E4,6.2456055E3],"tree_param":{"num_deleted":"0","num_feature":"946","num_nodes":"11","size_leaf_vector":"0"}},{"base_weights":[-2.2612663E-2,-9.854553E1,-1.0562508E-2,1.1150893E0,-4.7906796E1,-6.5332454E-1,7.078566E-2,-2.314531E-1,5.876043E-2,1.914301E-2,1.7012377E0],"default_left":[true,false,false,false,false,false,true,false,false,false,false],"id":25,"leaf_child_counts":[0,0,0,0,0,0,0,0,0,0,0],"left_children":[1,3,5,-1,-1,7,9,-1,-1,-1,-1],"loss_changes":[3.1399164E4,2.0817191E4,1.3828604E3,0E0,0E0,2.9834216E2,9.167031E2,0E0,0E0,0E0,0E0],"parents":[2147483647,0,0,1,1,2,2,5,5,6,6],"right_children":[2,4,6,-1,-1,8,10,-1,-1,-1,-1],"split_conditions":[-3.9233398E-1,-5.9570312E-2,-6.855469E-1,1.1150893E0,-4.7906796E1,-1.3452148E-1,3.0390625E0,-2.314531E-1,5.876043E-2,1.914301E-2,1.7012377E0],"split_indices":[713,385,100,0,0,42,745,0,0,0,0],"sum_hessian":[2.644759E4,2.234375E0,2.6445355E4,1.1875E0,1.046875E0,2.9701406E3,2.3475215E4,2.6073555E3,3.6278516E2,2.344702E4,2.8195312E1],"tree_param":{"num_deleted":"0","num_feature":"946","num_nodes":"11","size_leaf_vector":"0"}},{"base_weights":[-4.1811992E-3,2.6105957E0,-1.3545278E-2,-2.1122114E-1,2.2837946E-1,-1.5668837E0,-5.904095E-2,6.59826E-2,3.48916E0],"default_left":[true,false,false,false,false,false,false,false,false],"id":26,"leaf_child_counts":[0,0,0,0,0,0,0,0,0],"left_children":[1,-1,3,5,7,-1,-1,-1,-1],"loss_changes":[2.1274238E3,0E0,1.2466323E3,1.035587E3,1.1251575E3,0E0,0E0,0E0,0E0],"parents":[2147483647,0,0,2,2,3,3,4,4],"right_children":[2,-1,4,6,8,-1,-1,-1,-1],"split_conditions":[-5.6152344E-1,2.6105957E0,-3.5743713E-3,-6.723633E-1,3.0390625E0,-1.5668837E0,-5.904095E-2,6.59826E-2,3.48916E0],"split_indices":[155,0,56,158,745,0,0,0,0],"sum_hessian":[2.6092834E4,2.703711E1,2.6065797E4,1.434482E4,1.1720977E4,4.011328E1,1.4304707E4,1.1713328E4,7.6484375E0],"tree_param":{"num_deleted":"0","num_feature":"946","num_nodes":"9","size_leaf_vector":"0"}},{"base_weights":[-8.55747E-4,1.4311806E1,-1.0772052E-2,-7.9418154E0,-3.9912816E-3,-5.362551E0,7.6319236E-1,1.2103434E-1,-3.384258E-2],"default_left":[true,false,false,false,true,false,false,false,false],"id":27,"leaf_child_counts":[0,0,0,0,0,0,0,0,0],"left_children":[1,-1,3,5,7,-1,-1,-1,-1],"loss_changes":[1.2253536E4,0E0,1.3926385E3,2.3495862E3,1.1472614E3,0E0,0E0,0E0,0E0],"parents":[2147483647,0,0,2,2,3,3,4,4],"right_children":[2,-1,4,6,8,-1,-1,-1,-1],"split_conditions":[-5.6152344E-1,1.4311806E1,-6.723633E-1,-5.253906E-1,-1.9863281E0,-5.362551E0,7.6319236E-1,1.2103434E-1,-3.384258E-2],"split_indices":[155,0,158,159,719,0,0,0,0],"sum_hessian":[2.589975E4,4.3828125E0,2.5895367E4,2.1121094E1,2.5874246E4,1.0484375E1,1.0636719E1,5.453242E3,2.0421004E4],"tree_param":{"num_deleted":"0","num_feature":"946","num_nodes":"9","size_leaf_vector":"0"}},{"base_weights":[9.5523207E-4,5.5996146E-2,-8.3376133E-1,-3.8288258E-2,4.6105406E-1,-1.6601164E1,-7.936065E-1,1.9187944E-1,-2.8097374E-2,-9.745422E0,-1.18193716E-1,1.3626662E-1,4.0817113E0,-2.585532E-1,1.0426108E-1],"default_left":[false,false,true,false,false,true,false,false,false,false,false,false,false,false,false],"id":28,"leaf_child_counts":[0,0,0,0,0,0,0,0,0,0,0,0,0,0,0],"left_children":[1,3,5,7,11,9,13,-1,-1,-1,-1,-1,-1,-1,-1],"loss_changes":[1.179603E3,9.1990643E2,9.9242053E2,7.3346893E2,4.0225726E2,1.0128916E3,1.2374408E2,0E0,0E0,0E0,0E0,0E0,0E0,0E0,0E0],"parents":[2147483647,0,0,1,1,2,2,3,3,5,5,4,4,6,6],"right_children":[2,4,6,8,12,10,14,-1,-1,-1,-1,-1,-1,-1,-1],"split_conditions":[6.9873047E-1,2.7460938E0,-6.7089844E-1,-1.71875E0,3.0605469E0,-8.148193E-2,-5.6396484E-2,1.9187944E-1,-2.8097374E-2,-9.745422E0,-1.18193716E-1,1.3626662E-1,4.0817113E0,-2.585532E-1,1.0426108E-1],"split_indices":[4,809,158,4,747,181,255,0,0,0,0,0,0,0,0],"sum_hessian":[2.5673031E4,2.4085758E4,1.5872734E3,1.9538688E4,4.5470703E3,2.984375E0,1.5842891E3,1.4746094E3,1.8064078E4,1E0,1.984375E0,4.545742E3,1.328125E0,1.4951289E3,8.916016E1],"tree_param":{"num_deleted":"0","num_feature":"946","num_nodes":"15","size_leaf_vector":"0"}},{"base_weights":[1.5292463E-3,7.3868775E0,-5.1618984E-4,-1.5299647E-1,2.5307995E-1,-8.031005E-2,8.6251155E-2,7.3631905E-2,1.3845906E0],"default_left":[true,false,false,false,true,false,false,false,false],"id":29,"leaf_child_counts":[0,0,0,0,0,0,0,0,0],"left_children":[1,-1,3,5,7,-1,-1,-1,-1],"loss_changes":[1.2634436E3,0E0,9.7008044E2,7.9168427E2,3.1282788E2,0E0,0E0,0E0,0E0],"parents":[2147483647,0,0,2,2,3,3,4,4],"right_children":[2,-1,4,6,8,-1,-1,-1,-1],"split_conditions":[-6.125E0,7.3868775E0,2.0654297E-1,1.5029297E0,3.0488281E0,-8.031005E-2,8.6251155E-2,7.3631905E-2,1.3845906E0],"split_indices":[713,0,25,39,742,0,0,0,0],"sum_hessian":[2.508624E4,1.0839844E0,2.5085156E4,1.5666016E4,9.419141E3,1.242977E4,3.236246E3,9.403727E3,1.54140625E1],"tree_param":{"num_deleted":"0","num_feature":"946","num_nodes":"9","size_leaf_vector":"0"}},{"base_weights":[-1.5625837E-3,-1.7836239E1,7.055411E-4,-7.5264206E0,-6.079096E-1,-1.2189663E-3,5.9663696E0,2.3926428E-2,-1.22065306E-1],"default_left":[false,true,false,false,false,false,false,false,false],"id":30,"leaf_child_counts":[0,0,0,0,0,0,0,0,0],"left_children":[1,3,5,-1,-1,7,-1,-1,-1],"loss_changes":[9.978409E2,3.0878894E2,9.440397E2,0E0,0E0,8.1019775E2,0E0,0E0,0E0],"parents":[2147483647,0,0,1,1,2,2,5,5],"right_children":[2,4,6,-1,-1,8,-1,-1,-1],"split_conditions":[-4.21875E0,-1.6748047E-1,5.3242188E0,-7.5264206E0,-6.079096E-1,-1.7211914E-1,5.9663696E0,2.3926428E-2,-1.22065306E-1],"split_indices":[711,555,209,0,0,197,0,0,0],"sum_hessian":[2.4666414E4,2.1367188E0,2.4664277E4,1.0625E0,1.0742188E0,2.466289E4,1.3867188E0,2.0559809E4,4.103082E3],"tree_param":{"num_deleted":"0","num_feature":"946","num_nodes":"9","size_leaf_vector":"0"}},{"base_weights":[-8.444314E-4,1.5787544E1,-1.1751986E-2,-3.4923405E1,-5.2178525E-3,-1.4011022E1,-4.5033174E0,-3.4181967E-2,8.396203E-2],"default_left":[true,false,false,false,false,false,false,false,false],"id":31,"leaf_child_counts":[0,0,0,0,0,0,0,0,0],"left_children":[1,-1,3,5,7,-1,-1,-1,-1],"loss_changes":[1.4082987E4,0E0,5.5952563E3,3.7556006E2,7.602069E2,0E0,0E0,0E0,0E0],"parents":[2147483647,0,0,2,2,3,3,4,4],"right_children":[2,-1,4,6,8,-1,-1,-1,-1],"split_conditions":[-5.6152344E-1,1.5787544E1,-6.772461E-1,4.2993164E-1,8.6621094E-1,-1.4011022E1,-4.5033174E0,-3.4181967E-2,8.396203E-2],"split_indices":[155,0,158,2,59,0,0,0,0],"sum_hessian":[2.453185E4,4.0839844E0,2.4527766E4,3.5898438E0,2.4524176E4,1.4101562E0,2.1796875E0,1.7754098E4,6.770078E3],"tree_param":{"num_deleted":"0","num_feature":"946","num_nodes":"9","size_leaf_vector":"0"}},{"base_weights":[8.131036E-3,1.4164502E1,-1.1708473E-3,2.3492865E1,1.7863328E0,-6.491534E-2,4.5509088E-1,7.342779E-1,-1.6687869E-1,-2.7708305E-2,3.3678955E-1,2.2701554E0,1.3342334E-1],"default_left":[true,true,false,false,true,false,true,false,false,false,false,false,false],"id":32,"leaf_child_counts":[0,0,0,0,0,0,0,0,0,0,0,0,0],"left_children":[1,3,5,-1,7,9,11,-1,-1,-1,-1,-1,-1],"loss_changes":[3.2081606E3,1.2562534E4,7.081715E2,0E0,2.3720074E1,6.964282E2,2.1627051E2,0E0,0E0,0E0,0E0,0E0,0E0],"parents":[2147483647,0,0,1,1,2,2,4,4,5,5,6,6],"right_children":[2,4,6,-1,8,10,12,-1,-1,-1,-1,-1,-1],"split_conditions":[-6.723633E-1,-5.2441406E-1,1.3408203E0,2.3492865E1,-2.763672E-1,2.3046875E0,-5.6103516E-1,7.342779E-1,-1.6687869E-1,-2.7708305E-2,3.3678955E-1,2.2701554E0,1.3342334E-1],"split_indices":[158,159,129,0,878,9,155,0,0,0,0,0,0],"sum_hessian":[2.4362018E4,1.4998047E1,2.434702E4,1.5644531E0,1.3433594E1,2.1363215E4,2.9838047E3,1.0441406E1,2.9921875E0,2.088154E4,4.8167578E2,3.2734375E0,2.9805312E3],"tree_param":{"num_deleted":"0","num_feature":"946","num_nodes":"13","size_leaf_vector":"0"}},{"base_weights":[-1.3446306E-2,-5.1291077E1,-2.5378884E-4,-5.0049767E1,2.984258E0,-4.4408612E-2,6.1680585E-1,5.3610578E0,-1.4892057E0,3.3147275E-2,-6.838298E-2,1.8065022E-1,2.7951922E0],"default_left":[true,true,false,false,false,false,false,false,false,false,false,false,false],"id":33,"leaf_child_counts":[0,0,0,0,0,0,0,0,0,0,0,0,0],"left_children":[1,3,5,-1,7,9,11,-1,-1,-1,-1,-1,-1],"loss_changes":[1.6345484E4,3.947148E4,6.5822174E2,0E0,7.0525323E2,6.409687E2,1.9985687E2,0E0,0E0,0E0,0E0,0E0,0E0],"parents":[2147483647,0,0,1,1,2,2,4,4,5,5,6,6],"right_children":[2,4,6,-1,8,10,12,-1,-1,-1,-1,-1,-1],"split_conditions":[-6.723633E-1,1.0771484E0,2.7304688E0,-5.0049767E1,-3.720703E-1,-6.479492E-1,2.96875E0,5.3610578E0,-1.4892057E0,3.3147275E-2,-6.838298E-2,1.8065022E-1,2.7951922E0],"split_indices":[158,44,14,0,157,63,749,0,0,0,0,0,0],"sum_hessian":[2.416154E4,5.2148438E0,2.4156324E4,1.0039062E0,4.2109375E0,2.254407E4,1.6122539E3,1.03125E0,3.1796875E0,1.2225984E4,1.0318086E4,1.6106133E3,1.640625E0],"tree_param":{"num_deleted":"0","num_feature":"946","num_nodes":"13","size_leaf_vector":"0"}},{"base_weights":[8.372174E-3,3.484854E1,-2.6292743E-3,-5.816432E-2,4.6263826E-1,-3.7921395E-2,1.00308426E-1,7.911171E-2,2.1865061E-1],"default_left":[true,false,false,true,false,false,false,false,false],"id":34,"leaf_child_counts":[0,0,0,0,0,0,0,0,0],"left_children":[1,-1,3,5,7,-1,-1,-1,-1],"loss_changes":[3.0517139E4,0E0,6.170544E2,5.715098E2,1.346596E2,0E0,0E0,0E0,0E0],"parents":[2147483647,0,0,2,2,3,3,4,4],"right_children":[2,-1,4,6,8,-1,-1,-1,-1],"split_conditions":[-5.6152344E-1,3.484854E1,-7.147217E-2,7.470703E-1,-5.5029297E-1,-3.7921395E-2,1.00308426E-1,7.911171E-2,2.1865061E-1],"split_indices":[155,0,94,9,3,0,0,0,0],"sum_hessian":[2.3880277E4,1.2617188E0,2.3879016E4,2.1333492E4,2.5455234E3,1.817454E4,3.1589531E3,1.4579609E3,1.0875625E3],"tree_param":{"num_deleted":"0","num_feature":"946","num_nodes":"9","size_leaf_vector":"0"}},{"base_weights":[9.045962E-3,2.577836E1,6.4444385E-4,6.3959606E-2,-3.892262E-1,-1.3200661E-2,9.509765E-2,-1.680184E-1,-2.8081506E-2],"default_left":[true,false,false,false,false,false,false,false,false],"id":35,"leaf_child_counts":[0,0,0,0,0,0,0,0,0],"left_children":[1,-1,3,5,7,-1,-1,-1,-1],"loss_changes":[1.715916E4,0E0,5.86778E2,5.5865936E2,1.676695E2,0E0,0E0,0E0,0E0],"parents":[2147483647,0,0,2,2,3,3,4,4],"right_children":[2,-1,4,6,8,-1,-1,-1,-1],"split_conditions":[-6.723633E-1,2.577836E1,-5.267334E-2,2.3339844E-1,-4.0551758E-1,-1.3200661E-2,9.509765E-2,-1.680184E-1,-2.8081506E-2],"split_indices":[158,0,113,79,631,0,0,0,0],"sum_hessian":[2.3770215E4,1.3242188E0,2.376889E4,2.0448828E4,3.3200625E3,1.433382E4,6.115008E3,2.1035547E3,1.2165078E3],"tree_param":{"num_deleted":"0","num_feature":"946","num_nodes":"9","size_leaf_vector":"0"}},{"base_weights":[6.6826963E-3,2.8910381E1,2.6639167E-4,2.2700191E1,-8.605797E-1,-7.157296E-2,2.9263037E-1,1.4459364E0,-1.4403238E0,-4.142055E-2,8.105599E-2,6.102916E-2,1.8761294E-1],"default_left":[true,false,true,false,false,false,true,false,false,false,false,false,false],"id":36,"leaf_child_counts":[0,0,0,0,0,0,0,0,0,0,0,0,0],"left_children":[1,3,5,-1,7,9,11,-1,-1,-1,-1,-1,-1],"loss_changes":[4.3641E3,7.335047E3,4.9417844E2,0E0,1.1669616E2,4.2926797E2,1.376232E2,0E0,0E0,0E0,0E0,0E0,0E0],"parents":[2147483647,0,0,1,1,2,2,4,4,5,5,6,6],"right_children":[2,4,6,-1,8,10,12,-1,-1,-1,-1,-1,-1],"split_conditions":[-6.723633E-1,2.65625E-1,8.7597656E-1,2.2700191E1,-1.015625E0,1.4619141E0,-2.824707E-1,1.4459364E0,-1.4403238E0,-4.142055E-2,8.105599E-2,6.102916E-2,1.8761294E-1],"split_indices":[158,0,29,0,189,59,4,0,0,0,0,0,0],"sum_hessian":[2.3530902E4,4.2226562E0,2.352668E4,1.0429688E0,3.1796875E0,1.8886633E4,4.640047E3,1.2109375E0,1.96875E0,1.5810926E4,3.075707E3,3.6604062E3,9.796406E2],"tree_param":{"num_deleted":"0","num_feature":"946","num_nodes":"13","size_leaf_vector":"0"}},{"base_weights":[-2.781546E-3,4.3603994E-2,-4.342597E-1,1.7126375E-1,-9.460352E-2,-3.5761979E0,-4.208606E-1,-1.4620585E-2,8.744644E-2,-5.641141E-2,9.352557E-2,-4.7189876E-2,-2.531009E-1],"default_left":[false,false,false,false,true,false,true,false,false,false,false,false,false],"id":37,"leaf_child_counts":[0,0,0,0,0,0,0,0,0,0,0,0,0],"left_children":[1,3,5,7,9,-1,11,-1,-1,-1,-1,-1,-1],"loss_changes":[4.682332E2,3.727187E2,3.444929E2,2.904638E2,3.8518808E2,0E0,2.527486E2,0E0,0E0,0E0,0E0,0E0,0E0],"parents":[2147483647,0,0,1,1,2,2,3,3,4,4,6,6],"right_children":[2,4,6,8,10,-1,12,-1,-1,-1,-1,-1,-1],"split_conditions":[1.0986328E-1,-1.8127441E-1,-6.723633E-1,-3.803711E-1,1.8828125E0,-3.5761979E0,2.2277832E-1,-1.4620585E-2,8.744644E-2,-5.641141E-2,9.352557E-2,-4.7189876E-2,-2.531009E-1],"split_indices":[250,69,158,78,39,0,272,0,0,0,0,0,0],"sum_hessian":[2.339293E4,2.1123023E4,2.2699062E3,1.0980395E4,1.0142629E4,1.609375E0,2.2682969E3,3.8803398E3,7.1000547E3,8.246926E3,1.8957031E3,1.3981328E3,8.7016406E2],"tree_param":{"num_deleted":"0","num_feature":"946","num_nodes":"13","size_leaf_vector":"0"}},{"base_weights":[-3.2130093E-3,-5.2436884E-2,3.967175E-1,-1.18944556E-1,2.7606025E-1,3.7834433E-1,5.738871E0,-3.0234053E0,-3.4441203E-2,4.7635574E0,7.641199E-2,7.648457E-2,2.7317557E-1],"default_left":[true,true,false,true,false,true,false,false,false,false,false,false,false],"id":38,"leaf_child_counts":[0,0,0,0,0,0,0,0,0,0,0,0,0],"left_children":[1,3,5,7,9,11,-1,-1,-1,-1,-1,-1,-1],"loss_changes":[4.5413876E2,4.4879816E2,8.629164E2,7.0327783E2,1.1483152E3,1.657138E2,0E0,0E0,0E0,0E0,0E0,0E0,0E0],"parents":[2147483647,0,0,1,1,2,2,3,3,4,4,5,5],"right_children":[2,4,6,8,10,12,-1,-1,-1,-1,-1,-1,-1],"split_conditions":[9.185791E-2,4.169922E-1,3.0390625E0,-6.723633E-1,-5.6103516E-1,-2.9541016E-1,5.738871E0,-3.0234053E0,-3.4441203E-2,4.7635574E0,7.641199E-2,7.648457E-2,2.7317557E-1],"split_indices":[255,40,745,158,155,4,0,0,0,0,0,0,0],"sum_hessian":[2.3066916E4,2.0539732E4,2.5271836E3,1.7081951E4,3.4577812E3,2.5257266E3,1.4570312E0,6.0878906E0,1.7075863E4,3.7109375E0,3.4540703E3,2.0515664E3,4.7416016E2],"tree_param":{"num_deleted":"0","num_feature":"946","num_nodes":"13","size_leaf_vector":"0"}},{"base_weights":[-1.8493388E-3,1.4355461E1,-1.3200152E-2,-6.3543636E1,-4.2610024E-3,-3.22032E1,1.5748674E0,-1.39622465E-2,1.2514888E-1],"default_left":[true,false,true,true,true,false,false,false,false],"id":39,"leaf_child_counts":[0,0,0,0,0,0,0,0,0],"left_children":[1,-1,3,5,7,-1,-1,-1,-1],"loss_changes":[1.2445589E4,0E0,1.3008847E4,1.0273907E4,4.0813193E2,0E0,0E0,0E0,0E0],"parents":[2147483647,0,0,2,2,3,3,4,4],"right_children":[2,-1,4,6,8,-1,-1,-1,-1],"split_conditions":[-5.6152344E-1,1.4355461E1,-6.723633E-1,-5.229492E-1,-9.161377E-2,-3.22032E1,1.5748674E0,-1.39622465E-2,1.2514888E-1],"split_indices":[155,0,158,159,300,0,0,0,0],"sum_hessian":[2.2910516E4,4.4335938E0,2.2906082E4,2.2226562E0,2.290386E4,1.015625E0,1.2070312E0,2.0816328E4,2.0875312E3],"tree_param":{"num_deleted":"0","num_feature":"946","num_nodes":"9","size_leaf_vector":"0"}},{"base_weights":[9.086795E-3,2.7349997E1,-2.1912009E-3,-2.096296E0,6.3272305E-3,-5.590565E-1,-3.295109E0,3.807537E-3,-7.90838E-1],"default_left":[true,false,true,true,false,false,false,false,false],"id":40,"leaf_child_counts":[0,0,0,0,0,0,0,0,0],"left_children":[1,-1,3,5,7,-1,-1,-1,-1],"loss_changes":[2.3471316E4,0E0,4.0723636E2,1.7086755E2,3.82423E2,0E0,0E0,0E0,0E0],"parents":[2147483647,0,0,2,2,3,3,4,4],"right_children":[2,-1,4,6,8,-1,-1,-1,-1],"split_conditions":[-5.6152344E-1,2.7349997E1,-5.6103516E-1,1.05285645E-1,4.8125E0,-5.590565E-1,-3.295109E0,3.807537E-3,-7.90838E-1],"split_indices":[155,0,155,43,424,0,0,0,0],"sum_hessian":[2.2829168E4,1.8242188E0,2.2827344E4,9.148828E1,2.2735855E4,9.033203E1,1.15625E0,2.2682219E4,5.363672E1],"tree_param":{"num_deleted":"0","num_feature":"946","num_nodes":"9","size_leaf_vector":"0"}},{"base_weights":[6.1874273E-3,1.7895264E1,-1.5166694E-3,-5.949193E-2,2.9147232E-1,1.581508E-1,-2.8143205E-2,8.41028E-2,3.0412743E0],"default_left":[true,false,false,false,false,false,false,false,false],"id":41,"leaf_child_counts":[0,0,0,0,0,0,0,0,0],"left_children":[1,-1,3,5,7,-1,-1,-1,-1],"loss_changes":[1.049317E4,0E0,3.8786963E2,3.8384375E2,4.105083E2,0E0,0E0,0E0,0E0],"parents":[2147483647,0,0,2,2,3,3,4,4],"right_children":[2,-1,4,6,8,-1,-1,-1,-1],"split_conditions":[-5.6152344E-1,1.7895264E1,9.8876953E-1,-1.8105469E0,2.9589844E0,1.581508E-1,-2.8143205E-2,8.41028E-2,3.0412743E0],"split_indices":[155,0,56,4,744,0,0,0,0],"sum_hessian":[2.2834441E4,1.9492188E0,2.2832492E4,1.9061492E4,3.771E3,1.0526484E3,1.8008844E4,3.7677695E3,3.2304688E0],"tree_param":{"num_deleted":"0","num_feature":"946","num_nodes":"9","size_leaf_vector":"0"}},{"base_weights":[6.9213365E-3,2.5838202E1,-7.59243E-4,1.09029986E-1,-1.4723241E-1,-1.8575689E-2,6.079169E-2,-3.5187848E-2,-2.5265792E-1],"default_left":[true,false,false,true,true,false,false,false,false],"id":42,"leaf_child_counts":[0,0,0,0,0,0,0,0,0],"left_children":[1,-1,3,5,7,-1,-1,-1,-1],"loss_changes":[1.4979645E4,0E0,3.6418066E2,2.0714891E2,2.0177495E2,0E0,0E0,0E0,0E0],"parents":[2147483647,0,0,2,2,3,3,4,4],"right_children":[2,-1,4,6,8,-1,-1,-1,-1],"split_conditions":[-5.6152344E-1,2.5838202E1,1E0,-2.4609375E-1,9.0478516E-1,-1.8575689E-2,6.079169E-2,-3.5187848E-2,-2.5265792E-1],"split_indices":[155,0,937,215,2,0,0,0,0],"sum_hessian":[2.2645418E4,1.0195312E0,2.2644398E4,1.2943117E4,9.701281E3,4.5798047E3,8.3633125E3,9.301723E3,3.995586E2],"tree_param":{"num_deleted":"0","num_feature":"946","num_nodes":"9","size_leaf_vector":"0"}},{"base_weights":[-4.8320177E-3,-9.191324E0,3.5862227E-3,-2.816247E0,-1.9127432E1,-4.6168234E-2,3.178066E-1,-2.0465519E-1,-1.0999006E0,-4.1979376E-2,4.563443E-2,8.9430624E-1,9.048215E-2],"default_left":[true,false,true,false,false,true,true,false,false,false,false,false,false],"id":43,"leaf_child_counts":[0,0,0,0,0,0,0,0,0,0,0,0,0],"left_children":[1,3,5,7,-1,9,11,-1,-1,-1,-1,-1,-1],"loss_changes":[1.7453074E3,7.008117E3,3.5253195E2,3.29597E1,0E0,3.6194214E2,1.3208466E2,0E0,0E0,0E0,0E0,0E0,0E0],"parents":[2147483647,0,0,1,1,2,2,3,3,5,5,6,6],"right_children":[2,4,6,8,-1,10,12,-1,-1,-1,-1,-1,-1],"split_conditions":[-6.772461E-1,-1.6247559E-1,9.4921875E-1,-2.2106934E-1,-1.9127432E1,6.738281E-1,-3.4118652E-2,-2.0465519E-1,-1.0999006E0,-4.1979376E-2,4.563443E-2,8.9430624E-1,9.048215E-2],"split_indices":[158,44,49,200,0,14,713,0,0,0,0,0,0],"sum_hessian":[2.2566979E4,1.966211E1,2.2547316E4,1.8546875E1,1.1152344E0,1.946589E4,3.0814258E3,5.796875E0,1.275E1,1.3216457E4,6.2494336E3,1.7523438E1,3.0639023E3],"tree_param":{"num_deleted":"0","num_feature":"946","num_nodes":"13","size_leaf_vector":"0"}},{"base_weights":[2.8584616E-3,2.670538E1,-2.5401674E-3,1.8920576E1,-3.1632538E0,-1.7528642E-2,1.0678983E0,4.4252414E-1,-2.1625733E0,-4.314228E-3,-3.2937963E0,3.0066577E-1,2.5570886E0],"default_left":[true,true,true,false,false,false,false,false,false,false,false,false,false],"id":44,"leaf_child_counts":[0,0,0,0,0,0,0,0,0,0,0,0,0],"left_children":[1,3,5,-1,7,9,11,-1,-1,-1,-1,-1,-1],"loss_changes":[3.223189E3,5.108253E3,3.5868585E2,0E0,7.505968E1,7.606113E2,1.4262857E2,0E0,0E0,0E0,0E0,0E0,0E0],"parents":[2147483647,0,0,1,1,2,2,4,4,5,5,6,6],"right_children":[2,4,6,-1,8,10,12,-1,-1,-1,-1,-1,-1],"split_conditions":[-5.6152344E-1,-1.5991211E-1,3.0195312E0,1.8920576E1,-4.3725586E-1,4.6445312E0,2.5449219E0,4.4252414E-1,-2.1625733E0,-4.314228E-3,-3.2937963E0,3.0066577E-1,2.5570886E0],"split_indices":[155,240,9,0,282,6,748,0,0,0,0,0,0],"sum_hessian":[2.2357406E4,3.5195312E0,2.2353887E4,1.0859375E0,2.4335938E0,2.2046176E4,3.0771094E2,1.4296875E0,1.0039062E0,2.2040848E4,5.328125E0,3.0614844E2,1.5625E0],"tree_param":{"num_deleted":"0","num_feature":"946","num_nodes":"13","size_leaf_vector":"0"}},{"base_weights":[-5.5558993E-3,-1.6549494E1,-3.4420716E-4,-2.312996E-1,6.416857E-2,-9.796967E-3,-1.16256304E-1,-5.035799E-3,7.9317614E-2],"default_left":[true,false,true,true,false,false,false,false,false],"id":45,"leaf_child_counts":[0,0,0,0,0,0,0,0,0],"left_children":[1,-1,3,5,7,-1,-1,-1,-1],"loss_changes":[6.412567E3,0E0,3.3235822E2,1.5112808E2,2.8262674E2,0E0,0E0,0E0,0E0],"parents":[2147483647,0,0,2,2,3,3,4,4],"right_children":[2,-1,4,6,8,-1,-1,-1,-1],"split_conditions":[-5.625E-1,-1.6549494E1,-5.288086E-1,-1.4770508E-1,2.7807617E-1,-9.796967E-3,-1.16256304E-1,-5.035799E-3,7.9317614E-2],"split_indices":[155,0,330,635,629,0,0,0,0],"sum_hessian":[2.230567E4,1.1074219E0,2.2304562E4,4.8694336E3,1.7435129E4,2.1441953E3,2.7252383E3,1.2415996E4,5.019133E3],"tree_param":{"num_deleted":"0","num_feature":"946","num_nodes":"9","size_leaf_vector":"0"}},{"base_weights":[1.8484076E-3,1.3855107E1,-1.7186868E-4,8.073871E0,-1.2453427E0,-2.3979401E-2,5.591631E-1,-6.4592273E-3,-1.8526145E0,1.5379982E-1,5.2767687E0],"default_left":[true,true,false,false,false,false,false,false,false,false,false],"id":46,"leaf_child_counts":[0,0,0,0,0,0,0,0,0,0,0],"left_children":[1,3,5,-1,-1,7,9,-1,-1,-1,-1],"loss_changes":[6.1930884E2,8.7035474E2,2.9464926E2,0E0,0E0,3.1954733E2,7.0630286E2,0E0,0E0,0E0,0E0],"parents":[2147483647,0,0,1,1,2,2,5,5,6,6],"right_children":[2,4,6,-1,-1,8,10,-1,-1,-1,-1],"split_conditions":[-4.7734375E0,1.4414062E0,4.3046875E0,8.073871E0,-1.2453427E0,4.6445312E0,2.7871094E0,-6.4592273E-3,-1.8526145E0,1.5379982E-1,5.2767687E0],"split_indices":[710,297,174,0,0,6,740,0,0,0,0],"sum_hessian":[2.212704E4,2.2265625E0,2.2124812E4,1.0039062E0,1.2226562E0,2.1222457E4,9.0235547E2,2.1215016E4,7.4414062E0,9.009258E2,1.4296875E0],"tree_param":{"num_deleted":"0","num_feature":"946","num_nodes":"11","size_leaf_vector":"0"}},{"base_weights":[-1.4520412E-3,-2.7874876E1,2.7048814E-3,-1.4355596E1,6.190722E-1,-8.264986E0,4.2458447E-3,-5.0875006E0,2.4273073E-2,8.0229294E-1,-1.3828021E-4],"default_left":[true,true,false,false,false,false,true,false,false,false,false],"id":47,"leaf_child_counts":[0,0,0,0,0,0,0,0,0,0,0],"left_children":[1,3,5,-1,-1,7,9,-1,-1,-1,-1],"loss_changes":[2.55271E3,2.0635444E3,2.8068042E2,0E0,0E0,2.9923932E2,2.7680084E2,0E0,0E0,0E0,0E0],"parents":[2147483647,0,0,1,1,2,2,5,5,6,6],"right_children":[2,4,6,-1,-1,8,10,-1,-1,-1,-1],"split_conditions":[-2.3867188E0,1.2128906E0,-1.47109375E1,-1.4355596E1,6.190722E-1,-1.8936157E-2,-3.9233398E-1,-5.0875006E0,2.4273073E-2,8.0229294E-1,-1.3828021E-4],"split_indices":[711,31,453,0,0,276,713,0,0,0,0],"sum_hessian":[2.2029602E4,2.2851562E0,2.2027316E4,1.0117188E0,1.2734375E0,3.1054688E0,2.202421E4,1.015625E0,2.0898438E0,3.7757812E1,2.1986453E4],"tree_param":{"num_deleted":"0","num_feature":"946","num_nodes":"11","size_leaf_vector":"0"}},{"base_weights":[9.126252E-3,1.9135391E1,2.427034E-3,1.1472926E1,6.6019164E-4,-1.0365201E0,5.872962E0,-4.8946373E-2,2.27292E-2],"default_left":[true,false,false,false,true,false,false,false,false],"id":48,"leaf_child_counts":[0,0,0,0,0,0,0,0,0],"left_children":[1,-1,3,5,7,-1,-1,-1,-1],"loss_changes":[9.406655E3,0E0,4.461812E2,4.7780453E2,2.708483E2,0E0,0E0,0E0,0E0],"parents":[2147483647,0,0,2,2,3,3,4,4],"right_children":[2,-1,4,6,8,-1,-1,-1,-1],"split_conditions":[-4.4570312E0,1.9135391E1,-2.3203125E0,6.845703E-1,-8.874512E-2,-1.0365201E0,5.872962E0,-4.8946373E-2,2.27292E-2],"split_indices":[714,0,711,124,79,0,0,0,0],"sum_hessian":[2.2016316E4,1.3125E0,2.2015004E4,2.390625E0,2.2012613E4,1.0429688E0,1.3476562E0,6.9192734E3,1.509334E4],"tree_param":{"num_deleted":"0","num_feature":"946","num_nodes":"9","size_leaf_vector":"0"}},{"base_weights":[-4.1344706E-3,-2.443623E1,2.9255298E-3,-1.5583678E1,-8.895246E0,8.093327E0,1.20539094E-4,-1.4007354E-1,-5.3208466E0,1.1143354E-2,-9.5751174E-2],"default_left":[false,false,true,false,true,false,false,false,false,false,false],"id":49,"leaf_child_counts":[0,0,0,0,0,0,0,0,0,0,0],"left_children":[1,3,5,-1,7,-1,9,-1,-1,-1,-1],"loss_changes":[3.7855188E3,2.2483572E3,1.6601045E3,0E0,3.835001E2,0E0,2.5936444E2,0E0,0E0,0E0,0E0],"parents":[2147483647,0,0,1,1,2,2,4,4,6,6],"right_children":[2,4,6,-1,8,-1,10,-1,-1,-1,-1],"split_conditions":[-4.4570312E0,1.9030762E-1,-2.4238281E0,-1.5583678E1,5.191803E-3,8.093327E0,3E0,-1.4007354E-1,-5.3208466E0,1.1143354E-2,-9.5751174E-2],"split_indices":[714,700,713,0,101,0,921,0,0,0,0],"sum_hessian":[2.194482E4,5.3398438E0,2.193948E4,1.0820312E0,4.2578125E0,1.28125E0,2.19382E4,2.71875E0,1.5390625E0,1.9659438E4,2.2787617E3],"tree_param":{"num_deleted":"0","num_feature":"946","num_nodes":"11","size_leaf_vector":"0"}},{"base_weights":[-3.2898444E-3,-1.2087709E1,-2.6746097E-4,3.781703E0,-1.1409791E1,4.422619E0,-3.2473742E-3,2.7446752E0,-3.3256826E-1,-1.3717277E-1,9.175335E0,4.7046825E-4,-7.816704E-1],"default_left":[true,false,false,true,false,false,false,false,false,false,false,false,false],"id":50,"leaf_child_counts":[0,0,0,0,0,0,0,0,0,0,0,0,0],"left_children":[1,3,5,7,-1,9,11,-1,-1,-1,-1,-1,-1],"loss_changes":[8.0110126E2,2.4019138E3,2.890387E2,1.2333273E2,0E0,1.8990544E3,2.7464395E2,0E0,0E0,0E0,0E0,0E0,0E0],"parents":[2147483647,0,0,1,1,2,2,3,3,5,5,6,6],"right_children":[2,4,6,8,-1,10,12,-1,-1,-1,-1,-1,-1],"split_conditions":[-1.7558594E0,-1.0722656E0,-3.9233398E-1,-1.499176E-2,-1.1409791E1,-9.243164E-1,9.135742E-1,2.7446752E0,-3.3256826E-1,-1.3717277E-1,9.175335E0,4.7046825E-4,-7.816704E-1],"split_indices":[711,19,713,387,0,711,703,0,0,0,0,0,0],"sum_hessian":[2.1932793E4,4.484375E0,2.1928309E4,3.3125E0,1.171875E0,1.3765625E1,2.1914543E4,1.1640625E0,2.1484375E0,1.24296875E1,1.3359375E0,2.1875062E4,3.948047E1],"tree_param":{"num_deleted":"0","num_feature":"946","num_nodes":"13","size_leaf_vector":"0"}},{"base_weights":[7.831425E-3,2.1226654E1,-1.7154263E-4,-3.5085756E-2,3.292429E-1,-2.826039E-2,6.3307606E-2,2.5030116E-2,1.6541092E-1],"default_left":[true,false,false,true,false,false,false,false,false],"id":51,"leaf_child_counts":[0,0,0,0,0,0,0,0,0],"left_children":[1,-1,3,5,7,-1,-1,-1,-1],"loss_changes":[1.2416732E4,0E0,2.5221973E2,2.8850018E2,1.1470125E2,0E0,0E0,0E0,0E0],"parents":[2147483647,0,0,2,2,3,3,4,4],"right_children":[2,-1,4,6,8,-1,-1,-1,-1],"split_conditions":[-1.9697266E0,2.1226654E1,9.887695E-2,6.4208984E-1,-9.897461E-1,-2.826039E-2,6.3307606E-2,2.5030116E-2,1.6541092E-1],"split_indices":[713,0,94,8,272,0,0,0,0],"sum_hessian":[2.192925E4,1.4804688E0,2.192777E4,1.9827203E4,2.1005664E3,1.5987617E4,3.839586E3,9.9778125E2,1.1027852E3],"tree_param":{"num_deleted":"0","num_feature":"946","num_nodes":"9","size_leaf_vector":"0"}},{"base_weights":[-1.3981848E-2,-4.03173E1,-1.8466353E-4,7.3793216E0,-2.2487126E-3,-4.03599E-2,5.3841014E0,2.3681974E-2,-4.529351E-2],"default_left":[true,false,true,false,true,false,false,false,false],"id":52,"leaf_child_counts":[0,0,0,0,0,0,0,0,0],"left_children":[1,-1,3,5,7,-1,-1,-1,-1],"loss_changes":[4.045647E4,0E0,3.3236642E2,4.8690314E2,2.6342615E2,0E0,0E0,0E0,0E0],"parents":[2147483647,0,0,2,2,3,3,4,4],"right_children":[2,-1,4,6,8,-1,-1,-1,-1],"split_conditions":[-1.4990234E0,-4.03173E1,-3.9233398E-1,-7.69043E-2,5.083008E-1,-4.03599E-2,5.3841014E0,2.3681974E-2,-4.529351E-2],"split_indices":[710,0,713,714,785,0,0,0,0],"sum_hessian":[2.1819908E4,1.2402344E0,2.1818668E4,5.1015625E0,2.1813566E4,3.5585938E0,1.5429688E0,1.4111074E4,7.702492E3],"tree_param":{"num_deleted":"0","num_feature":"946","num_nodes":"9","size_leaf_vector":"0"}},{"base_weights":[1.6718622E-2,3.6548492E1,7.9678354E-4,5.0114574E0,-1.245718E-3,1.2371203E0,-1.1858611E-3],"default_left":[false,false,true,false,true,false,false],"id":53,"leaf_child_counts":[0,0,0,0,0,0,0],"left_children":[1,-1,3,-1,5,-1,-1],"loss_changes":[4.2201254E4,0E0,7.423426E2,0E0,2.4296194E2,0E0,0E0],"parents":[2147483647,0,0,2,2,4,4],"right_children":[2,-1,4,-1,6,-1,-1],"split_conditions":[-1.4990234E0,3.6548492E1,-2.6367188E-1,5.0114574E0,-5.6152344E-1,1.2371203E0,-1.1858611E-3],"split_indices":[710,0,483,0,155,0,0],"sum_hessian":[2.1758281E4,1.84375E0,2.1756438E4,1.6601562E0,2.1754777E4,1.3269531E1,2.1741508E4],"tree_param":{"num_deleted":"0","num_feature":"946","num_nodes":"7","size_leaf_vector":"0"}},{"base_weights":[-1.3853512E-2,-3.2151062E1,-3.310816E-3,9.3620205E0,-5.1082564E-3,5.080885E0,1.7328948E-1,-1.9764577E0,-8.08432E-4],"default_left":[true,false,false,false,true,false,false,false,false],"id":54,"leaf_child_counts":[0,0,0,0,0,0,0,0,0],"left_children":[1,-1,3,5,7,-1,-1,-1,-1],"loss_changes":[2.4582105E4,0E0,3.6632568E2,2.6805386E2,3.456376E2,0E0,0E0,0E0,0E0],"parents":[2147483647,0,0,2,2,3,3,4,4],"right_children":[2,-1,4,6,8,-1,-1,-1,-1],"split_conditions":[-8.9160156E-1,-3.2151062E1,-2.1984863E-1,-2.0092773E-1,-6.772461E-1,5.080885E0,1.7328948E-1,-1.9764577E0,-8.08432E-4],"split_indices":[710,0,713,375,158,0,0,0,0],"sum_hessian":[2.1758844E4,1.140625E0,2.1757703E4,3.1757812E0,2.1754527E4,1.2070312E0,1.96875E0,6.9726562E0,2.1747555E4],"tree_param":{"num_deleted":"0","num_feature":"946","num_nodes":"9","size_leaf_vector":"0"}},{"base_weights":[1.6108923E-2,6.3428616E1,-2.9627825E-3,2.566427E1,3.5604435E1,3.7759743E0,-4.310755E-3,1.2143149E1,2.8288383E0,-1.5436798E0,-5.277045E-4],"default_left":[false,true,true,true,false,false,false,false,false,false,false],"id":55,"leaf_child_counts":[0,0,0,0,0,0,0,0,0,0,0],"left_children":[1,3,5,7,-1,-1,9,-1,-1,-1,-1],"loss_changes":[2.6302434E4,1.0598447E4,3.690394E2,8.5925977E2,0E0,0E0,2.852239E2,0E0,0E0,0E0,0E0],"parents":[2147483647,0,0,1,1,2,2,3,3,6,6],"right_children":[2,4,6,8,-1,-1,10,-1,-1,-1,-1],"split_conditions":[-3.9233398E-1,-1.0722656E0,-2.915039E-1,1.5673828E-1,3.5604435E1,3.7759743E0,-2.6367188E-1,1.2143149E1,2.8288383E0,-1.5436798E0,-5.277045E-4],"split_indices":[713,19,543,30,0,0,483,0,0,0,0],"sum_hessian":[2.1747453E4,5.5390625E0,2.1741914E4,4.1601562E0,1.3789062E0,1.328125E0,2.1740586E4,1.3945312E0,2.765625E0,9.785156E0,2.17308E4],"tree_param":{"num_deleted":"0","num_feature":"946","num_nodes":"11","size_leaf_vector":"0"}},{"base_weights":[-1.6464103E-2,-2.8636385E1,-5.484501E-3,-3.934015E0,-2.5866933E-3,-2.1693528E0,-5.485083E-1,-8.049278E-3,1.3549185E-1],"default_left":[true,false,false,false,true,false,false,false,false],"id":56,"leaf_child_counts":[0,0,0,0,0,0,0,0,0],"left_children":[1,-1,3,5,7,-1,-1,-1,-1],"loss_changes":[2.2809305E4,0E0,2.477794E2,9.816E1,2.3954422E2,0E0,0E0,0E0,0E0],"parents":[2147483647,0,0,2,2,3,3,4,4],"right_children":[2,-1,4,6,8,-1,-1,-1,-1],"split_conditions":[-2.109375E0,-2.8636385E1,-2.915039E-1,-5.1818848E-2,3.0136719E0,-2.1693528E0,-5.485083E-1,-8.049278E-3,1.3549185E-1],"split_indices":[713,0,543,143,679,0,0,0,0],"sum_hessian":[2.1766742E4,1.5039062E0,2.1765238E4,1.5042969E1,2.1750195E4,4.9140625E0,1.0128906E1,2.0649E4,1.1011953E3],"tree_param":{"num_deleted":"0","num_feature":"946","num_nodes":"9","size_leaf_vector":"0"}},{"base_weights":[1.1393498E-2,5.854929E1,-2.7148016E-3,1.2124204E1,8.503704E1,-4.1410103E-3,3.4494202E0,5.0868826E0,3.486408E-1,3.3755684E1,5.280669E0,1.7948676E-2,-4.757804E-2],"default_left":[false,true,false,true,true,false,false,false,false,false,false,false,false],"id":57,"leaf_child_counts":[0,0,0,0,0,0,0,0,0,0,0,0,0],"left_children":[1,3,5,7,9,11,-1,-1,-1,-1,-1,-1,-1],"loss_changes":[1.792749E4,5.400879E3,3.56031E2,1.427204E2,3.8831738E3,2.1442494E2,0E0,0E0,0E0,0E0,0E0,0E0,0E0],"parents":[2147483647,0,0,1,1,2,2,3,3,4,4,5,5],"right_children":[2,4,6,8,10,12,-1,-1,-1,-1,-1,-1,-1],"split_conditions":[-2.109375E0,-6.137085E-2,1.840625E1,-1.8884277E-1,-1.3134766E-1,-5.986328E-1,3.4494202E0,5.0868826E0,3.486408E-1,3.3755684E1,5.280669E0,1.7948676E-2,-4.757804E-2],"split_indices":[713,447,523,480,571,115,0,0,0,0,0,0,0],"sum_hessian":[2.1706203E4,4.2304688E0,2.1701973E4,2.0664062E0,2.1640625E0,2.1700281E4,1.6914062E0,1.0546875E0,1.0117188E0,1.0625E0,1.1015625E0,1.5345297E4,6.3549844E3],"tree_param":{"num_deleted":"0","num_feature":"946","num_nodes":"13","size_leaf_vector":"0"}},{"base_weights":[-1.1234353E-2,-2.4012272E1,-2.2341767E-3,-8.723837E-2,1.2052374E-1,-2.5559561E-2,-3.1043983E0,3.3890672E-2,7.808264E-1],"default_left":[true,false,false,false,false,false,false,false,false],"id":58,"leaf_child_counts":[0,0,0,0,0,0,0,0,0],"left_children":[1,-1,3,5,7,-1,-1,-1,-1],"loss_changes":[1.5575796E4,0E0,2.256496E2,2.665434E2,1.6562119E2,0E0,0E0,0E0,0E0],"parents":[2147483647,0,0,2,2,3,3,4,4],"right_children":[2,-1,4,6,8,-1,-1,-1,-1],"split_conditions":[-8.3447266E-1,-2.4012272E1,-3.5327148E-1,4.6445312E0,3.0390625E0,-2.5559561E-2,-3.1043983E0,3.3890672E-2,7.808264E-1],"split_indices":[714,0,9,6,745,0,0,0,0],"sum_hessian":[2.1623854E4,1.4316406E0,2.1622422E4,1.2775953E4,8.846469E3,1.2774422E4,1.53125E0,8.820668E3,2.5800781E1],"tree_param":{"num_deleted":"0","num_feature":"946","num_nodes":"9","size_leaf_vector":"0"}},{"base_weights":[1.52376825E-2,5.0139874E1,-1.4473477E-3,-5.8725443E-2,1.7503934E-1,-4.700385E-2,2.864006E-2,3.1436143E0,4.9874075E-2],"default_left":[true,false,false,true,true,false,false,false,false],"id":59,"leaf_child_counts":[0,0,0,0,0,0,0,0,0],"left_children":[1,-1,3,5,7,-1,-1,-1,-1],"loss_changes":[6.0226438E4,0E0,2.1834024E2,2.463072E2,4.7770923E2,0E0,0E0,0E0,0E0],"parents":[2147483647,0,0,2,2,3,3,4,4],"right_children":[2,-1,4,6,8,-1,-1,-1,-1],"split_conditions":[-9.9902344E-1,5.0139874E1,4.2358398E-1,6.459961E-1,-5.6152344E-1,-4.700385E-2,2.864006E-2,3.1436143E0,4.9874075E-2],"split_indices":[714,0,425,39,155,0,0,0,0],"sum_hessian":[2.1598121E4,1.15625E0,2.1596965E4,1.6305684E4,5.2912812E3,9.971227E3,6.334457E3,3.4960938E0,5.287785E3],"tree_param":{"num_deleted":"0","num_feature":"946","num_nodes":"9","size_leaf_vector":"0"}},{"base_weights":[-2.0392101E-2,-6.895774E1,-1.4628908E-4,-1.7707798E1,-1.0917254E2,-1.3670394E-3,3.5892625E0,-8.518175E0,6.0479E-1,-8.156322E0,-4.0798706E1,1.7822115E-1,-5.205363E-3],"default_left":[false,true,false,false,true,false,false,false,false,false,false,false,false],"id":60,"leaf_child_counts":[0,0,0,0,0,0,0,0,0,0,0,0,0],"left_children":[1,3,5,7,9,11,-1,-1,-1,-1,-1,-1,-1],"loss_changes":[2.9878082E4,1.1020541E4,3.1260413E2,8.9126636E2,3.6214297E3,2.036949E2,0E0,0E0,0E0,0E0,0E0,0E0,0E0],"parents":[2147483647,0,0,1,1,2,2,3,3,4,4,5,5],"right_children":[2,4,6,8,10,12,-1,-1,-1,-1,-1,-1,-1],"split_conditions":[-9.9902344E-1,-6.060791E-2,9.4453125E0,2.4194336E-1,-1.5853882E-2,-4.7929688E0,3.5892625E0,-8.518175E0,6.0479E-1,-8.156322E0,-4.0798706E1,1.7822115E-1,-5.205363E-3],"split_indices":[714,447,488,39,372,169,0,0,0,0,0,0,0],"sum_hessian":[2.140636E4,5.2851562E0,2.1401074E4,2.9570312E0,2.328125E0,2.139989E4,1.1835938E0,1.6328125E0,1.3242188E0,1.0703125E0,1.2578125E0,5.585039E2,2.0841387E4],"tree_param":{"num_deleted":"0","num_feature":"946","num_nodes":"13","size_leaf_vector":"0"}},{"base_weights":[-2.8856834E-3,-5.037036E0,-7.06789E-4,4.9691358E0,-2.9152352E-3,5.459894E0,2.5103775E-1,-2.369566E-2,3.7111495E-2],"default_left":[true,false,true,true,true,false,false,false,false],"id":61,"leaf_child_counts":[0,0,0,0,0,0,0,0,0],"left_children":[1,-1,3,5,7,-1,-1,-1,-1],"loss_changes":[7.8168713E2,0E0,2.345549E2,5.0373718E2,2.0575691E2,0E0,0E0,0E0,0E0],"parents":[2147483647,0,0,2,2,3,3,4,4],"right_children":[2,-1,4,6,8,-1,-1,-1,-1],"split_conditions":[-1.6826172E0,-5.037036E0,-2.8778076E-2,-1.0498047E0,-4.326172E-1,5.459894E0,2.5103775E-1,-2.369566E-2,3.7111495E-2],"split_indices":[710,0,714,19,4,0,0,0,0],"sum_hessian":[2.1369973E4,1.7734375E0,2.13682E4,8.4921875E0,2.1359707E4,1.2109375E0,7.28125E0,1.3343586E4,8.016121E3],"tree_param":{"num_deleted":"0","num_feature":"946","num_nodes":"9","size_leaf_vector":"0"}},{"base_weights":[2.1650456E-3,1.244843E1,-1.7793427E-3,-3.668957E-1,2.4709005E-2,-1.5796661E-1,1.5820228E-2,-1.2092788E-2,5.5858854E-2],"default_left":[true,false,false,false,false,false,false,false,false],"id":62,"leaf_child_counts":[0,0,0,0,0,0,0,0,0],"left_children":[1,-1,3,5,7,-1,-1,-1,-1],"loss_changes":[3.5310342E3,0E0,2.0865388E2,9.779848E1,2.1120982E2,0E0,0E0,0E0,0E0],"parents":[2147483647,0,0,2,2,3,3,4,4],"right_children":[2,-1,4,6,8,-1,-1,-1,-1],"split_conditions":[-2.4101562E0,1.244843E1,-6.328125E-1,8.0029297E-1,-2.0843506E-2,-1.5796661E-1,1.5820228E-2,-1.2092788E-2,5.5858854E-2],"split_indices":[714,0,25,339,154,0,0,0,0],"sum_hessian":[2.157359E4,1.0507812E0,2.157254E4,1.4583086E3,2.011423E4,1.0561953E3,4.0211328E2,1.4340984E4,5.773246E3],"tree_param":{"num_deleted":"0","num_feature":"946","num_nodes":"9","size_leaf_vector":"0"}},{"base_weights":[-9.397935E-3,-1.9004436E1,-2.542986E-3,7.054872E-2,-1.3831879E-1,2.7118368E0,2.060972E-2,-6.469013E-2,2.8832233E-2],"default_left":[true,false,true,true,false,false,false,false,false],"id":63,"leaf_child_counts":[0,0,0,0,0,0,0,0,0],"left_children":[1,-1,3,5,7,-1,-1,-1,-1],"loss_changes":[9.325296E3,0E0,2.1314746E2,2.3099728E2,1.3624553E2,0E0,0E0,0E0,0E0],"parents":[2147483647,0,0,2,2,3,3,4,4],"right_children":[2,-1,4,6,8,-1,-1,-1,-1],"split_conditions":[-2.078125E0,-1.9004436E1,-1.6064453E-1,-3.9233398E-1,-2.9205322E-2,2.7118368E0,2.060972E-2,-6.469013E-2,2.8832233E-2],"split_indices":[710,0,69,713,258,0,0,0,0],"sum_hessian":[2.1477137E4,1.3242188E0,2.1475812E4,1.3960816E4,7.514996E3,1.8710938E0,1.3958945E4,5.6512617E3,1.8637344E3],"tree_param":{"num_deleted":"0","num_feature":"946","num_nodes":"9","size_leaf_vector":"0"}},{"base_weights":[6.5546758E-3,1.9854788E1,-1.959168E-3,-2.5293529E-2,3.810996E-1,-7.2672036E-3,-2.897465E0,9.9021025E-2,3.1229496E-1],"default_left":[true,false,false,false,false,false,false,false,false],"id":64,"leaf_child_counts":[0,0,0,0,0,0,0,0,0],"left_children":[1,-1,3,5,7,-1,-1,-1,-1],"loss_changes":[1.204455E4,0E0,1.9107634E2,2.0735725E2,4.0988174E1,0E0,0E0,0E0,0E0],"parents":[2147483647,0,0,2,2,3,3,4,4],"right_children":[2,-1,4,6,8,-1,-1,-1,-1],"split_conditions":[-3.28125E-1,1.9854788E1,1.3876953E0,8.1015625E0,1.6728516E0,-7.2672036E-3,-2.897465E0,9.9021025E-2,3.1229496E-1],"split_indices":[710,0,285,484,244,0,0,0,0],"sum_hessian":[2.1376613E4,1.75E0,2.1374863E4,2.0148438E4,1.2264258E3,2.0147203E4,1.234375E0,1.1397852E3,8.6640625E1],"tree_param":{"num_deleted":"0","num_feature":"946","num_nodes":"9","size_leaf_vector":"0"}},{"base_weights":[-1.2827201E-2,-2.2207226E1,-3.8617575E-3,-9.350436E0,-1.5148674E-3,-5.920034E0,-3.5288188E-1,2.792685E-2,-2.8434224E-2],"default_left":[true,false,false,true,true,false,false,false,false],"id":65,"leaf_child_counts":[0,0,0,0,0,0,0,0,0],"left_children":[1,-1,3,5,7,-1,-1,-1,-1],"loss_changes":[1.4188018E4,0E0,4.68987E2,4.3231427E2,1.886228E2,0E0,0E0,0E0,0E0],"parents":[2147483647,0,0,2,2,3,3,4,4],"right_children":[2,-1,4,6,8,-1,-1,-1,-1],"split_conditions":[-7.8466797E-1,-2.2207226E1,-3.28125E-1,3.6621094E-1,-2.0007324E-1,-5.920034E0,-3.5288188E-1,2.792685E-2,-2.8434224E-2],"split_indices":[711,0,710,194,248,0,0,0,0],"sum_hessian":[2.1381621E4,1.5898438E0,2.1380031E4,4.3671875E0,2.1375664E4,1.3007812E0,3.0664062E0,1.06116875E4,1.0763977E4],"tree_param":{"num_deleted":"0","num_feature":"946","num_nodes":"9","size_leaf_vector":"0"}},{"base_weights":[6.4249886E-3,1.9353226E1,-2.4992928E-3,-4.3862762E0,6.582703E-6,-5.6486833E-1,-4.1705403E0,-2.770392E-2,2.753399E-2],"default_left":[true,false,false,true,false,false,false,false,false],"id":66,"leaf_child_counts":[0,0,0,0,0,0,0,0,0],"left_children":[1,-1,3,5,7,-1,-1,-1,-1],"loss_changes":[1.2305341E4,0E0,2.3479784E2,2.6470105E2,1.810699E2,0E0,0E0,0E0,0E0],"parents":[2147483647,0,0,2,2,3,3,4,4],"right_children":[2,-1,4,6,8,-1,-1,-1,-1],"split_conditions":[-1.1590576E-1,1.9353226E1,-2.4101562E0,7.553711E-1,-2.3999023E-1,-5.6486833E-1,-4.1705403E0,-2.770392E-2,2.753399E-2],"split_indices":[711,0,714,704,45,0,0,0,0],"sum_hessian":[2.1374973E4,1.9570312E0,2.1373016E4,1.12109375E1,2.1361805E4,9.824219E0,1.3867188E0,1.0647277E4,1.0714527E4],"tree_param":{"num_deleted":"0","num_feature":"946","num_nodes":"9","size_leaf_vector":"0"}},{"base_weights":[-1.0636565E-2,-1.3395615E1,-5.6935837E-3,-7.640778E0,-1.1227102E-3,-5.9867847E-1,-1.0044201E1,-1.5068961E-2,4.9935263E-2],"default_left":[true,false,false,false,false,false,false,false,false],"id":67,"leaf_child_counts":[0,0,0,0,0,0,0,0,0],"left_children":[1,-1,3,5,7,-1,-1,-1,-1],"loss_changes":[4.702414E3,0E0,7.4370013E2,1.7930403E3,1.7527554E2,0E0,0E0,0E0,0E0],"parents":[2147483647,0,0,2,2,3,3,4,4],"right_children":[2,-1,4,6,8,-1,-1,-1,-1],"split_conditions":[-2.8808594E0,-1.3395615E1,-1.665039E-1,-8.3447266E-1,-7.8308105E-2,-5.9867847E-1,-1.0044201E1,-1.5068961E-2,4.9935263E-2],"split_indices":[710,0,710,714,217,0,0,0,0],"sum_hessian":[2.1310668E4,1.359375E0,2.1309309E4,1.175E1,2.1297559E4,1.0527344E1,1.2226562E0,1.6471355E4,4.826203E3],"tree_param":{"num_deleted":"0","num_feature":"946","num_nodes":"9","size_leaf_vector":"0"}},{"base_weights":[-3.0498838E-4,1.0314883E1,-3.8373508E-3,-8.377246E0,-7.577331E-4,2.8180616E0,-5.8485184E0,1.2562984E-1,-5.9599644E-3],"default_left":[true,false,true,true,true,false,false,false,false],"id":68,"leaf_child_counts":[0,0,0,0,0,0,0,0,0],"left_children":[1,-1,3,5,7,-1,-1,-1,-1],"loss_changes":[2.586345E3,0E0,5.4906274E2,1.7297483E3,1.7064761E2,0E0,0E0,0E0,0E0],"parents":[2147483647,0,0,2,2,3,3,4,4],"right_children":[2,-1,4,6,8,-1,-1,-1,-1],"split_conditions":[-2.2578125E0,1.0314883E1,-1.665039E-1,-1.0722656E0,-1.8583984E0,2.8180616E0,-5.8485184E0,1.2562984E-1,-5.9599644E-3],"split_indices":[710,0,710,19,4,0,0,0,0],"sum_hessian":[2.129275E4,1.1875E0,2.1291562E4,6.828125E0,2.1284734E4,2.6875E0,4.140625E0,9.2634766E2,2.0358387E4],"tree_param":{"num_deleted":"0","num_feature":"946","num_nodes":"9","size_leaf_vector":"0"}},{"base_weights":[-6.5289056E-3,-7.5015674E0,-3.9037503E-3,-5.208753E0,-1.9098492E-4,2.238589E0,-3.8819327E0,1.4627143E-3,-4.6840206E-1],"default_left":[true,false,false,false,true,false,false,false,false],"id":69,"leaf_child_counts":[0,0,0,0,0,0,0,0,0],"left_children":[1,-1,3,5,7,-1,-1,-1,-1],"loss_changes":[1.3928231E3,0E0,4.101413E2,1.5785475E3,1.6777562E2,0E0,0E0,0E0,0E0],"parents":[2147483647,0,0,2,2,3,3,4,4],"right_children":[2,-1,4,6,8,-1,-1,-1,-1],"split_conditions":[-4.0820312E0,-7.5015674E0,-3.4118652E-2,-1.0722656E0,4.8125E0,2.238589E0,-3.8819327E0,1.4627143E-3,-4.6840206E-1],"split_indices":[713,0,713,19,424,0,0,0,0],"sum_hessian":[2.122431E4,1.2285156E0,2.1223082E4,1.4128906E1,2.1208953E4,5.3671875E0,8.761719E0,2.1141336E4,6.761719E1],"tree_param":{"num_deleted":"0","num_feature":"946","num_nodes":"9","size_leaf_vector":"0"}},{"base_weights":[-9.443127E-4,1.4775399E1,-3.8100216E-3,1.170366E1,-5.626883E0,-2.0897436E0,2.4055475E-3,-1.8570872E-2,-2.5312147E0,-3.7971509E-1,-1.2792792E0,2.4131377E0,2.5900058E-4],"default_left":[true,true,true,false,true,false,true,false,false,false,false,false,false],"id":70,"leaf_child_counts":[0,0,0,0,0,0,0,0,0,0,0,0,0],"left_children":[1,3,5,-1,7,9,11,-1,-1,-1,-1,-1,-1],"loss_changes":[8.991224E2,2.2554087E3,2.7524417E2,0E0,4.810948E1,1.07616E2,2.624948E2,0E0,0E0,0E0,0E0,0E0,0E0],"parents":[2147483647,0,0,1,1,2,2,4,4,5,5,6,6],"right_children":[2,4,6,-1,8,10,12,-1,-1,-1,-1,-1,-1],"split_conditions":[-5.6152344E-1,-4.8828125E-1,-5.6103516E-1,1.170366E1,-2.064209E-1,6.6748047E-1,-6.723633E-1,-1.8570872E-2,-2.5312147E0,-3.7971509E-1,-1.2792792E0,2.4131377E0,2.5900058E-4],"split_indices":[155,297,155,0,69,60,158,0,0,0,0,0,0],"sum_hessian":[2.1231082E4,3.1171875E0,2.1227965E4,1.0078125E0,2.109375E0,6.2070312E1,2.1165895E4,1.0507812E0,1.0585938E0,4.6160156E1,1.5910156E1,3.0585938E0,2.1162836E4],"tree_param":{"num_deleted":"0","num_feature":"946","num_nodes":"13","size_leaf_vector":"0"}},{"base_weights":[-4.903404E-3,-1.0900721E1,-1.250073E-3,5.968245E0,-3.8809339E-3,-6.126889E-1,1.8073221E-4],"default_left":[true,false,true,false,true,false,false],"id":71,"leaf_child_counts":[0,0,0,0,0,0,0],"left_children":[1,-1,3,-1,5,-1,-1],"loss_changes":[2.8154453E3,0E0,1.1103176E3,0E0,1.93834E2,0E0,0E0],"parents":[2147483647,0,0,2,2,4,4],"right_children":[2,-1,4,-1,6,-1,-1],"split_conditions":[-6.723633E-1,-1.0900721E1,-5.6152344E-1,5.968245E0,-5.6103516E-1,-6.126889E-1,1.8073221E-4],"split_indices":[158,0,155,0,155,0,0],"sum_hessian":[2.1211395E4,1.1328125E0,2.1210262E4,1.8046875E0,2.1208457E4,4.5546875E1,2.116291E4],"tree_param":{"num_deleted":"0","num_feature":"946","num_nodes":"7","size_leaf_vector":"0"}},{"base_weights":[-6.481514E-4,3.1332366E0,-1.8062664E-3,-4.768488E0,3.3167636E-4,-3.612612E0,1.42046E0,3.9830897E-3,-1.9202696E-1],"default_left":[true,false,false,true,true,false,false,false,false],"id":72,"leaf_child_counts":[0,0,0,0,0,0,0,0,0],"left_children":[1,-1,3,5,7,-1,-1,-1,-1],"loss_changes":[2.5656796E2,0E0,2.1612633E2,7.142273E2,1.7575865E2,0E0,0E0,0E0,0E0],"parents":[2147483647,0,0,2,2,3,3,4,4],"right_children":[2,-1,4,6,8,-1,-1,-1,-1],"split_conditions":[-2.078125E0,3.1332366E0,-1.1590576E-1,6.3323975E-3,9.0478516E-1,-3.612612E0,1.42046E0,3.9830897E-3,-1.9202696E-1],"split_indices":[710,0,711,54,2,0,0,0,0],"sum_hessian":[2.1207988E4,1.3515625E0,2.1206637E4,8.5078125E0,2.1198129E4,4.6679688E0,3.8398438E0,2.0779086E4,4.1904297E2],"tree_param":{"num_deleted":"0","num_feature":"946","num_nodes":"9","size_leaf_vector":"0"}},{"base_weights":[-2.832465E-3,2.4932174E-3,-2.954637E0,5.726712E0,9.4660296E-4,-8.6596575E0,-1.2393775E0,3.1929777E0,-1.3916667E0,-2.089398E0,7.271841E-4,3.9930198E0,-6.5826714E-1],"default_left":[false,true,true,true,true,false,true,false,false,false,false,false,false],"id":73,"leaf_child_counts":[0,0,0,0,0,0,0,0,0,0,0,0,0],"left_children":[1,3,5,7,9,-1,11,-1,-1,-1,-1,-1,-1],"loss_changes":[3.325154E2,1.8692297E2,1.6572595E3,3.40021E2,2.1724739E2,0E0,5.4007947E2,0E0,0E0,0E0,0E0,0E0,0E0],"parents":[2147483647,0,0,1,1,2,2,3,3,4,4,6,6],"right_children":[2,4,6,8,10,-1,12,-1,-1,-1,-1,-1,-1],"split_conditions":[2.8300781E0,-2.8203125E0,-1.90625E0,-3.9031982E-2,-2.2578125E0,-8.6596575E0,-5.935669E-2,3.1929777E0,-1.3916667E0,-2.089398E0,7.271841E-4,3.9930198E0,-6.5826714E-1],"split_indices":[703,711,714,4,710,0,385,0,0,0,0,0,0],"sum_hessian":[2.115041E4,2.1113316E4,3.709375E1,4.703125E0,2.1108613E4,1.3203125E0,3.5773438E1,3.171875E0,1.53125E0,3.4765625E0,2.1105137E4,1.40625E0,3.4367188E1],"tree_param":{"num_deleted":"0","num_feature":"946","num_nodes":"13","size_leaf_vector":"0"}},{"base_weights":[6.463408E-4,-3.5492044E-2,2.3655024E-1,-2.2036324E0,-3.008958E-2,4.0658116E0,2.266925E-1,2.5561595E-1,-2.6948204E0,1.6615602E0,-9.785273E-3,1.1155594E-1,-8.159015E-3],"default_left":[false,true,true,false,true,false,true,false,false,false,false,false,false],"id":74,"leaf_child_counts":[0,0,0,0,0,0,0,0,0,0,0,0,0],"left_children":[1,3,5,7,9,-1,11,-1,-1,-1,-1,-1,-1],"loss_changes":[1.8040782E2,2.1487994E2,3.6593958E2,9.5220044E2,2.5788306E2,0E0,1.0357501E2,0E0,0E0,0E0,0E0,0E0,0E0],"parents":[2147483647,0,0,1,1,2,2,3,3,4,4,6,6],"right_children":[2,4,6,8,10,-1,12,-1,-1,-1,-1,-1,-1],"split_conditions":[8.300781E-1,-5.6103516E-1,-1.8173828E0,6.6748047E-1,-6.723633E-1,4.0658116E0,-1.5393066E-1,2.5561595E-1,-2.6948204E0,1.6615602E0,-9.785273E-3,1.1155594E-1,-8.159015E-3],"split_indices":[79,155,710,60,158,0,69,0,0,0,0,0,0],"sum_hessian":[2.1159762E4,1.8349613E4,2.8101484E3,4.4597656E1,1.8305016E4,1.0625E0,2.809086E3,3.134375E1,1.3253906E1,7.3125E0,1.8297703E4,1.7869414E3,1.02214453E3],"tree_param":{"num_deleted":"0","num_feature":"946","num_nodes":"13","size_leaf_vector":"0"}},{"base_weights":[-6.790392E-4,-1.003503E-2,8.867048E-1,-7.7805934E-3,-6.3914313E0,7.818102E-1,3.190127E0,1.9245725E-2,-3.6931034E-2,2.2009864E-1,1.5775677E0],"default_left":[false,false,false,true,false,true,false,false,false,false,false],"id":75,"leaf_child_counts":[0,0,0,0,0,0,0,0,0,0,0],"left_children":[1,3,5,7,-1,9,-1,-1,-1,-1,-1],"loss_changes":[1.7526135E2,1.0026904E3,2.1686887E2,1.7328728E2,0E0,4.3342575E1,0E0,0E0,0E0,0E0,0E0],"parents":[2147483647,0,0,1,1,2,2,3,3,5,5],"right_children":[2,4,6,8,-1,10,-1,-1,-1,-1,-1],"split_conditions":[3.0195312E0,4.6445312E0,1.4023438E0,-1.8457031E-1,-6.3914313E0,1.6998291E-2,3.190127E0,1.9245725E-2,-3.6931034E-2,2.2009864E-1,1.5775677E0],"split_indices":[9,6,750,638,0,706,0,0,0,0,0],"sum_hessian":[2.1107766E4,2.088852E4,2.192461E2,2.0887309E4,1.2109375E0,2.1798047E2,1.265625E0,1.2863871E4,8.0234375E3,2.168125E2,1.1679688E0],"tree_param":{"num_deleted":"0","num_feature":"946","num_nodes":"11","size_leaf_vector":"0"}},{"base_weights":[-9.783605E-4,-2.9351625E0,1.420914E-4,5.6485232E-2,-1.3416383E-1,-6.5731257E-3,6.357829E-2,-1.690061E0,-3.7857458E-2],"default_left":[true,false,false,true,true,false,false,false,false],"id":76,"leaf_child_counts":[0,0,0,0,0,0,0,0,0],"left_children":[1,-1,3,5,7,-1,-1,-1,-1],"loss_changes":[2.3069057E2,0E0,1.5925543E2,1.806721E2,2.7197397E2,0E0,0E0,0E0,0E0],"parents":[2147483647,0,0,2,2,3,3,4,4],"right_children":[2,-1,4,6,8,-1,-1,-1,-1],"split_conditions":[-1.48515625E1,-2.9351625E0,1.1992188E0,-4.326172E-1,-1.1590576E-1,-6.5731257E-3,6.357829E-2,-1.690061E0,-3.7857458E-2],"split_indices":[453,0,785,4,711,0,0,0,0],"sum_hessian":[2.1044852E4,1.4101562E0,2.1043441E4,1.48248125E4,6.218629E3,9.855273E3,4.969539E3,7.9804688E0,6.2106484E3],"tree_param":{"num_deleted":"0","num_feature":"946","num_nodes":"9","size_leaf_vector":"0"}},{"base_weights":[2.3779487E-5,-1.8093823E-2,4.1304973E-1,-6.896584E-2,1.3659732E-1,8.107901E0,3.8387513E-1,8.022255E-2,-3.2477982E-2,-4.11414E-2,4.0363636E0,3.4666043E-2,1.2300908E1,1.2218585E-1,-1.6585339E0],"default_left":[false,false,false,false,true,true,true,false,false,false,false,false,false,false,false],"id":77,"leaf_child_counts":[0,0,0,0,0,0,0,0,0,0,0,0,0,0,0],"left_children":[1,3,5,7,11,9,13,-1,-1,-1,-1,-1,-1,-1,-1],"loss_changes":[1.5851183E2,1.5970152E2,1.9672063E2,2.018787E2,4.3143647E3,1.4787105E2,1.2514006E2,0E0,0E0,0E0,0E0,0E0,0E0,0E0,0E0],"parents":[2147483647,0,0,1,1,2,2,3,3,5,5,4,4,6,6],"right_children":[2,4,6,8,12,10,14,-1,-1,-1,-1,-1,-1,-1,-1],"split_conditions":[2.453125E0,1.2226562E0,-8.9160156E-1,-3.7451172E-1,3.0605469E0,-4.7729492E-1,9.4453125E0,8.022255E-2,-3.2477982E-2,-4.11414E-2,4.0363636E0,3.4666043E-2,1.2300908E1,1.2218585E-1,-1.6585339E0],"split_indices":[49,104,710,814,747,314,488,0,0,0,0,0,0,0,0],"sum_hessian":[2.1180812E4,2.0291664E4,8.8914844E2,1.5270375E4,5.021289E3,2.3125E0,8.8683594E2,1.5966406E3,1.3673734E4,1.2929688E0,1.0195312E0,5.019707E3,1.5820312E0,8.842656E2,2.5703125E0],"tree_param":{"num_deleted":"0","num_feature":"946","num_nodes":"15","size_leaf_vector":"0"}},{"base_weights":[8.429245E-4,-4.6225168E-2,1.64995E-1,-1.7553957E-2,-4.313834E-1,1.5655677E-1,4.565667E0,1.3632352E0,-6.0302285E-3,-1.6763457E0,-1.14107236E-1,3.0866165E-2,2.427452E-1],"default_left":[false,false,false,true,true,false,false,false,false,false,false,false,false],"id":78,"leaf_child_counts":[0,0,0,0,0,0,0,0,0,0,0,0,0],"left_children":[1,3,5,7,9,11,-1,-1,-1,-1,-1,-1,-1],"loss_changes":[1.6262187E2,1.8062769E2,5.9341296E2,1.7697359E2,2.9604633E2,1.6413385E2,0E0,0E0,0E0,0E0,0E0,0E0,0E0],"parents":[2147483647,0,0,1,1,2,2,3,3,4,4,5,5],"right_children":[2,4,6,8,10,12,-1,-1,-1,-1,-1,-1,-1],"split_conditions":[2.836914E-1,-2.746582E-2,3.0390625E0,-5.6152344E-1,-5.6103516E-1,1.6784668E-1,4.565667E0,1.3632352E0,-6.0302285E-3,-1.6763457E0,-1.14107236E-1,3.0866165E-2,2.427452E-1],"split_indices":[629,252,745,155,155,4,0,0,0,0,0,0,0],"sum_hessian":[2.1045777E4,1.6356516E4,4.6892617E3,1.5224266E4,1.13225E3,4.6876445E3,1.6171875E0,7.5E0,1.5216766E4,1.003125E1,1.1222188E3,4.332496E3,3.5514844E2],"tree_param":{"num_deleted":"0","num_feature":"946","num_nodes":"13","size_leaf_vector":"0"}},{"base_weights":[-4.5447593E-4,7.5721024E-3,-2.3410889E1,5.7188284E-1,-5.8082403E-3,1.6217509E-1,2.1760716E0,-1.4178261E-2,5.4801676E-2],"default_left":[false,true,false,true,true,false,false,false,false],"id":79,"leaf_child_counts":[0,0,0,0,0,0,0,0,0],"left_children":[1,3,-1,5,7,-1,-1,-1,-1],"loss_changes":[1.3155823E4,1.5857861E2,0E0,9.780919E1,1.6030072E2,0E0,0E0,0E0,0E0],"parents":[2147483647,0,0,1,1,3,3,4,4],"right_children":[2,4,-1,6,8,-1,-1,-1,-1],"split_conditions":[4.8164062E0,-5.296875E0,-2.3410889E1,2.7089844E0,1.0683594E0,1.6217509E-1,2.1760716E0,-1.4178261E-2,5.4801676E-2],"split_indices":[424,454,0,743,51,0,0,0,0],"sum_hessian":[2.1001645E4,2.1000484E4,1.1601562E0,4.854414E2,2.0515043E4,4.842539E2,1.1875E0,1.681718E4,3.6978633E3],"tree_param":{"num_deleted":"0","num_feature":"946","num_nodes":"9","size_leaf_vector":"0"}},{"base_weights":[-2.464835E-3,5.582859E-3,-2.1784458E1,7.244033E-2,-9.2100754E-2,7.897446E-2,5.87491E-3,-4.4666704E-2,5.4061905E-2],"default_left":[false,true,false,true,false,false,false,false,false],"id":80,"leaf_child_counts":[0,0,0,0,0,0,0,0,0],"left_children":[1,3,-1,5,7,-1,-1,-1,-1],"loss_changes":[1.2214745E4,1.3650648E2,0E0,1.2514422E2,1.3136049E2,0E0,0E0,0E0,0E0],"parents":[2147483647,0,0,1,1,3,3,4,4],"right_children":[2,4,-1,6,8,-1,-1,-1,-1],"split_conditions":[4.8164062E0,-3.503418E-1,-2.1784458E1,1E0,1.8828125E0,7.897446E-2,5.87491E-3,-4.4666704E-2,5.4061905E-2],"split_indices":[424,747,0,927,39,0,0,0,0],"sum_hessian":[2.0900996E4,2.089968E4,1.3164062E0,1.240773E4,8.491949E3,2.6906953E3,9.717035E3,7.026965E3,1.4649844E3],"tree_param":{"num_deleted":"0","num_feature":"946","num_nodes":"9","size_leaf_vector":"0"}},{"base_weights":[-4.186041E-3,3.850645E-3,-1.3408457E1,2.1597935E-2,-3.742885E-1,-1.0547858E-2,4.960438E-2,-1.5313005E0,-1.0032327E-1],"default_left":[false,false,false,false,true,false,false,false,false],"id":81,"leaf_child_counts":[0,0,0,0,0,0,0,0,0],"left_children":[1,3,-1,5,7,-1,-1,-1,-1],"loss_changes":[7.4949575E3,1.4002863E2,0E0,1.6261327E2,1.7473006E2,0E0,0E0,0E0,0E0],"parents":[2147483647,0,0,1,1,3,3,4,4],"right_children":[2,4,-1,6,8,-1,-1,-1,-1],"split_conditions":[4.8164062E0,9.321289E-1,-1.3408457E1,-2.9541016E-1,-3.265381E-2,-1.0547858E-2,4.960438E-2,-1.5313005E0,-1.0032327E-1],"split_indices":[424,15,0,4,710,0,0,0,0],"sum_hessian":[2.0866256E4,2.0863504E4,2.7519531E0,1.992911E4,9.3439453E2,1.4288336E4,5.6407734E3,6.75E0,9.2764453E2],"tree_param":{"num_deleted":"0","num_feature":"946","num_nodes":"9","size_leaf_vector":"0"}},{"base_weights":[-5.684745E-3,2.4320483E-3,-9.507789E0,-1.3146134E-2,4.3517953E-1,-1.2107353E-2,7.6769315E-2,1.1826379E-1,3.4659765E0],"default_left":[false,true,false,true,false,false,false,false,false],"id":82,"leaf_child_counts":[0,0,0,0,0,0,0,0,0],"left_children":[1,3,-1,5,7,-1,-1,-1,-1],"loss_changes":[5.396256E3,1.4141646E2,0E0,1.4825243E2,3.2744305E2,0E0,0E0,0E0,0E0],"parents":[2147483647,0,0,1,1,3,3,4,4],"right_children":[2,4,-1,6,8,-1,-1,-1,-1],"split_conditions":[4.8164062E0,4.3085938E0,-9.507789E0,2.7167969E0,3.0390625E0,-1.2107353E-2,7.6769315E-2,1.1826379E-1,3.4659765E0],"split_indices":[424,174,0,429,745,0,0,0,0],"sum_hessian":[2.0979775E4,2.0975402E4,4.373047E0,2.0247496E4,7.2790625E2,1.8388492E4,1.8590039E3,7.262656E2,1.640625E0],"tree_param":{"num_deleted":"0","num_feature":"946","num_nodes":"9","size_leaf_vector":"0"}},{"base_weights":[-6.227765E-3,1.8787616E-3,-1.077586E1,-1.1944871E-1,5.5541296E-2,-3.4614366E-2,-3.3046722E0,-8.941582E-1,1.7499818E-2],"default_left":[false,false,false,true,false,false,false,false,false],"id":83,"leaf_child_counts":[0,0,0,0,0,0,0,0,0],"left_children":[1,3,-1,5,7,-1,-1,-1,-1],"loss_changes":[6.0899736E3,1.3617413E2,0E0,2.8299252E2,1.2307265E2,0E0,0E0,0E0,0E0],"parents":[2147483647,0,0,1,1,3,3,4,4],"right_children":[2,4,-1,6,8,-1,-1,-1,-1],"split_conditions":[4.8164062E0,-1.2646484E-1,-1.077586E1,4.6445312E0,-2.6367188E-1,-3.4614366E-2,-3.3046722E0,-8.941582E-1,1.7499818E-2],"split_indices":[424,75,0,6,483,0,0,0,0],"sum_hessian":[2.0917014E4,2.0913293E4,3.7207031E0,6.4129062E3,1.4500387E4,6.4115234E3,1.3828125E0,1.2339844E1,1.4488047E4],"tree_param":{"num_deleted":"0","num_feature":"946","num_nodes":"9","size_leaf_vector":"0"}},{"base_weights":[-6.7283E-3,1.422191E-3,-8.803584E0,1.8590143E-1,-3.2937404E-2,2.2396927E0,5.287276E-2,-6.85176E-1,-8.421974E-3],"default_left":[false,false,false,true,false,false,false,false,false],"id":84,"leaf_child_counts":[0,0,0,0,0,0,0,0,0],"left_children":[1,3,-1,5,7,-1,-1,-1,-1],"loss_changes":[4.9944126E3,1.3236531E2,0E0,2.2922433E2,1.9268051E2,0E0,0E0,0E0,0E0],"parents":[2147483647,0,0,1,1,3,3,4,4],"right_children":[2,4,-1,6,8,-1,-1,-1,-1],"split_conditions":[4.8164062E0,-2.7871094E0,-8.803584E0,-2.078125E0,-5.6103516E-1,2.2396927E0,5.287276E-2,-6.85176E-1,-8.421974E-3],"split_indices":[424,687,0,710,155,0,0,0,0],"sum_hessian":[2.0885148E4,2.0880348E4,4.8007812E0,3.2777031E3,1.7602645E4,3.3203125E0,3.2743828E3,3.6945312E1,1.75657E4],"tree_param":{"num_deleted":"0","num_feature":"946","num_nodes":"9","size_leaf_vector":"0"}},{"base_weights":[-7.1597174E-3,9.7061496E-4,-7.7626867E0,2.8373126E-2,-2.3171318E-1,1.5043578E-3,9.086133E-2,-1.4186217E0,-6.6198766E-2],"default_left":[false,true,false,false,true,false,false,false,false],"id":85,"leaf_child_counts":[0,0,0,0,0,0,0,0,0],"left_children":[1,3,-1,5,7,-1,-1,-1,-1],"loss_changes":[4.379783E3,1.3274971E2,0E0,1.19427765E2,1.07965614E2,0E0,0E0,0E0,0E0],"parents":[2147483647,0,0,1,1,3,3,4,4],"right_children":[2,4,-1,6,8,-1,-1,-1,-1],"split_conditions":[4.8164062E0,-1.2939453E-1,-7.7626867E0,2.1757812E0,-1.1590576E-1,1.5043578E-3,9.086133E-2,-1.4186217E0,-6.6198766E-2],"split_indices":[424,876,0,59,711,0,0,0,0],"sum_hessian":[2.0823336E4,2.0817793E4,5.5429688E0,1.862523E4,2.1925625E3,1.7165535E4,1.4596953E3,4.328125E0,2.1882344E3],"tree_param":{"num_deleted":"0","num_feature":"946","num_nodes":"9","size_leaf_vector":"0"}},{"base_weights":[-7.405393E-3,6.4711133E-4,-7.6915503E0,6.615683E-2,-9.222301E-2,1.1050254E0,1.9024484E-2,-5.8940288E-2,1.723308E-2],"default_left":[false,true,false,true,false,false,false,false,false],"id":86,"leaf_child_counts":[0,0,0,0,0,0,0,0,0],"left_children":[1,3,-1,5,7,-1,-1,-1,-1],"loss_changes":[4.2895054E3,1.2641383E2,0E0,1.206084E2,1.341016E2,0E0,0E0,0E0,0E0],"parents":[2147483647,0,0,1,1,3,3,4,4],"right_children":[2,4,-1,6,8,-1,-1,-1,-1],"split_conditions":[4.8164062E0,-1.550293E-1,-7.6915503E0,-5.625E-1,8.852539E-1,1.1050254E0,1.9024484E-2,-5.8940288E-2,1.723308E-2],"split_indices":[424,67,0,155,39,0,0,0,0],"sum_hessian":[2.078196E4,2.0776434E4,5.5273438E0,1.2182969E4,8.593465E3,8.2109375E0,1.2174758E4,5.0651875E3,3.5282773E3],"tree_param":{"num_deleted":"0","num_feature":"946","num_nodes":"9","size_leaf_vector":"0"}},{"base_weights":[-7.6816E-3,4.322625E-4,-6.6167545E0,-4.067158E-2,1.5696542E-1,-4.954913E-3,-1.0438466E-1,1.771603E0,4.4703256E-2],"default_left":[false,false,false,false,true,false,false,false,false],"id":87,"leaf_child_counts":[0,0,0,0,0,0,0,0,0],"left_children":[1,3,-1,5,7,-1,-1,-1,-1],"loss_changes":[3.7032927E3,1.3315501E2,0E0,1.2165437E2,1.959289E2,0E0,0E0,0E0,0E0],"parents":[2147483647,0,0,1,1,3,3,4,4],"right_children":[2,4,-1,6,8,-1,-1,-1,-1],"split_conditions":[4.8164062E0,-1.0910034E-2,-6.6167545E0,-9.735107E-3,-2.5957031E0,-4.954913E-3,-1.0438466E-1,1.771603E0,4.4703256E-2],"split_indices":[424,215,0,113,710,0,0,0,0],"sum_hessian":[2.0699783E4,2.0693168E4,6.6152344E0,1.6390062E4,4.3031055E3,1.5196512E4,1.1935508E3,4.921875E0,4.2981836E3],"tree_param":{"num_deleted":"0","num_feature":"946","num_nodes":"9","size_leaf_vector":"0"}},{"base_weights":[-7.9091145E-3,2.6248983E-4,-5.6727114E0,-4.7170226E-2,1.304551E-1,-1.3419836E-2,-2.4474635E0,2.6581734E-2,2.0592932E-1],"default_left":[false,true,false,false,false,false,false,false,false],"id":88,"leaf_child_counts":[0,0,0,0,0,0,0,0,0],"left_children":[1,3,-1,5,7,-1,-1,-1,-1],"loss_changes":[3.1915337E3,1.27562294E2,0E0,2.9896503E2,1.2828317E2,0E0,0E0,0E0,0E0],"parents":[2147483647,0,0,1,1,3,3,4,4],"right_children":[2,4,-1,6,8,-1,-1,-1,-1],"split_conditions":[4.8164062E0,9.0185547E-1,-5.6727114E0,4.6445312E0,1.6962891E0,-1.3419836E-2,-2.4474635E0,2.6581734E-2,2.0592932E-1],"split_indices":[424,716,0,6,8,0,0,0,0],"sum_hessian":[2.0662492E4,2.0654562E4,7.9296875E0,1.5139477E4,5.515086E3,1.5135934E4,3.5429688E0,5.1300938E3,3.849922E2],"tree_param":{"num_deleted":"0","num_feature":"946","num_nodes":"9","size_leaf_vector":"0"}},{"base_weights":[-7.830539E-3,3.0108815E-4,-5.0936646E0,2.7553213E-1,-2.1619897E-2,-1.4961421E0,8.925465E-2,2.1627562E0,-7.201159E-3],"default_left":[false,true,false,false,false,false,false,false,false],"id":89,"leaf_child_counts":[0,0,0,0,0,0,0,0,0],"left_children":[1,3,-1,5,7,-1,-1,-1,-1],"loss_changes":[2.8444004E3,1.2430688E2,0E0,1.773244E2,3.2913312E2,0E0,0E0,0E0,0E0],"parents":[2147483647,0,0,1,1,3,3,4,4],"right_children":[2,4,-1,6,8,-1,-1,-1,-1],"split_conditions":[4.8164062E0,-2.6992188E0,-5.0936646E0,-5.6152344E-1,-5.625E-1,-1.4961421E0,8.925465E-2,2.1627562E0,-7.201159E-3],"split_indices":[424,905,0,155,155,0,0,0,0],"sum_hessian":[2.0610227E4,2.0601355E4,8.871094E0,1.5189141E3,1.9082441E4,5.3789062E0,1.5135352E3,5.2929688E0,1.9077148E4],"tree_param":{"num_deleted":"0","num_feature":"946","num_nodes":"9","size_leaf_vector":"0"}},{"base_weights":[-7.5657372E-3,-4.5554552E-4,-2.2308378E1,5.287242E-3,-3.6047337E0,-8.713542E0,-9.629728E0,6.763789E-4,1.3841068E0,-2.9452056E-1,-3.9190075E0],"default_left":[true,false,false,false,false,true,false,false,false,false,false],"id":90,"leaf_child_counts":[0,0,0,0,0,0,0,0,0,0,0],"left_children":[1,3,5,7,-1,9,-1,-1,-1,-1,-1],"loss_changes":[3.270574E3,1.4229299E3,5.953528E2,2.8805527E2,0E0,1.2590701E2,0E0,0E0,0E0,0E0,0E0],"parents":[2147483647,0,0,1,1,2,2,3,3,5,5],"right_children":[2,4,6,8,-1,10,-1,-1,-1,-1,-1],"split_conditions":[4.8164062E0,4.6210938E0,-5.680084E-3,4.6445312E0,-3.6047337E0,-7.965088E-3,-9.629728E0,6.763789E-4,1.3841068E0,-2.9452056E-1,-3.9190075E0],"split_indices":[424,8,621,6,0,723,0,0,0,0,0],"sum_hessian":[2.0625395E4,2.061982E4,5.5742188E0,2.0610969E4,8.8515625E0,3.125E0,2.4492188E0,2.0598414E4,1.25546875E1,1.5664062E0,1.5585938E0],"tree_param":{"num_deleted":"0","num_feature":"946","num_nodes":"11","size_leaf_vector":"0"}},{"base_weights":[5.16723E-2,-1.8223557E-3,6.8429675E0,3.918934E-3,-3.8048606E0,3.8390347E-1,8.902739E0,4.7184803E-4,1.6155504E0,1.7581375E-1,-6.26555E-1,4.859065E0,1.3316977E0],"default_left":[true,false,false,true,false,false,true,false,false,false,false,false,false],"id":91,"leaf_child_counts":[0,0,0,0,0,0,0,0,0,0,0,0,0],"left_children":[1,3,5,7,-1,9,11,-1,-1,-1,-1,-1,-1],"loss_changes":[7.5485444E3,1.5010391E3,2.1570068E3,2.601683E2,0E0,2.1369425E1,3.9354287E3,0E0,0E0,0E0,0E0,0E0,0E0],"parents":[2147483647,0,0,1,1,2,2,3,3,5,5,6,6],"right_children":[2,4,6,8,-1,10,12,-1,-1,-1,-1,-1,-1],"split_conditions":[4.8164062E0,4.6210938E0,-5.680084E-3,4.6445312E0,-3.8048606E0,1.399231E-2,1.5742188E0,4.7184803E-4,1.6155504E0,1.7581375E-1,-6.26555E-1,4.859065E0,1.3316977E0],"split_indices":[424,8,621,6,0,181,9,0,0,0,0,0,0],"sum_hessian":[2.0776799E4,2.0615412E4,1.6138672E2,2.0607082E4,8.330078E0,3.9308594E1,1.22078125E2,2.0599102E4,7.9804688E0,3.704297E1,2.265625E0,4.5347656E1,7.673047E1],"tree_param":{"num_deleted":"0","num_feature":"946","num_nodes":"13","size_leaf_vector":"0"}},{"base_weights":[1.1821135E-2,1.750146E-2,-3.848389E0,-1.135976E-3,1.1731414E0,-9.026676E-4,2.0530598E0,2.0458052E-1,6.392034E-1],"default_left":[false,false,false,true,false,false,false,false,false],"id":92,"leaf_child_counts":[0,0,0,0,0,0,0,0,0],"left_children":[1,3,-1,5,7,-1,-1,-1,-1],"loss_changes":[1.5224086E3,4.4933984E2,0E0,2.6323438E2,1.5428735E2,0E0,0E0,0E0,0E0],"parents":[2147483647,0,0,1,1,3,3,4,4],"right_children":[2,4,-1,6,8,-1,-1,-1,-1],"split_conditions":[4.6210938E0,4.8125E0,-3.848389E0,4.6445312E0,1.5742188E0,-9.026676E-4,2.0530598E0,2.0458052E-1,6.392034E-1],"split_indices":[8,424,0,6,9,0,0,0,0],"sum_hessian":[2.0869664E4,2.0861434E4,8.230469E0,2.0531316E4,3.301172E2,2.05267E4,4.6171875E0,2.1932031E2,1.10796875E2],"tree_param":{"num_deleted":"0","num_feature":"946","num_nodes":"9","size_leaf_vector":"0"}},{"base_weights":[7.1385633E-3,1.2807901E-2,-3.714604E0,1.1121441E-2,8.008452E0,-6.305917E-4,2.763648E-1,4.08072E0,1.986755E-1],"default_left":[false,true,false,true,false,false,false,false,false],"id":93,"leaf_child_counts":[0,0,0,0,0,0,0,0,0],"left_children":[1,3,-1,5,7,-1,-1,-1,-1],"loss_changes":[1.463631E3,2.8075314E2,0E0,2.5060835E2,1.7142126E2,0E0,0E0,0E0,0E0],"parents":[2147483647,0,0,1,1,3,3,4,4],"right_children":[2,4,-1,6,8,-1,-1,-1,-1],"split_conditions":[4.6210938E0,4.6445312E0,-3.714604E0,4.8125E0,5.375E0,-6.305917E-4,2.763648E-1,4.08072E0,1.986755E-1],"split_indices":[8,6,0,424,9,0,0,0,0],"sum_hessian":[2.0834824E4,2.0826293E4,8.53125E0,2.0822902E4,3.390625E0,2.0525668E4,2.9723438E2,1.4414062E0,1.9492188E0],"tree_param":{"num_deleted":"0","num_feature":"946","num_nodes":"9","size_leaf_vector":"0"}},{"base_weights":[3.8174086E-3,9.364936E-3,-3.3674805E0,8.024595E-3,6.2704124E0,-4.4326557E-4,2.2286402E-1,3.1109958E0,6.7728534E-2],"default_left":[false,true,false,false,false,false,false,false,false],"id":94,"leaf_child_counts":[0,0,0,0,0,0,0,0,0],"left_children":[1,3,-1,5,7,-1,-1,-1,-1],"loss_changes":[1.295965E3,1.7444983E2,0E0,1.4517384E2,1.0791264E2,0E0,0E0,0E0,0E0],"parents":[2147483647,0,0,1,1,3,3,4,4],"right_children":[2,4,-1,6,8,-1,-1,-1,-1],"split_conditions":[4.6210938E0,4.6445312E0,-3.3674805E0,4.8125E0,1.8525391E0,-4.4326557E-4,2.2286402E-1,3.1109958E0,6.7728534E-2],"split_indices":[8,6,0,424,9,0,0,0,0],"sum_hessian":[2.0802055E4,2.0792781E4,9.2734375E0,2.0789332E4,3.4492188E0,2.052493E4,2.6440234E2,1.6289062E0,1.8203125E0],"tree_param":{"num_deleted":"0","num_feature":"946","num_nodes":"9","size_leaf_vector":"0"}},{"base_weights":[1.2916949E-3,6.7522987E-3,-3.617554E0,-6.805587E-3,5.159051E-1,-1.18944325E-1,2.625388E-3,1.4595209E-1,1.9513783E0],"default_left":[false,false,false,true,false,false,false,false,false],"id":95,"leaf_child_counts":[0,0,0,0,0,0,0,0,0],"left_children":[1,3,-1,5,7,-1,-1,-1,-1],"loss_changes":[1.3683696E3,1.4337444E2,0E0,1.2264979E2,9.168033E1,0E0,0E0,0E0,0E0],"parents":[2147483647,0,0,1,1,3,3,4,4],"right_children":[2,4,-1,6,8,-1,-1,-1,-1],"split_conditions":[4.6210938E0,2.1132812E0,-3.617554E0,-8.198242E-1,2.796875E0,-1.18944325E-1,2.625388E-3,1.4595209E-1,1.9513783E0],"split_indices":[8,6,0,43,745,0,0,0,0],"sum_hessian":[2.0776662E4,2.0768258E4,8.404297E0,2.023054E4,5.3771875E2,7.7571094E2,1.9454828E4,5.3616797E2,1.5507812E0],"tree_param":{"num_deleted":"0","num_feature":"946","num_nodes":"9","size_leaf_vector":"0"}},{"base_weights":[-5.8157585E-4,4.846506E-3,-3.5592873E0,-5.280967E-2,9.869061E-2,-2.2838881E-2,7.249532E-2,5.0090287E-2,-4.246063E-2],"default_left":[false,true,false,false,true,false,false,false,false],"id":96,"leaf_child_counts":[0,0,0,0,0,0,0,0,0],"left_children":[1,3,-1,5,7,-1,-1,-1,-1],"loss_changes":[1.3341385E3,1.1204969E2,0E0,8.810459E1,1.292895E2,0E0,0E0,0E0,0E0],"parents":[2147483647,0,0,1,1,3,3,4,4],"right_children":[2,4,-1,6,8,-1,-1,-1,-1],"split_conditions":[4.6210938E0,3.9379883E-1,-3.5592873E0,2.7792969E0,-7.348633E-2,-2.2838881E-2,7.249532E-2,5.0090287E-2,-4.246063E-2],"split_indices":[8,228,0,39,64,0,0,0,0],"sum_hessian":[2.0715451E4,2.0706977E4,8.474609E0,1.2826832E4,7.8801445E3,1.1886238E4,9.4059375E2,6.136371E3,1.7437734E3],"tree_param":{"num_deleted":"0","num_feature":"946","num_nodes":"9","size_leaf_vector":"0"}},{"base_weights":[-1.924153E-3,3.4190824E-3,-2.8506866E0,-5.1996797E-2,9.603094E-2,-1.7892137E-2,4.341547E0,-1.1809037E0,3.279295E-2],"default_left":[false,true,false,false,true,false,false,false,false],"id":97,"leaf_child_counts":[0,0,0,0,0,0,0,0,0],"left_children":[1,3,-1,5,7,-1,-1,-1,-1],"loss_changes":[1.0477101E3,1.0587206E2,0E0,1.433669E3,4.139472E2,0E0,0E0,0E0,0E0],"parents":[2147483647,0,0,1,1,3,3,4,4],"right_children":[2,4,-1,6,8,-1,-1,-1,-1],"split_conditions":[4.6210938E0,-4.326172E-1,-2.8506866E0,3.0390625E0,-5.6103516E-1,-1.7892137E-2,4.341547E0,-1.1809037E0,3.279295E-2],"split_indices":[8,4,0,745,155,0,0,0,0],"sum_hessian":[2.0637738E4,2.0627137E4,1.06015625E1,1.2905406E4,7.7217305E3,1.2899613E4,5.7929688E0,2.4375E1,7.6973555E3],"tree_param":{"num_deleted":"0","num_feature":"946","num_nodes":"9","size_leaf_vector":"0"}},{"base_weights":[-2.4698866E-3,1.9305004E-3,-1.4438964E1,1.3057382E-1,-3.9120097E-2,-7.3305836E0,-5.3123403E0,3.6135565E-2,2.105093E0,-6.566793E-1,-1.0400478E-2,-2.9066596E0,1.5337864E0],"default_left":[true,false,false,true,true,false,false,false,false,false,false,false,false],"id":98,"leaf_child_counts":[0,0,0,0,0,0,0,0,0,0,0,0,0],"left_children":[1,3,5,7,9,-1,11,-1,-1,-1,-1,-1,-1],"loss_changes":[1.3208903E3,1.0977926E2,4.4823547E2,3.4968298E2,1.5074966E2,0E0,2.5894757E2,0E0,0E0,0E0,0E0,0E0,0E0],"parents":[2147483647,0,0,1,1,2,2,3,3,4,4,6,6],"right_children":[2,4,6,8,10,-1,12,-1,-1,-1,-1,-1,-1],"split_conditions":[4.6210938E0,-1.9667969E0,-7.269287E-2,3.0390625E0,-1.1590576E-1,-7.3305836E0,2.6875E0,3.6135565E-2,2.105093E0,-6.566793E-1,-1.0400478E-2,-2.9066596E0,1.5337864E0],"split_indices":[8,719,104,745,711,0,34,0,0,0,0,0,0],"sum_hessian":[2.079141E4,2.0786074E4,5.3359375E0,5.027824E3,1.575825E4,1.7460938E0,3.5898438E0,5.021461E3,6.3632812E0,3.1550781E1,1.5726699E4,2.578125E0,1.0117188E0],"tree_param":{"num_deleted":"0","num_feature":"946","num_nodes":"13","size_leaf_vector":"0"}},{"base_weights":[-1.1257746E-4,-1.2271265E-2,4.3364006E-1,-1.1279057E-2,-5.4728436E0,2.9555538E-1,1.127341E0,3.928563E-3,-6.7250475E-2,9.458787E-2,-1.2028847E0,-2.506154E0,-3.5333335E-1,2.9863393E-1,1.3332741E0],"default_left":[true,true,false,false,true,false,false,false,false,false,false,false,false,false,false],"id":99,"leaf_child_counts":[0,0,0,0,0,0,0,0,0,0,0,0,0,0,0],"left_children":[1,3,5,7,11,9,13,-1,-1,-1,-1,-1,-1,-1,-1],"loss_changes":[1.09526665E2,1.0939067E2,5.3910225E1,1.0481523E2,3.554883E1,4.150969E1,3.6547203E1,0E0,0E0,0E0,0E0,0E0,0E0,0E0,0E0],"parents":[2147483647,0,0,1,1,2,2,3,3,5,5,4,4,6,6],"right_children":[2,4,6,8,12,10,14,-1,-1,-1,-1,-1,-1,-1,-1],"split_conditions":[3.203125E0,1.840625E1,1.3388672E0,3E0,-5.644531E-1,4.2421875E0,5.375E0,3.928563E-3,-6.7250475E-2,9.458787E-2,-1.2028847E0,-2.506154E0,-3.5333335E-1,2.9863393E-1,1.3332741E0],"split_indices":[24,523,9,921,4,209,9,0,0,0,0,0,0,0,0],"sum_hessian":[2.0765816E4,2.020054E4,5.6527734E2,2.0197871E4,2.6679688E0,4.72625E2,9.265234E1,1.812377E4,2.0741016E3,4.7139062E2,1.234375E0,1.03125E0,1.6367188E0,9.0359375E1,2.2929688E0],"tree_param":{"num_deleted":"0","num_feature":"946","num_nodes":"15","size_leaf_vector":"0"}},{"base_weights":[3.6045967E-4,-2.9111804E-2,1.7902601E-1,-8.432137E-3,-3.2585686E-1,1.0785477E-1,3.9147884E-1,8.5637015E-1,-3.2125716E-3,1.4800392E-2,1.1007175E-1,-1.5033364E0,-9.2545375E-2,8.832757E-2,2.7583936E-1],"default_left":[true,false,true,false,false,false,false,false,false,false,false,false,false,false,false],"id":100,"leaf_child_counts":[0,0,0,0,0,0,0,0,0,0,0,0,0,0,0],"left_children":[1,3,5,7,11,9,13,-1,-1,-1,-1,-1,-1,-1,-1],"loss_changes":[1.0910509E2,1.0914326E2,4.4320694E1,1.0840498E2,9.276554E1,3.331962E1,3.7436462E1,0E0,0E0,0E0,0E0,0E0,0E0,0E0,0E0],"parents":[2147483647,0,0,1,1,2,2,3,3,5,5,4,4,6,6],"right_children":[2,4,6,8,12,10,14,-1,-1,-1,-1,-1,-1,-1,-1],"split_conditions":[5.6591797E-1,-3.9697266E-1,8.413086E-1,-5.625E-1,-3.28125E-1,1.2825012E-2,5.957031E-1,8.5637015E-1,-3.2125716E-3,1.4800392E-2,1.1007175E-1,-1.5033364E0,-9.2545375E-2,8.832757E-2,2.7583936E-1],"split_indices":[286,117,234,155,710,723,624,0,0,0,0,0,0,0,0],"sum_hessian":[2.0718055E4,1.7785102E4,2.9329531E3,1.6627395E4,1.157707E3,2.1981016E3,7.3485156E2,1.2214844E1,1.661518E4,1.7940195E3,4.0408203E2,3.2148438E0,1.1544922E3,6.220625E2,1.1278906E2],"tree_param":{"num_deleted":"0","num_feature":"946","num_nodes":"15","size_leaf_vector":"0"}},{"base_weights":[1.8357483E-4,-2.4264863E-2,2.0816973E-1,-2.1750684E0,-2.090105E-2,6.283517E0,1.8922243E-1,-4.719487E0,-2.9209572E-1,2.1974027E-1,3.6336772E0,-5.8878803E-1,-5.332518E-3,2.2698934E0,5.4124113E-2],"default_left":[true,true,true,false,true,false,true,false,false,false,false,false,false,false,false],"id":101,"leaf_child_counts":[0,0,0,0,0,0,0,0,0,0,0,0,0,0,0],"left_children":[1,3,5,7,11,9,13,-1,-1,-1,-1,-1,-1,-1,-1],"loss_changes":[1.05136986E2,1.3381001E2,2.4915594E2,4.5506723E2,1.1209581E2,2.0889667E2,1.3958731E2,0E0,0E0,0E0,0E0,0E0,0E0,0E0,0E0],"parents":[2147483647,0,0,1,1,2,2,3,3,5,5,4,4,6,6],"right_children":[2,4,6,8,12,10,14,-1,-1,-1,-1,-1,-1,-1,-1],"split_conditions":[1.4521484E0,-2.0820312E0,-3.3261719E0,-1.5899658E-2,-5.6103516E-1,-7.4645996E-2,-5.6103516E-1,-4.719487E0,-2.9209572E-1,2.1974027E-1,3.6336772E0,-5.8878803E-1,-5.332518E-3,2.2698934E0,5.4124113E-2],"split_indices":[56,714,713,372,155,386,155,0,0,0,0,0,0,0,0],"sum_hessian":[2.067417E4,1.8500365E4,2.1738047E3,2.788086E1,1.8472484E4,5.7304688E0,2.1680742E3,1.2851562E0,2.6595703E1,3.5117188E0,2.21875E0,2.8683594E1,1.84438E4,1.5625E0,2.1665117E3],"tree_param":{"num_deleted":"0","num_feature":"946","num_nodes":"15","size_leaf_vector":"0"}},{"base_weights":[-3.2218196E-4,5.234784E-2,-9.5423386E-2,3.4762366E0,4.973782E-2,-1.3035281E-1,3.0326924E-1,3.7441137E0,-6.447308E0,-6.0290045E-1,-3.6895864E-2,1.865185E0,1.3934274E-2,5.0052237E-2,3.3275226E-1],"default_left":[false,true,true,true,false,true,true,false,false,false,false,false,false,false,false],"id":102,"leaf_child_counts":[0,0,0,0,0,0,0,0,0,0,0,0,0,0,0],"left_children":[1,3,5,7,11,9,13,-1,-1,-1,-1,-1,-1,-1,-1],"loss_changes":[1.0344457E2,1.1860008E2,1.0254839E2,2.5408923E3,2.6923474E2,9.345947E1,6.5040955E1,0E0,0E0,0E0,0E0,0E0,0E0,0E0,0E0],"parents":[2147483647,0,0,1,1,2,2,3,3,5,5,4,4,6,6],"right_children":[2,4,6,8,12,10,14,-1,-1,-1,-1,-1,-1,-1,-1],"split_conditions":[3.6193848E-2,-6.723633E-1,1.3994141E0,1.0771484E0,-5.625E-1,-3.4118652E-2,1.8981934E-1,3.7441137E0,-6.447308E0,-6.0290045E-1,-3.6895864E-2,1.865185E0,1.3934274E-2,5.0052237E-2,3.3275226E-1],"split_indices":[245,158,244,44,155,713,4,0,0,0,0,0,0,0,0],"sum_hessian":[2.0649816E4,1.3289902E4,7.359914E3,9.109375E0,1.3280793E4,6.767672E3,5.922422E2,7.0625E0,2.046875E0,2.5363281E1,6.7423086E3,6.0742188E0,1.3274719E4,5.0753125E2,8.471094E1],"tree_param":{"num_deleted":"0","num_feature":"946","num_nodes":"15","size_leaf_vector":"0"}},{"base_weights":[-1.5597999E-4,-1.751146E0,3.4075375E-3,1.9384358E0,-1.1878746E1,1.8372292E1,3.5354224E-4,-9.8108935E-1,2.778828E0,9.778143E0,-9.1515416E-1,-1.1841474E0,-1.1175795E1,-6.2849205E-3,7.5931475E-2],"default_left":[true,true,true,true,true,true,true,false,false,false,false,false,false,false,false],"id":103,"leaf_child_counts":[0,0,0,0,0,0,0,0,0,0,0,0,0,0,0],"left_children":[1,3,5,7,11,9,13,-1,-1,-1,-1,-1,-1,-1,-1],"loss_changes":[1.2885263E2,1.5902341E3,1.1561052E3,1.2359059E3,2.135162E3,1.1431426E3,1.1095789E2,0E0,0E0,0E0,0E0,0E0,0E0,0E0,0E0],"parents":[2147483647,0,0,1,1,2,2,3,3,5,5,4,4,6,6],"right_children":[2,4,6,8,12,10,14,-1,-1,-1,-1,-1,-1,-1,-1],"split_conditions":[-5.6103516E-1,6.6748047E-1,-6.723633E-1,-6.772461E-1,-5.625E-1,2.2109375E0,1.4804688E0,-9.8108935E-1,2.778828E0,9.778143E0,-9.1515416E-1,-1.1841474E0,-1.1175795E1,-6.2849205E-3,7.5931475E-2],"split_indices":[155,60,158,158,155,40,40,0,0,0,0,0,0,0,0],"sum_hessian":[2.064855E4,4.0941406E1,2.060761E4,3.0601562E1,1.0339844E1,2.4257812E0,2.0605184E4,1.8207031E1,1.2394531E1,1.1445312E0,1.28125E0,8.7578125E0,1.5820312E0,1.9004312E4,1.6008711E3],"tree_param":{"num_deleted":"0","num_feature":"946","num_nodes":"15","size_leaf_vector":"0"}},{"base_weights":[-3.7150152E-3,-1.290752E0,3.788646E-4,2.1112643E-1,-7.2866488E0,8.265995E0,-9.4579573E-4,2.8048537E0,-4.4042394E-1,-9.607143E-1,5.1911135E0,-9.9135584E-1,-3.8001492E0,-4.75306E-3,9.1377966E-2],"default_left":[true,true,true,false,false,false,false,false,false,false,false,false,false,false,false],"id":104,"leaf_child_counts":[0,0,0,0,0,0,0,0,0,0,0,0,0,0,0],"left_children":[1,3,5,7,11,9,13,-1,-1,-1,-1,-1,-1,-1,-1],"loss_changes":[1.08746155E2,5.9084534E2,2.2527995E2,8.3169867E2,2.3960724E2,3.9712726E2,9.364585E1,0E0,0E0,0E0,0E0,0E0,0E0,0E0,0E0],"parents":[2147483647,0,0,1,1,2,2,3,3,5,5,4,4,6,6],"right_children":[2,4,6,8,12,10,14,-1,-1,-1,-1,-1,-1,-1,-1],"split_conditions":[-5.6103516E-1,6.801758E-1,-6.772461E-1,-5.6152344E-1,-5.625E-1,-2.763672E-1,1.2900391E0,2.8048537E0,-4.4042394E-1,-9.607143E-1,5.1911135E0,